tree
version=v4
num_class=21
num_tree_per_iteration=21
label_index=0
max_feature_idx=23
objective=multiclass num_class:21
feature_names=Column_0 Column_1 Column_2 Column_3 Column_4 Column_5 Column_6 Column_7 Column_8 Column_9 Column_10 Column_11 Column_12 Column_13 Column_14 Column_15 Column_16 Column_17 Column_18 Column_19 Column_20 Column_21 Column_22 Column_23
feature_infos=[2017:2023] [0:1] [0:1] [0:1] [0:1] [0:8] [1:9] [0:7] [0:1] [0:1] [0:1] [0:1] [0:1] [0:1] [0:1] [0:1] [0:1] [0:1] [0:1] [0:1] [0:1] [0:1] [0:1] [0:1]
tree_sizes=3790 1453 3991 2919 863 3614 2371 767 2894 3100 1077 668 1387 863 567 1380 570 244 244 244 469 3631 1766 4009 3469 874 2937 3508 771 2844 2956 1003 638 1004 921 450 1319 730 226 226 226 457 3727 1970 3675 3554 1035 3339 2401 765 2777 3460 915 638 1034 910 453 1318 736 226 226 226 455 2684 1866 3899 3732 1256 2763 2399 772 2965 2666 1009 639 1039 819 451 1410 730 226 226 226 454 2806 1955 3641 3727 1167 3335 2533 1470 2625 2859 1100 639 1238 831 544 1334 733 227 227 227 457 2903 1666 3933 3768 1049 3644 2434 967 2821 3383 1028 643 958 819 455 1337 645 227 227 227 459 3088 1296 3933 3875 1277 3473 2607 973 3051 3671 1121 653 875 746 455 1563 640 227 227 227 458 3331 1295 4020 3516 1369 3477 2568 1201 2977 3077 1048 653 1145 746 455 1416 916 227 227 227 459 3463 1392 3994 3016 1367 3485 2888 1402 2991 2765 1120 735 1065 751 453 1218 928 227 227 227 458 3501 1690 3987 3676 1364 3632 2774 1402 2949 2805 1123 619 1271 922 451 1604 564 227 227 227 458 3601 1707 3609 2826 1367 3639 2487 1487 2530 2990 1115 646 1149 748 453 1217 901 227 227 227 459 3964 1707 4025 3668 1372 3909 2716 1399 2667 3138 1030 617 1256 917 455 1222 898 227 227 227 458 3957 1692 3827 2996 1290 3948 2811 1114 2482 3721 1034 645 1081 749 452 1300 646 227 227 227 457 3091 1794 3799 2876 1371 3981 2811 1313 2597 3099 1034 618 1490 1374 454 1304 814 227 227 227 459 2827 1721 3900 3882 1374 3970 3381 1111 2491 3051 1014 647 1539 995 455 1296 650 227 227 227 458 3275 1910 3920 3178 1474 3927 3200 1138 2575 3489 1020 619 1333 834 455 1523 728 227 227 227 461 3267 2008 4047 3074 1494 3829 3496 1220 3420 3521 1022 619 1337 753 455 1198 731 227 227 227 460 2800 1835 3879 3136 1496 4000 3187 1310 2551 3755 1025 646 1660 835 456 1301 568 227 227 227 458 3728 1795 3988 2903 1673 4014 3398 1036 2688 3283 1013 617 1336 665 543 1306 729 227 227 227 461 4005 2324 3479 2976 1676 3962 3175 1302 2268 3370 1016 651 1636 666 546 1492 565 227 227 227 460 2916 2269 3817 3218 1145 4075 3060 1297 2359 2969 1105 618 1337 748 545 1389 732 227 227 227 460 3987 2282 3572 3846 1780 3021 2960 1306 2349 3854 1105 892 1251 668 549 1305 566 227 227 227 460 4079 2492 3741 3761 1772 3158 3150 1197 2664 3944 1193 735 1723 990 454 1517 733 227 227 227 460 3087 2093 3148 3982 1278 3875 3257 1130 3144 3105 1016 706 1438 742 549 1123 656 227 227 227 460 3982 2226 3832 2767 1788 3859 3359 1057 3528 2976 1106 895 1530 991 455 1723 545 227 227 227 542 3200 2378 4053 3092 1525 3003 3362 1129 2597 3019 1019 710 1450 992 549 1306 653 227 227 227 457 4053 2195 3974 3931 1615 3973 3260 1194 3447 3027 1007 895 1331 924 544 1236 651 227 227 227 543 3526 2157 4067 3635 1789 3630 3657 1213 3000 3655 1003 728 1453 925 455 1715 648 227 227 227 461 3728 1734 3327 4003 1418 3969 2952 1172 3035 3552 1007 706 1335 996 537 1229 542 227 227 227 544 3798 1686 4023 3917 1408 3760 3152 1172 3201 3205 1210 735 1455 923 547 1113 655 227 227 227 461 3893 1891 3945 2808 1076 3911 3237 1178 2697 3249 1005 710 1363 927 550 1629 655 227 227 227 543 3864 2457 3997 3235 1259 4004 3459 1171 2912 3453 1005 734 1431 1024 455 1336 749 227 227 227 460 4072 1652 3522 3482 1157 3745 3871 1175 2510 2824 1105 715 1458 1119 544 1232 461 227 227 227 544 4080 2564 4000 3992 1160 3008 3391 1412 3120 3021 1010 729 1458 943 550 1419 658 227 227 227 459 3819 2770 3932 3995 1822 3307 3565 1531 3195 3589 1027 621 1433 944 549 1300 749 227 227 227 456 3989 2599 3914 3787 1359 3917 3041 1412 2942 3131 1097 734 1054 941 546 1188 659 227 227 227 460 3884 2495 3947 3981 1551 4068 3614 1132 3068 3303 1023 626 1227 943 551 1234 549 227 227 227 460 3939 2735 3936 3088 1031 3959 3457 1532 3094 3082 1104 800 1457 939 549 1358 655 227 227 227 543 3699 2305 3892 3052 1036 3909 3246 1306 3305 3068 1117 811 1435 1029 546 1436 675 227 227 227 460 3691 1943 3534 3959 1119 3957 4003 1187 3221 3319 1007 727 1519 940 546 1382 750 227 227 227 543 3990 2618 3932 3997 1239 2971 3248 1189 3871 3390 1186 728 1538 1126 547 1234 746 227 227 227 461 4042 1982 3095 3919 1339 3337 3028 1415 3028 2907 1009 626 1611 1209 545 1274 676 227 227 227 543 3992 2516 3970 3919 1162 3904 3250 1193 3328 3713 1096 726 1733 1306 545 1384 673 227 227 227 540 3946 2626 3987 3593 1463 2851 3386 1119 3309 3758 1006 626 1736 1106 547 1147 671 227 227 227 543 4040 2041 3837 3180 1496 3936 3647 1258 2990 3498 1284 729 1735 1020 545 1192 667 227 227 227 460 4018 2390 3991 3147 1373 3994 3517 1051 3030 3657 1072 626 1521 1019 545 1146 676 227 227 227 460 3992 2383 3879 3374 1369 3652 3725 1174 2818 3662 1008 729 1528 1016 544 1272 658 227 227 227 541 3977 2693 4008 3347 1372 3768 3317 1052 3180 3088 1093 643 1724 1022 546 1448 656 228 228 228 461 3775 2380 3807 3449 1600 3962 3299 1233 3914 3794 1011 628 1731 1021 546 1442 747 228 228 228 545 3951 2466 3965 3271 1475 3066 3640 1237 3477 3199 1008 648 1231 1024 547 1184 659 228 228 228 541 4037 2384 3923 3368 1479 3983 3496 1232 3607 3034 1011 539 1504 948 545 1511 744 228 228 228 540 3960 2295 3995 3193 1482 3906 3183 1161 2684 3575 1013 563 1666 1021 546 1649 738 228 228 228 461 4021 2385 4002 3153 1736 3427 3437 938 3297 3358 1094 540 1229 1147 546 1511 659 228 228 228 543 3889 2970 3981 2861 1377 3418 3243 1235 2907 4031 1101 807 1774 1027 544 1650 740 228 228 228 544 4081 2099 4051 3976 1382 3906 3216 1056 3727 3204 1003 806 1528 1306 545 1412 745 228 228 228 461 3975 2591 4040 3993 2036 3889 3364 973 3386 3951 930 654 1442 946 548 1190 747 228 228 228 542 4018 2019 3937 2721 1393 3976 3228 1239 3695 2687 1006 656 1657 947 545 1607 736 228 228 228 458 4019 2674 3724 3259 2131 3858 3816 1153 3784 3985 928 653 1526 942 546 1509 736 228 228 228 540 3952 1882 3965 3625 1706 3878 3860 1023 3946 3567 1007 535 1571 954 546 1730 739 228 228 228 543 3974 1888 4006 2672 1608 3494 4008 1183 3029 3746 929 657 1663 946 547 1514 737 228 228 228 541 3936 2212 4007 3187 1851 4076 3651 1149 2911 3942 992 539 1689 934 550 1295 568 228 228 228 461 3976 2197 3920 3149 1362 3909 3708 1253 3746 3104 931 654 2073 1225 546 1519 732 228 228 228 539

Tree=0
num_leaves=36
num_cat=0
split_feature=3 1 7 17 16 6 5 0 7 6 6 6 7 7 5 23 12 6 6 6 0 5 5 5 0 6 0 0 7 7 6 7 7 0 5
split_gain=66.7664 66.1554 27.9901 11.7137 12.8067 17.6645 14.1562 10.0685 15.5312 5.4991 5.0692 4.07562 3.19061 3.44317 5.5796 2.38164 1.77505 1.54952 1.54008 1.43349 0.944181 1.03407 0.913756 0.856665 0.80101 0.795197 2.05637 0.93204 1.25773 0.709885 0.531287 0.511039 3.50245 0.275401 0.0208718
threshold=1.0000000180025095e-35 1.0000000180025095e-35 2.5000000000000004 1.0000000180025095e-35 1.0000000180025095e-35 6.5000000000000009 3.5000000000000004 2017.5000000000002 3.5000000000000004 6.5000000000000009 4.5000000000000009 5.5000000000000009 1.0000000180025095e-35 5.5000000000000009 2.5000000000000004 1.0000000180025095e-35 1.0000000180025095e-35 8.5000000000000018 5.5000000000000009 8.5000000000000018 2022.5000000000002 1.5000000000000002 2.5000000000000004 1.5000000000000002 2022.5000000000002 7.5000000000000009 2021.5000000000002 2020.5000000000002 1.0000000180025095e-35 1.5000000000000002 7.5000000000000009 5.5000000000000009 6.5000000000000009 2018.5000000000002 4.5000000000000009
decision_type=2 2 2 2 2 2 2 2 2 2 2 2 2 2 2 2 2 2 2 2 2 2 2 2 2 2 2 2 2 2 2 2 2 2 2
left_child=1 3 10 4 5 16 12 19 9 -9 -3 -4 -7 23 30 24 18 34 -1 -2 21 -10 -6 -14 25 27 29 28 -12 33 -15 -20 -33 -27 -8
right_child=7 2 11 -5 22 6 17 8 20 -11 15 -13 13 14 -16 -17 -18 -19 31 -21 -22 -23 -24 -25 -26 26 -28 -29 -30 -31 -32 32 -34 -35 -36
leaf_value=-1.7383386700677743 -1.6690015943391705 -1.7307535393268612 -1.6757996186960944 -1.7458127943192225 -1.7488733604278639 -1.7028528354482309 -1.6960743181407394 -1.6905220635196823 -1.6606785991637774 -1.5941031175632707 -1.652604362965771 -1.5938789723511775 -1.5785183659060138 -1.6995001884720149 -1.6252354666957534 -1.6334409093730593 -1.6873711025021116 -1.7397527077347155 -1.7302741292602253 -1.7177538412226196 -1.7215910274247255 -1.7028528354482309 -1.6987224358687447 -1.6606785991637776 -1.708276852047502 -1.708276852047502 -1.6322625780132882 -1.7215910274247255 -1.7028528354482309 -1.6641696560439152 -1.6763551964594239 -1.6506320861762294 -1.71613884999541 -1.6905220635196823 -1.6905220635196823
leaf_weight=19.583551168441772 2.0531142354011527 5.053819656372073 3.0007054209709194 42.957467079162598 20.531142354011539 1.7372505068779016 2.3689779639244062 1.7372505068779016 2.3689779639244071 25.111166417598724 1.5793186426162784 17.056641340255737 2.6848416924476632 4.5800240635871869 6.475206434726716 2.5269098281860343 2.0531142354011527 5.0538196563720703 2.5269098281860325 2.8427735567092896 1.5793186426162718 1.7372505068778989 2.5269098281860343 2.368977963924408 2.0531142354011527 2.0531142354011518 2.0531142354011536 1.5793186426162718 1.7372505068778989 1.8951823711395261 4.4220921993255615 2.0531142354011527 8.5283206701278687 3.9482966065406799 2.5269098281860352
leaf_count=124 13 32 19 272 130 11 15 11 15 159 10 108 17 29 41 16 13 32 16 18 10 11 16 15 13 13 13 10 11 12 28 13 54 25 16
internal_value=-1.69052 -1.70413 -1.64902 -1.72291 -1.71132 -1.69893 -1.67138 -1.62706 -1.61661 -1.60021 -1.68846 -1.60397 -1.64797 -1.64196 -1.65969 -1.67514 -1.72496 -1.72091 -1.72802 -1.69317 -1.69221 -1.68222 -1.74481 -1.60352 -1.68504 -1.6796 -1.67112 -1.69317 -1.68163 -1.68841 -1.69022 -1.70904 -1.69946 -1.695 -1.69317
internal_weight=214.945 177.515 44.5368 132.979 90.0212 66.9631 32.2181 37.4299 32.534 26.8484 24.4794 20.0573 22.2684 20.5311 15.4773 19.4256 34.745 9.94971 32.6919 4.89589 5.68555 4.10623 23.0581 5.05382 16.8987 14.8456 9.94971 4.89589 3.31657 7.89659 9.00212 13.1083 10.5814 6.00141 4.89589
internal_count=1361 1124 282 842 570 424 204 237 206 170 155 127 141 130 98 123 220 63 207 31 36 26 146 32 107 94 63 31 21 50 57 83 67 38 31
is_linear=0
shrinkage=1


Tree=1
num_leaves=13
num_cat=0
split_feature=6 7 0 1 0 8 1 0 0 0 0 5
split_gain=241.415 114.824 78.7403 64.829 13.3264 10.0052 1.13784 2.48053 0.787405 0.921991 0.657638 0.0622493
threshold=8.5000000000000018 3.5000000000000004 2018.5000000000002 1.0000000180025095e-35 2021.5000000000002 1.0000000180025095e-35 1.0000000180025095e-35 2018.5000000000002 2020.5000000000002 2019.5000000000002 2017.5000000000002 1.5000000000000002
decision_type=2 2 2 2 2 2 2 2 2 2 2 2
left_child=-1 4 10 -4 6 -6 7 -2 9 -9 -3 -5
right_child=1 2 3 11 5 -7 -8 8 -10 -11 -12 -13
leaf_value=-2.2727177812031849 -2.2594573682994805 -2.2563830162587606 -1.975881175181476 -2.2274041030631846 -2.2526113955475426 -2.1429170167964626 -2.2633464535315881 -2.2187627288873508 -2.2248016608398586 -2.1706830068725638 -2.2187627288873508 -2.2187627288873508
leaf_weight=86.601443789899349 3.5617515072226542 2.8494012057781246 18.521107837557796 1.7299935892224305 2.2388152331113806 8.5482036173343641 4.9864521101117125 1.9335222467780113 2.6458725482225418 1.424700602889061 1.831757918000221 1.6282292604446409
leaf_count=851 35 28 182 17 22 84 49 19 26 14 18 16
internal_value=-2.21876 -2.1293 -2.05411 -2.01317 -2.2117 -2.16844 -2.24327 -2.22788 -2.20983 -2.19372 -2.24347 -2.22075
internal_weight=138.501 51.8998 26.5605 21.8793 25.3393 10.787 14.5523 9.56585 6.0041 3.35822 4.68116 3.35822
internal_count=1361 510 261 215 249 106 143 94 59 33 46 33
is_linear=0
shrinkage=1


Tree=2
num_leaves=38
num_cat=0
split_feature=6 17 8 1 7 6 17 7 5 11 5 0 5 7 7 10 21 2 5 0 5 5 0 7 6 6 0 7 6 0 6 0 0 5 0 0 0
split_gain=51.7403 50.1609 35.4728 15.3952 22.018 8.62376 9.84871 6.94516 6.91356 4.23452 2.72793 2.50638 5.2629 5.49805 2.84567 2.18032 1.99316 1.965 1.39136 1.16645 3.29132 1.09381 0.949475 0.856268 0.80364 0.840135 0.797734 0.781208 0.665928 1.18047 0.524278 0.46314 0.45433 0.265595 0.222044 0.17285 0.167709
threshold=4.5000000000000009 1.0000000180025095e-35 1.0000000180025095e-35 1.0000000180025095e-35 1.0000000180025095e-35 6.5000000000000009 1.0000000180025095e-35 5.5000000000000009 1.0000000180025095e-35 1.0000000180025095e-35 5.5000000000000009 2018.5000000000002 2.5000000000000004 3.5000000000000004 6.5000000000000009 1.0000000180025095e-35 1.0000000180025095e-35 1.0000000180025095e-35 2.5000000000000004 2018.5000000000002 1.0000000180025095e-35 1.0000000180025095e-35 2017.5000000000002 4.5000000000000009 8.5000000000000018 7.5000000000000009 2019.5000000000002 2.5000000000000004 8.5000000000000018 2020.5000000000002 6.5000000000000009 2020.5000000000002 2018.5000000000002 2.5000000000000004 2019.5000000000002 2020.5000000000002 2022.5000000000002
decision_type=2 2 2 2 2 2 2 2 2 2 2 2 2 2 2 2 2 2 2 2 2 2 2 2 2 2 2 2 2 2 2 2 2 2 2 2 2
left_child=1 2 33 5 8 6 10 -4 30 15 11 18 14 -14 21 16 17 -7 22 20 -6 -13 -2 28 25 -11 -17 -22 29 -21 -5 -26 -8 -1 -3 -16 -25
right_child=3 34 7 4 19 9 32 -9 -10 24 -12 12 13 -15 35 26 -18 -19 -20 23 27 -23 -24 36 31 -27 -28 -29 -30 -31 -32 -33 -34 -35 -36 -37 -38
leaf_value=-2.1986951658365417 -2.1563671940071076 -2.1986951658365417 -1.9868546666029436 -2.1986951658365417 -2.1288594057288415 -2.2406412711475099 -2.1986951658365417 -2.1319088096855365 -2.0551359399135141 -2.1986951658365417 -2.2247680140599373 -2.1986951658365417 -2.1989715409992696 -2.0941756453635119 -2.1986951658365417 -2.1712735562011112 -2.198411027717198 -2.1893178341478059 -2.2284441059302442 -2.1604934544614447 -2.19262188084052 -2.1391977417089088 -2.1989715409992696 -2.2338560928912834 -2.19262188084052 -2.1518658464016114 -2.2130788661937526 -2.230441022388121 -2.2159565934906116 -2.2080001668614835 -2.1611149740121567 -2.2233092653284685 -2.2417816444752665 -2.2233092653284685 -2.2365922759444499 -2.230441022388121 -2.1986951658365417
leaf_weight=1.7606956884264957 1.5535550191998508 1.1392736807465542 7.1463530883193016 1.035703346133235 1.0357033461332346 57.688676379621029 1.0357033461332346 2.7963990345597267 3.5213913768529892 1.1392736807465544 1.4499846845865239 1.0357033461332306 1.3464143499732015 4.2463837191462517 1.0357033461332323 1.3464143499732011 2.382117696106433 1.1392736807465542 1.7606956884264944 1.6571253538131698 1.2428440153598788 1.6571253538131712 1.3464143499732018 4.8678057268261909 1.2428440153598788 1.449984684586525 2.0714066922664642 1.9678363576531408 3.6249617114663124 1.7606956884264944 2.7963990345597267 1.3464143499732015 8.1820564344525319 1.3464143499732015 5.6963684037327766 1.9678363576531408 1.1392736807465551
leaf_count=17 15 11 69 10 10 557 10 27 34 11 14 10 13 41 10 13 23 11 17 16 12 16 13 47 12 14 20 19 35 17 27 13 79 13 55 19 11
internal_value=-2.1987 -2.12134 -2.06294 -2.21184 -2.1755 -2.22148 -2.19666 -2.01726 -2.10364 -2.23118 -2.17276 -2.16562 -2.15293 -2.11974 -2.19491 -2.23493 -2.23721 -2.23915 -2.1987 -2.20774 -2.18805 -2.15834 -2.17793 -2.21604 -2.18969 -2.17089 -2.1987 -2.21191 -2.19946 -2.18738 -2.17071 -2.204 -2.23792 -2.21077 -2.23248 -2.22337 -2.2297
internal_weight=140.959 19.8855 13.0499 121.074 24.6497 96.424 26.6176 9.94275 7.35349 69.8064 17.3998 15.9498 11.2892 5.5928 5.69637 64.6279 61.2101 58.828 4.66067 17.2962 4.24638 2.69283 2.89997 13.0499 5.17852 2.58926 3.41782 3.21068 7.04278 3.41782 3.8321 2.58926 9.21776 3.10711 6.83564 3.00354 6.00708
internal_count=1361 192 126 1169 238 931 257 96 71 674 168 154 109 54 55 624 591 568 45 167 41 26 28 126 50 25 33 31 68 33 37 25 89 30 66 29 58
is_linear=0
shrinkage=1


Tree=3
num_leaves=27
num_cat=0
split_feature=17 6 5 8 3 10 7 7 7 1 13 22 5 9 7 7 7 3 5 7 7 5 3 20 5 7
split_gain=22.6822 25.1941 14.2119 11.3809 8.86534 7.27637 6.77 6.70629 6.36411 5.27722 4.19837 3.88515 3.43138 2.79299 2.5033 1.10348 0.61518 2.55518 0.793197 1.35527 1.04206 0.86121 0.433623 0.24532 0.10309 0.0542733
threshold=1.0000000180025095e-35 8.5000000000000018 4.5000000000000009 1.0000000180025095e-35 1.0000000180025095e-35 1.0000000180025095e-35 1.0000000180025095e-35 6.5000000000000009 6.5000000000000009 1.0000000180025095e-35 1.0000000180025095e-35 1.0000000180025095e-35 1.5000000000000002 1.0000000180025095e-35 3.5000000000000004 6.5000000000000009 5.5000000000000009 1.0000000180025095e-35 1.0000000180025095e-35 2.5000000000000004 1.5000000000000002 1.5000000000000002 1.0000000180025095e-35 1.0000000180025095e-35 7.5000000000000009 1.0000000180025095e-35
decision_type=2 2 2 2 2 2 2 2 2 2 2 2 2 2 2 2 2 2 2 2 2 2 2 2 2 2
left_child=1 2 3 14 5 6 23 16 10 -7 11 -8 -6 -10 -1 -16 18 -18 22 20 21 -20 -3 -5 -2 -23
right_child=24 7 -4 4 12 9 8 -9 13 -11 -12 -13 -14 -15 15 -17 17 -19 19 -21 -22 25 -24 -25 -26 -27
leaf_value=-2.4843140239867161 -2.4927222222999657 -2.4739080364761752 -2.4881797145047244 -2.4452903781858013 -2.4748414006871453 -2.4817380739777004 -2.3185207517338249 -2.4900539522328136 -2.3902087934358511 -2.3810706300620414 -2.4452903781858013 -2.4452903781858013 -2.3958240835948867 -2.4611643066644655 -2.4093792600694375 -2.4492809550052792 -2.3922779278255804 -2.4674652074574284 -2.4218131457841845 -2.4679958305497793 -2.3995666291748092 -2.4452903781858013 -2.4452903781858013 -2.4229047066177727 -2.4500458304038633 -2.4629546530251338
leaf_weight=3.4088668003678304 21.617204099893573 3.7414391711354318 4.7391562834382048 3.0762944296002419 3.9077253565192214 2.8268651515245429 12.38832081109285 15.880330704152582 8.9794540107250196 1.5797187611460684 0.91457401961088258 0.83143092691898424 1.4134325757622717 0.91457401961088258 2.3280065953731537 2.5774358734488487 1.8291480392217627 1.2471463903784752 2.826865151524542 2.9100082442164412 1.49657566845417 4.1571546345949173 4.1571546345949173 0.83143092691898335 1.5797187611460675 0.99771711230278004
leaf_count=41 260 45 57 37 47 34 149 191 108 19 11 10 17 11 28 31 22 15 34 35 18 50 50 10 19 12
internal_value=-2.44529 -2.43319 -2.40865 -2.39935 -2.38712 -2.37692 -2.36719 -2.46444 -2.35688 -2.44529 -2.33268 -2.32552 -2.44631 -2.39962 -2.45246 -2.43187 -2.44529 -2.42684 -2.44961 -2.44268 -2.4315 -2.44381 -2.46231 -2.43977 -2.49103 -2.45365
internal_weight=113.158 89.9608 50.7173 45.9781 37.6638 32.3427 27.9361 39.2435 24.0284 4.40658 14.1343 13.2198 5.32116 9.89403 8.31431 4.90544 23.3632 3.07629 20.2869 12.3883 9.47831 7.98174 7.89859 3.90773 23.1969 5.15487
internal_count=1361 1082 610 553 453 389 336 472 289 53 170 159 64 119 100 59 281 37 244 149 114 96 95 47 279 62
is_linear=0
shrinkage=1


Tree=4
num_leaves=7
num_cat=0
split_feature=16 0 5 5 6 9
split_gain=333.291 77.7823 57.2424 10.2839 1.63257 1.14682
threshold=1.0000000180025095e-35 2019.5000000000002 1.0000000180025095e-35 1.0000000180025095e-35 8.5000000000000018 1.0000000180025095e-35
decision_type=2 2 2 2 2 2
left_child=4 2 -2 -3 -1 -6
right_child=1 3 -4 -5 5 -7
leaf_value=-3.046678204074531 -2.4242664029257277 -2.8410089110577252 -2.9964672974753594 -3.0096830449269509 -3.0302395487694023 -2.9970124564252103
leaf_weight=41.068392902612686 2.5916946977376933 3.5885003507137299 0.64792367443442334 0.84728480502963055 13.606397163122894 5.4824310913681975
leaf_count=824 52 72 13 17 273 110
internal_value=-2.99647 -2.686 -2.51083 -2.87457 -3.03976 -3.02226
internal_weight=67.8326 7.6754 3.23962 4.43579 60.1572 19.0888
internal_count=1361 154 65 89 1207 383
is_linear=0
shrinkage=1


Tree=5
num_leaves=34
num_cat=0
split_feature=6 7 8 17 5 7 0 6 10 11 5 9 5 2 6 0 7 7 1 7 6 9 5 6 5 5 0 12 5 6 6 5 5
split_gain=27.3578 45.9904 24.8581 37.8109 15.5237 12.4203 7.45116 6.84898 4.5958 2.79888 3.34281 4.31069 2.52624 2.31248 2.26508 2.11138 1.95384 1.3649 2.28827 1.35903 1.30624 0.728632 0.69983 0.655489 0.586288 0.472326 0.350442 0.260687 0.606045 0.257988 0.120656 0.0662457 0.0778948
threshold=8.5000000000000018 1.5000000000000002 1.0000000180025095e-35 1.0000000180025095e-35 3.5000000000000004 6.5000000000000009 2018.5000000000002 4.5000000000000009 1.0000000180025095e-35 1.0000000180025095e-35 1.5000000000000002 1.0000000180025095e-35 2.5000000000000004 1.0000000180025095e-35 5.5000000000000009 2022.5000000000002 1.5000000000000002 1.0000000180025095e-35 1.0000000180025095e-35 5.5000000000000009 5.5000000000000009 1.0000000180025095e-35 1.0000000180025095e-35 3.5000000000000004 1.5000000000000002 1.5000000000000002 2018.5000000000002 1.0000000180025095e-35 1.0000000180025095e-35 2.5000000000000004 4.5000000000000009 1.5000000000000002 2.5000000000000004
decision_type=2 2 2 2 2 2 2 2 2 2 2 2 2 2 2 2 2 2 2 2 2 2 2 2 2 2 2 2 2 2 2 2 2
left_child=1 15 6 4 7 30 12 26 13 10 14 20 -3 17 -9 21 -10 27 -19 -5 -12 -1 -16 29 -11 -17 -4 28 -2 -8 -6 -30 -33
right_child=8 2 3 19 5 -7 23 9 16 24 11 -13 -14 -15 22 25 -18 18 -20 -21 -22 -23 -24 -25 -26 -27 -28 -29 31 -31 -32 32 -34
leaf_value=-2.4508780006962727 -2.4421260309851411 -2.3048575648423153 -2.4037906472790485 -2.3426365937438036 -2.4037906472790485 -2.2408977935139394 -2.4205559229277376 -2.3529312711010455 -2.3439243681230901 -2.3958964087559411 -2.3887260998007278 -2.4223457083171693 -2.4037906472790485 -2.3829744661269183 -2.4347865736113889 -2.3855229131088289 -2.4099266871134484 -2.4565226204503938 -2.4096806067174734 -2.1960149105408071 -2.3237820411761718 -2.4037906472790485 -2.4031620068090338 -2.4412504894333438 -2.4303609273210469 -2.4205559229277376 -2.4428293484183401 -2.4037906472790485 -2.4037906472790485 -2.3930947307213639 -2.3900336493881755 -2.4172613455849139 -2.4037906472790485
leaf_weight=20.111974485218532 3.1937470212578738 1.0358098447322839 1.0358098447322905 1.6400322541594494 1.294762305915355 3.884286917746067 0.94949235767126006 1.3810797929763854 1.2084448188543313 1.2084448188543313 2.5032071247696841 1.0358098447322852 1.0358098447322843 0.86317487061023612 1.9853022024035452 1.6400322541594499 1.6400322541594503 24.686801299452785 4.833779275417327 4.488509327173233 7.9412088096141815 0.94949235767125983 2.4168896377086639 8.8907011672854406 1.5537147670984266 0.94949235767126072 3.3663819953799248 1.8989847153425223 1.726349741220474 1.1221273317933083 1.0358098447322843 2.0716196894645695 1.8989847153425214
leaf_count=233 37 12 12 19 15 45 11 16 14 14 29 12 12 10 23 19 19 286 56 52 92 11 28 103 18 11 39 22 20 13 12 24 22
internal_value=-2.40379 -2.38408 -2.35526 -2.3333 -2.36092 -2.29059 -2.41607 -2.38285 -2.43644 -2.36926 -2.36138 -2.34552 -2.34173 -2.4412 -2.39968 -2.44343 -2.38095 -2.44339 -2.44997 -2.22001 -2.33507 -2.44882 -2.41571 -2.43543 -2.41059 -2.40379 -2.43595 -2.42141 -2.42491 -2.40379 -2.40163 -2.40812 -2.4118
internal_weight=117.478 73.4562 49.8052 36.7712 30.6427 6.21486 13.0339 24.4278 44.0219 20.0257 17.2635 11.4802 2.07162 41.1734 5.78327 23.651 2.84848 40.3103 29.5206 6.12854 10.4444 21.0615 4.40219 10.9623 2.76216 2.58952 4.40219 10.7897 8.8907 2.07162 2.33057 5.69695 3.9706
internal_count=1361 851 577 426 355 72 151 283 510 232 200 133 24 477 67 274 33 467 342 71 121 244 51 127 32 30 51 125 103 24 27 66 46
is_linear=0
shrinkage=1


Tree=6
num_leaves=22
num_cat=0
split_feature=17 7 0 7 0 6 8 6 21 0 0 6 11 5 14 6 0 0 7 7 0
split_gain=318.34 231.42 83.3494 36.0541 31.1133 11.5207 9.5276 5.82822 4.41055 7.55046 2.62949 1.98929 4.81602 3.84679 1.93575 1.36254 0.61787 0.579642 0.392375 0.237299 0.0353919
threshold=1.0000000180025095e-35 3.5000000000000004 2020.5000000000002 1.5000000000000002 2017.5000000000002 6.5000000000000009 1.0000000180025095e-35 7.5000000000000009 1.0000000180025095e-35 2021.5000000000002 2020.5000000000002 8.5000000000000018 1.0000000180025095e-35 2.5000000000000004 1.0000000180025095e-35 6.5000000000000009 2021.5000000000002 2018.5000000000002 6.5000000000000009 2.5000000000000004 2019.5000000000002
decision_type=2 2 2 2 2 2 2 2 2 2 2 2 2 2 2 2 2 2 2 2 2
left_child=3 2 -2 4 5 -1 10 -3 14 -10 -6 13 17 15 19 -8 20 -13 -16 -5 -17
right_child=1 7 -4 8 6 -7 11 -9 9 -11 -12 12 -14 -15 18 16 -18 -19 -20 -21 -22
leaf_value=-1.7672233918800035 -1.8007206964270404 -1.8084482987307071 -1.5083527553780758 -1.7947984596403366 -1.7606538872937647 -1.618535433893534 -1.7973506321397739 -1.7307686812008236 -1.807749297700876 -1.7083972441095572 -1.6909972105456783 -1.7659130924475415 -1.7302580450764833 -1.7190867833452506 -1.7606538872937647 -1.7606538872937647 -1.7795547365489639 -1.809852581383081 -1.7840888972752289 -1.8171994901899873 -1.7505034318977015
leaf_weight=1.4949023723602284 2.6908242702484158 12.856160402297972 23.768947720527649 11.809728741645811 2.5413340330123892 4.7836875915527344 6.5775704383850124 2.3918437957763663 4.4847071170806876 2.6908242702484131 3.4382754564285278 2.3918437957763734 1.7938828468322743 2.5413340330123892 2.3918437957763663 2.5413340330123884 3.4382754564285278 14.500553011894224 2.5413340330123901 89.245671629905701 2.5413340330123901
leaf_count=10 18 86 159 79 17 32 44 16 30 18 23 16 12 17 16 17 23 97 17 597 17
internal_value=-1.76065 -1.63172 -1.53923 -1.79439 -1.7567 -1.65379 -1.7732 -1.79393 -1.81068 -1.76609 -1.7164 -1.78395 -1.79608 -1.76884 -1.81342 -1.78038 -1.76274 -1.80546 -1.77207 -1.8151 -1.75418
internal_weight=203.456 41.7078 26.4598 161.748 48.5843 6.27859 42.3057 15.248 113.164 7.17553 5.97961 36.3261 18.6863 17.6398 105.989 15.0985 8.52094 16.8924 4.93318 101.055 5.08267
internal_count=1361 279 177 1082 325 42 283 102 757 48 40 243 125 118 709 101 57 113 33 676 34
is_linear=0
shrinkage=1


Tree=7
num_leaves=6
num_cat=0
split_feature=16 5 7 21 2
split_gain=28.1449 6.01684 2.15255 2.26997 1.39452
threshold=1.0000000180025095e-35 1.0000000180025095e-35 6.5000000000000009 1.0000000180025095e-35 1.0000000180025095e-35
decision_type=2 2 2 2 2
left_child=2 -2 4 -4 -1
right_child=1 -3 3 -5 -6
leaf_value=-4.5528329357519013 -4.3147574582666968 -4.5079248015492563 -4.5191184604178725 -4.4307116507090543 -4.495294063560733
leaf_weight=9.8883334100246394 1.4191589616239078 0.34334491007029999 3.4677835917100306 0.1487827943637966 0.30901041906327087
leaf_count=864 124 30 303 13 27
internal_value=-4.50792 -4.34711 -4.53638 -4.5069 -4.5482
internal_weight=15.5764 1.7625 13.8139 3.61657 10.1973
internal_count=1361 154 1207 316 891
is_linear=0
shrinkage=1


Tree=8
num_leaves=27
num_cat=0
split_feature=6 7 17 1 6 8 20 15 21 4 0 5 8 10 7 0 6 8 0 0 15 6 0 0 0 5
split_gain=107.114 55.1136 30.836 16.4247 11.0602 13.0453 6.58327 7.2597 6.56009 6.47038 10.1108 4.96337 4.94251 3.09365 2.9185 2.32908 1.90529 1.01514 2.06724 0.69049 0.652671 0.613752 0.544261 0.62338 0.103386 0.0856322
threshold=7.5000000000000009 3.5000000000000004 1.0000000180025095e-35 1.0000000180025095e-35 3.5000000000000004 1.0000000180025095e-35 1.0000000180025095e-35 1.0000000180025095e-35 1.0000000180025095e-35 1.0000000180025095e-35 2019.5000000000002 3.5000000000000004 1.0000000180025095e-35 1.0000000180025095e-35 1.5000000000000002 2018.5000000000002 6.5000000000000009 1.0000000180025095e-35 2021.5000000000002 2020.5000000000002 1.0000000180025095e-35 8.5000000000000018 2018.5000000000002 2020.5000000000002 2021.5000000000002 2.5000000000000004
decision_type=2 2 2 2 2 2 2 2 2 2 2 2 2 2 2 2 2 2 2 2 2 2 2 2 2 2
left_child=1 4 3 6 5 -1 7 8 9 10 15 -7 -4 20 17 -3 22 18 -6 -11 -2 -15 -16 -24 -25 -5
right_child=13 2 12 25 14 11 -8 -9 -10 19 -12 -13 -14 21 16 -17 -18 -19 -20 -21 -22 -23 23 24 -26 -27
leaf_value=-2.0607551793392918 -2.240681152792229 -2.1244049152603086 -1.9595037253101621 -2.2296677864593994 -2.1608007160132918 -2.2237473261085063 -2.2016173492590876 -2.2134761988332277 -2.1920944818051895 -2.1459603469048676 -2.0395668325056895 -2.1226905966797966 -2.0897489409942858 -2.1755028823681348 -2.1920944818051895 -2.1920944818051895 -2.2239747026699108 -2.2376196078542008 -2.2197432934965247 -2.1920944818051895 -2.1920944818051895 -2.2076614312015588 -2.1407516485973228 -2.1920944818051895 -2.1811546560345882 -2.1920944818051895
leaf_weight=2.3959115892648697 66.043823808431625 4.8959932476282289 3.6459524184465408 2.8125918656587592 1.2500408291816789 4.0626326948404339 1.770891174674033 1.1458707600831974 1.9792313128709782 1.9792313128709782 8.6461157351732236 1.0417006909847257 5.3126735240221006 1.6667211055755604 1.25004082918167 1.8750612437725065 1.9792313128709791 10.104496702551838 5.2085034549236298 2.5000816583633423 1.0417006909847248 3.4376122802495956 1.3542108982801435 1.2500408291816714 1.8750612437725065 1.2500408291816709
leaf_count=23 634 47 35 27 12 39 17 11 19 19 83 10 51 16 12 18 19 97 50 24 10 33 13 12 18 12
internal_value=-2.19209 -2.14551 -2.10301 -2.1339 -2.19637 -2.14425 -2.11774 -2.11022 -2.10322 -2.09442 -2.07791 -2.19246 -2.01921 -2.23702 -2.21443 -2.14118 -2.19021 -2.22657 -2.20294 -2.1645 -2.24003 -2.19246 -2.17251 -2.1645 -2.18917 -2.22375
internal_weight=141.775 69.5856 37.8137 28.8551 31.7719 7.50024 24.7925 23.0216 21.8757 19.8965 15.4172 5.10433 8.95863 72.1899 24.2716 6.77105 7.70859 16.563 6.45854 4.47931 67.0855 5.10433 5.72935 4.47931 3.1251 4.06263
internal_count=1361 668 363 277 305 72 238 221 210 191 148 49 86 693 233 65 74 159 62 43 644 49 55 43 30 39
is_linear=0
shrinkage=1


Tree=9
num_leaves=29
num_cat=0
split_feature=8 6 7 16 5 10 0 3 5 7 0 5 5 6 7 5 7 10 7 0 5 6 3 0 7 0 0 7
split_gain=8.49026 8.82726 19.1454 3.74602 2.68584 1.75743 2.2919 3.80145 2.40943 2.23555 1.51963 1.49077 1.99604 2.52308 1.76195 1.42295 0.95124 0.643525 0.581556 0.547423 0.601556 0.163169 0.16439 0.152105 0.103491 0.430874 0.255189 0.040574
threshold=1.0000000180025095e-35 6.5000000000000009 6.5000000000000009 1.0000000180025095e-35 6.5000000000000009 1.0000000180025095e-35 2021.5000000000002 1.0000000180025095e-35 2.5000000000000004 3.5000000000000004 2018.5000000000002 4.5000000000000009 1.0000000180025095e-35 5.5000000000000009 4.5000000000000009 5.5000000000000009 1.5000000000000002 1.0000000180025095e-35 1.5000000000000002 2019.5000000000002 1.5000000000000002 8.5000000000000018 1.0000000180025095e-35 2018.5000000000002 6.5000000000000009 2019.5000000000002 2020.5000000000002 1.5000000000000002
decision_type=2 2 2 2 2 2 2 2 2 2 2 2 2 2 2 2 2 2 2 2 2 2 2 2 2 2 2 2
left_child=4 2 11 5 17 6 7 8 9 16 -7 12 13 23 -13 -4 -3 -1 21 -9 -21 -8 -23 -2 25 -10 -26 -14
right_child=1 3 15 -5 -6 10 18 19 24 -11 -12 14 27 -15 -16 -17 -18 -19 -20 20 -22 22 -24 -25 26 -27 -28 -29
leaf_value=-3.2556078755719069 -3.2086418174189952 -3.1769570287027213 -3.0697981578951916 -3.2504854986732572 -3.1821715633468788 -3.2123209426090358 -3.2235914459292032 -3.2420888465932567 -3.1801114856899497 -3.1236938999739881 -3.1469301545147617 -3.2108106988304326 -3.2110364971532483 -3.1248910336957776 -3.128977328182375 -3.2085179270728443 -3.2260243362905703 -3.2086418174189952 -3.240744475975458 -3.2274785467692237 -3.1841295388127775 -3.2092041177506658 -3.1947278676675408 -3.2244389777715816 -3.2294474790755072 -3.2137432620284065 -3.2086418174189952 -3.2370393360892562
leaf_weight=11.075104594230647 0.61075944453477704 1.3029534816742034 3.7052739635109893 5.3746831119060507 0.77362862974405366 0.52932485193014089 0.93649781495332574 2.6466242596507072 0.73291133344173431 2.4023204818367958 1.6694091483950613 0.48860755562782177 2.6059069633483887 0.48860755562782276 0.52932485193014145 0.57004214823245991 1.0586497038602827 1.0993670001626021 5.0082274451851845 1.1400842964649198 0.81434592604637135 0.44789025932550441 1.8729956299066544 0.97721511125564575 1.2622361853718755 0.57004214823246002 0.61075944453477871 4.1124469265341759
leaf_count=272 15 32 91 132 19 13 23 65 18 59 41 12 64 12 13 14 26 27 123 28 20 11 46 24 31 14 15 101
internal_value=-3.20864 -3.19712 -3.16397 -3.2136 -3.24484 -3.20478 -3.20918 -3.19628 -3.1743 -3.15335 -3.16691 -3.20864 -3.21578 -3.18116 -3.16396 -3.0808 -3.20491 -3.25201 -3.2306 -3.22946 -3.20864 -3.20864 -3.20418 -3.21182 -3.20864 -3.20179 -3.21703 -3.23135
internal_weight=55.4162 42.4681 14.0882 28.38 12.9481 23.0053 20.8065 12.5409 7.93987 4.76392 2.19873 9.81287 8.79494 2.07658 1.01793 4.27532 2.3616 12.1745 8.26561 4.60105 1.95443 3.25738 2.32089 1.58797 3.17595 1.30295 1.873 6.71835
internal_count=1361 1043 346 697 318 565 511 308 195 117 54 241 216 51 25 105 58 299 203 113 48 80 57 39 78 32 46 165
is_linear=0
shrinkage=1


Tree=10
num_leaves=9
num_cat=0
split_feature=3 8 7 6 5 7 7 7
split_gain=2.21832 1.18683 1.79297 0.790391 0.317163 0.158226 0.0205971 0.00683072
threshold=1.0000000180025095e-35 1.0000000180025095e-35 6.5000000000000009 7.5000000000000009 2.5000000000000004 6.5000000000000009 2.5000000000000004 1.0000000180025095e-35
decision_type=2 2 2 2 2 2 2 2
left_child=1 2 -1 -4 5 6 7 -2
right_child=4 -3 3 -5 -6 -7 -8 -9
leaf_value=-5.6211122421361539 -5.6027354316510101 -5.6407772630366591 -5.6065370902173655 -5.517331742046844 -5.6065370902173655 -5.6065370902173655 -5.5273726309928541 -5.6065370902173655
leaf_weight=0.96850814949721076 0.49578393367119122 3.1284350543282926 0.15757473860867321 0.065335867227986455 0.1037687303032726 0.04611943569034338 0.13451502076350152 0.13067173445597291
leaf_count=252 129 814 41 17 27 12 35 34
internal_value=-5.60654 -5.624 -5.59526 -5.53828 -5.55485 -5.54837 -5.54521 -5.60654
internal_weight=5.23071 4.31985 1.19142 0.222911 0.910859 0.80709 0.760971 0.626456
internal_count=1361 1124 310 58 237 210 198 163
is_linear=0
shrinkage=1


Tree=11
num_leaves=5
num_cat=0
split_feature=5 11 4 0
split_gain=2.97503 0.947332 0.325496 0.205467
threshold=7.5000000000000009 1.0000000180025095e-35 1.0000000180025095e-35 2017.5000000000002
decision_type=2 2 2 2
left_child=1 -1 -2 -3
right_child=2 3 -4 -5
leaf_value=-6.150172066606939 -6.117362713983356 -6.0853821774087162 -6.0231837795683552 -6.117362713983356
leaf_weight=2.8220536611042926 0.053115576272830256 0.043878084747120627 0.034640593221411109 0.1893685762770474
leaf_count=1222 23 19 15 82
internal_value=-6.11736 -6.13761 -6.03157 -6.10009
internal_weight=3.14306 3.0553 0.0877562 0.233247
internal_count=1361 1323 38 101
is_linear=0
shrinkage=1


Tree=12
num_leaves=12
num_cat=0
split_feature=7 17 21 13 6 0 5 6 5 11 10
split_gain=27.4337 7.34956 3.29263 2.47631 1.92844 1.92673 1.50497 4.02661 0.202819 0.154335 0.355169
threshold=1.0000000180025095e-35 1.0000000180025095e-35 1.0000000180025095e-35 1.0000000180025095e-35 2.5000000000000004 2017.5000000000002 2.5000000000000004 8.5000000000000018 3.5000000000000004 1.0000000180025095e-35 1.0000000180025095e-35
decision_type=2 2 2 2 2 2 2 2 2 2 2
left_child=1 2 3 4 -1 9 7 -6 -8 10 -2
right_child=5 -3 -4 -5 6 -7 8 -9 -10 -11 -12
leaf_value=-4.4433862804116853 -4.4601833344827737 -4.4526939649638253 -4.4433862804116853 -4.4433862804116853 -4.1982782569950698 -4.4890345687273943 -4.4433862804116853 -4.4035934777586618 -4.4182472288857699 -4.4210700658415361 -4.4219650756265549
leaf_weight=0.12198749929666952 1.0734899938106526 0.73192499577999104 0.25617374852299679 0.17078249901533116 1.0246949940919881 11.296042434871195 0.34156499803066243 1.1344837434589863 0.12198749929666519 0.15858374908566464 0.17078249901533116
leaf_count=10 88 60 21 14 84 926 28 93 10 13 14
internal_value=-4.44339 -4.33368 -4.30427 -4.29126 -4.28156 -4.48176 -4.27403 -4.25756 -4.43838 -4.43824 -4.44339
internal_weight=16.6025 3.9036 3.17167 2.9155 2.74472 12.6989 2.62273 2.15918 0.463552 1.40286 1.24427
internal_count=1361 320 260 239 225 1041 215 177 38 115 102
is_linear=0
shrinkage=1


Tree=13
num_leaves=7
num_cat=0
split_feature=0 6 7 5 7 0
split_gain=5.57581 5.12216 4.27826 0.21309 0.142685 0.112767
threshold=2021.5000000000002 6.5000000000000009 1.5000000000000002 1.0000000180025095e-35 5.5000000000000009 2022.5000000000002
decision_type=2 2 2 2 2 2
left_child=-1 2 -2 4 -3 -6
right_child=1 3 -4 -5 5 -7
leaf_value=-5.4610588176172961 -5.4242155334234115 -5.4242155334234115 -5.2601233065086941 -5.4412932877939113 -5.3953798531315007 -5.4242155334234115
leaf_weight=3.8665672903880477 0.35485778469592366 0.27651255950331677 0.49311406444758177 1.1014416953548787 0.078345225192606449 0.10138793848454952
leaf_count=839 77 60 107 239 17 22
internal_value=-5.42422 -5.37073 -5.30557 -5.42553 -5.41875 -5.40337
internal_weight=6.27223 2.40566 0.847972 1.55769 0.456246 0.179733
internal_count=1361 522 184 338 99 39
is_linear=0
shrinkage=1


Tree=14
num_leaves=4
num_cat=0
split_feature=1 7 0
split_gain=0.203993 0.223566 0.0244817
threshold=1.0000000180025095e-35 6.5000000000000009 2019.5000000000002
decision_type=2 2 2
left_child=-1 -2 -3
right_child=1 2 -4
leaf_value=-7.2275101401325523 -7.215975002651466 -7.1806631124563296 -7.215975002651466
leaf_weight=0.83182772010331973 0.19273116777185351 0.010022020724136382 0.014647568750660866
leaf_count=1079 250 13 19
internal_value=-7.21598 -7.19766 -7.18214
internal_weight=1.04923 0.217401 0.0246696
internal_count=1361 282 32
is_linear=0
shrinkage=1


Tree=15
num_leaves=12
num_cat=0
split_feature=6 8 17 0 6 6 5 0 0 0 6
split_gain=2.8466 3.54415 3.49721 1.10546 0.60827 0.607833 1.30944 0.219641 0.0669401 0.101708 0.118695
threshold=5.5000000000000009 1.0000000180025095e-35 1.0000000180025095e-35 2019.5000000000002 6.5000000000000009 7.5000000000000009 1.0000000180025095e-35 2022.5000000000002 2020.5000000000002 2021.5000000000002 4.5000000000000009
decision_type=2 2 2 2 2 2 2 2 2 2 2
left_child=1 2 -1 5 7 -2 -7 -5 -3 10 -10
right_child=3 8 -4 4 -6 6 -8 -9 9 -11 -12
leaf_value=-4.8703343295219463 -5.0308210103111222 -5.0295050036261548 -5.0187504253152468 -5.0261894561603242 -5.0562400868890993 -5.025582676422923 -4.9633333218943365 -4.9953602642289514 -4.9931978592040984 -5.0187504253152468 -5.0187504253152468
leaf_weight=0.33108041435480129 0.84839356178417813 0.79321349272504449 0.35177294025197625 0.66905833734199394 4.0626325844787061 0.64836581144481897 0.84839356178417802 0.14484768128022552 0.11725764675065875 0.44144055247306824 0.13105266401544213
leaf_count=48 123 115 51 97 589 94 123 21 17 64 19
internal_value=-5.01875 -4.97469 -4.91668 -5.03514 -5.04885 -5.0134 -4.99293 -5.01875 -5.01875 -5.01875 -5.00248
internal_weight=9.38751 2.16582 0.682853 7.22169 4.87654 2.34515 1.49676 0.813906 1.48296 0.689751 0.24831
internal_count=1361 314 99 1047 707 340 217 118 215 100 36
is_linear=0
shrinkage=1


Tree=16
num_leaves=4
num_cat=0
split_feature=7 5 9
split_gain=7.97816 7.67549 0.989757
threshold=1.0000000180025095e-35 1.0000000180025095e-35 1.0000000180025095e-35
decision_type=2 2 2
left_child=1 2 -1
right_child=-2 -3 -4
leaf_value=-5.4268245948344989 -5.6437330908055721 -5.6166047446236913 -5.6065370902173655
leaf_weight=0.40354506229050435 4.0008610461372882 0.768657261505723 0.057649294612929225
leaf_count=105 1041 200 15
internal_value=-5.60654 -5.51927 -5.43712
internal_weight=5.23071 1.22985 0.461194
internal_count=1361 320 120
is_linear=0
shrinkage=1


Tree=17
num_leaves=1
num_cat=0
split_feature=
split_gain=
threshold=
decision_type=
left_child=
right_child=
leaf_value=-34.538776391283193
leaf_weight=
leaf_count=1361
internal_value=
internal_weight=
internal_count=
is_linear=0
shrinkage=1


Tree=18
num_leaves=1
num_cat=0
split_feature=
split_gain=
threshold=
decision_type=
left_child=
right_child=
leaf_value=-34.538776391283193
leaf_weight=
leaf_count=1361
internal_value=
internal_weight=
internal_count=
is_linear=0
shrinkage=1


Tree=19
num_leaves=1
num_cat=0
split_feature=
split_gain=
threshold=
decision_type=
left_child=
right_child=
leaf_value=-34.538776391283193
leaf_weight=
leaf_count=1361
internal_value=
internal_weight=
internal_count=
is_linear=0
shrinkage=1


Tree=20
num_leaves=3
num_cat=0
split_feature=11 8
split_gain=0.406099 0.10312
threshold=1.0000000180025095e-35 1.0000000180025095e-35
decision_type=2 2
left_child=-1 -2
right_child=1 -3
leaf_value=-7.2305270218649929 -7.1806631124563296 -7.215975002651466
leaf_weight=0.97136508557014167 0.010022020724136382 0.067841371055692434
leaf_count=1260 13 88
internal_value=-7.21598 -7.18708
internal_weight=1.04923 0.0778634
internal_count=1361 101
is_linear=0
shrinkage=1


Tree=21
num_leaves=34
num_cat=0
split_feature=3 1 7 17 16 6 5 7 0 6 6 6 7 7 23 12 6 6 5 0 6 0 0 7 0 5 7 7 7 9 6 0 7
split_gain=56.6774 58.9889 22.5464 11.0822 12.0156 15.9466 12.7402 8.21302 9.73966 4.60073 4.09345 2.88359 2.84078 2.89968 2.08348 1.7004 1.52633 1.488 0.872441 0.729214 0.741309 1.84223 0.871362 1.13251 0.671422 0.621123 0.616442 0.531719 3.19779 0.496502 0.312704 0.252323 0.0109778
threshold=1.0000000180025095e-35 1.0000000180025095e-35 2.5000000000000004 1.0000000180025095e-35 1.0000000180025095e-35 6.5000000000000009 3.5000000000000004 4.5000000000000009 2017.5000000000002 4.5000000000000009 6.5000000000000009 5.5000000000000009 1.0000000180025095e-35 5.5000000000000009 1.0000000180025095e-35 1.0000000180025095e-35 8.5000000000000018 5.5000000000000009 2.5000000000000004 2022.5000000000002 7.5000000000000009 2021.5000000000002 2020.5000000000002 1.0000000180025095e-35 2020.5000000000002 5.5000000000000009 1.5000000000000002 5.5000000000000009 6.5000000000000009 1.0000000180025095e-35 8.5000000000000018 2018.5000000000002 6.5000000000000009
decision_type=2 2 2 2 2 2 2 2 2 2 2 2 2 2 2 2 2 2 2 2 2 2 2 2 2 2 2 2 2 2 2 2 2
left_child=1 3 9 4 5 15 12 8 16 -3 -10 -4 -7 -14 19 17 -2 -1 -6 20 22 26 23 -11 -9 -8 31 -19 -29 -26 -13 -22 -15
right_child=7 2 11 -5 18 6 25 24 10 14 -12 30 13 32 -16 -17 -18 27 -20 -21 21 -23 -24 -25 29 -27 -28 28 -30 -31 -32 -33 -34
leaf_value=-0.046813370592263842 0.025438272652802695 -0.039068309582383588 0.013970198903456174 -0.054178458233225743 -0.057420371123641317 -0.012174079800246986 -0.035511465292822418 0.015185665333889096 0 0.035412794346835114 0.081534752065459556 0.058937776228476298 0.079372248679167257 0.0090789947808163993 0.052818598290879842 0.0031973117840011704 -0.026324411924787194 -0.039184059713046233 -0.0079120563695369728 -0.017161553958594141 -0.017040830482717775 0.05460497314059784 -0.030488024348979164 -0.011931435769007567 -0.032817190970821059 0 0.024273733234461047 0.037715442262694014 -0.024560513527911682 0 0.10439888035141584 0 0.032188738507448827
leaf_weight=18.944222807884216 1.9187130481004704 4.8818557560443905 3.0312070995569256 40.95143173635006 19.588098213076595 1.7312149256467844 8.0969840586185438 1.598139539360999 1.7563049644231821 1.6311584860086505 27.909849226474762 9.8170806169509888 5.3315914720296869 4.0298169553279868 2.6335905343294135 2.0514323264360419 2.7796103209257126 2.4793218821287164 2.5132542252540579 2.0255615860223761 2.0200400054454786 2.1307157129049301 1.5506035685539243 1.7220268398523328 1.7289335578680038 1.7376666367053974 1.949078172445297 2.1060261428356162 8.3471326977014542 1.5707090049982071 8.5034022927284241 3.9565105736255646 11.8051747828722
leaf_count=124 12 32 19 272 130 11 52 10 11 10 165 58 32 25 16 13 18 16 16 13 13 13 10 11 11 11 12 13 54 10 50 25 73
internal_value=0 -0.0129373 0.0379979 -0.0312442 -0.0200053 -0.00811799 0.017581 0.0567929 0.0657811 0.00196331 0.0767389 0.0767009 0.0392551 0.044799 0.0144585 -0.0333957 -0.000413011 -0.0364696 -0.0532749 0.00504976 0.010245 0.0184138 -0.00276734 0.00809744 -0.00268015 -0.0298719 0.00183 -0.0177529 -0.00814259 -0.0181708 0.0848348 -0.00420156 0.0284207
internal_weight=214.828 175.566 45.8528 129.713 88.7619 66.6606 32.7324 39.2623 34.3645 24.5011 29.6662 21.3517 22.8978 21.1666 19.6193 33.9281 4.69832 31.8767 22.1014 16.9857 14.9601 10.0563 4.90379 3.35319 4.89778 9.83465 7.92563 12.9325 10.4532 3.29964 18.3205 5.97655 15.835
internal_count=1361 1124 282 842 570 424 204 237 206 155 176 127 141 130 123 220 30 207 146 107 94 63 31 21 31 63 50 83 67 21 108 38 98
is_linear=0
shrinkage=0.052938


Tree=22
num_leaves=16
num_cat=0
split_feature=6 7 0 1 8 0 8 9 7 5 5 0 0 0 0
split_gain=207.633 82.4978 52.6874 49.0144 10.8494 8.77499 6.44109 1.00295 0.902482 0.563135 0.607854 0.477758 0.459006 0.0701195 1.27969
threshold=8.5000000000000018 2.5000000000000004 2018.5000000000002 1.0000000180025095e-35 1.0000000180025095e-35 2021.5000000000002 1.0000000180025095e-35 1.0000000180025095e-35 4.5000000000000009 1.0000000180025095e-35 1.5000000000000002 2017.5000000000002 2018.5000000000002 2019.5000000000002 2020.5000000000002
decision_type=2 2 2 2 2 2 2 2 2 2 2 2 2 2 2
left_child=-1 5 11 4 -4 7 -7 13 -5 -8 -11 -3 -9 -2 -15
right_child=1 2 3 8 -6 6 9 12 -10 10 -12 -13 -14 14 -16
leaf_value=-0.053473088918230639 -0.045275160640367414 -0.037047251230437998 0.0057316945308040958 0.018061822187910349 0.19233302874067895 -0.032183372323781136 0.077535271152722282 -0.019854380635069356 -0.022193380234914222 0 0.039575334514278152 0 0.014411403647294456 0.007434452144291539 -0.03665248658587883
leaf_weight=82.573640264570713 5.4437221363186854 2.7715626657009116 1.2228291779756606 1.6221300289034832 23.130914442241192 2.0544865056872368 3.6790913343429548 1.0780049785971635 2.7403681203722954 1.8299015536904337 2.1632761210203171 2.0322869122028351 1.7458343207836149 2.0289520844817162 2.6918385028839111
leaf_count=851 55 28 10 16 187 21 34 11 27 17 20 20 17 20 27
internal_value=-7.34297e-05 0.0775747 0.129338 0.155961 0.184366 0 0.0356827 -0.0284092 -0.00233641 0.0579055 0.0248708 -0.02529 0 -0.0356381 -0.0153126
internal_weight=138.809 56.2352 33.5201 28.7162 24.3537 22.7151 9.72676 12.9884 4.3625 7.67227 3.99318 4.80385 2.82384 10.1645 4.72079
internal_count=1361 510 288 240 197 222 92 130 43 71 37 48 28 102 47
is_linear=0
shrinkage=0.052938


Tree=23
num_leaves=38
num_cat=0
split_feature=6 17 8 1 7 6 17 5 11 7 5 0 5 7 7 10 21 2 0 5 0 5 5 0 7 0 7 6 6 6 0 0 6 0 0 8 5
split_gain=43.7746 39.1959 26.0406 14.0468 18.5496 7.94388 8.77775 5.12366 4.0411 3.18185 2.4647 2.19385 4.34199 4.66634 2.5638 2.08094 1.9428 1.9053 1.31132 1.27311 1.10868 3.00233 0.98331 0.873885 0.800259 0.743147 0.742025 0.714312 0.765712 0.617704 1.07702 0.607299 0.469702 0.437063 0.426009 0.302775 0.25354
threshold=4.5000000000000009 1.0000000180025095e-35 1.0000000180025095e-35 1.0000000180025095e-35 1.0000000180025095e-35 6.5000000000000009 1.0000000180025095e-35 1.0000000180025095e-35 1.0000000180025095e-35 5.5000000000000009 5.5000000000000009 2018.5000000000002 2.5000000000000004 3.5000000000000004 6.5000000000000009 1.0000000180025095e-35 1.0000000180025095e-35 1.0000000180025095e-35 2021.5000000000002 2.5000000000000004 2018.5000000000002 1.0000000180025095e-35 1.0000000180025095e-35 2017.5000000000002 4.5000000000000009 2019.5000000000002 2.5000000000000004 8.5000000000000018 7.5000000000000009 8.5000000000000018 2020.5000000000002 2020.5000000000002 6.5000000000000009 2020.5000000000002 2018.5000000000002 1.0000000180025095e-35 2.5000000000000004
decision_type=2 2 2 2 2 2 2 2 2 2 2 2 2 2 2 2 2 2 2 2 2 2 2 2 2 2 2 2 2 2 2 2 2 2 2 2 2
left_child=1 2 36 5 7 6 10 32 15 -4 11 19 14 -14 22 16 17 35 -18 23 21 -6 -13 -2 29 -17 -23 28 -10 30 -22 -9 -5 -29 -8 -7 -1
right_child=3 -3 9 4 20 8 34 31 27 -11 -12 12 13 -15 -16 25 18 -19 -20 -21 24 26 -24 -25 -26 -27 -28 33 -30 -31 -32 -33 -34 -35 -36 -37 -38
leaf_value=0 0.039507477701296784 -0.032895559854333713 0.17089823175482088 0 0.065877649943398869 -0.023561512119923595 0 0.1510497466632332 0 0.060674981387514433 -0.025817616385448463 0 -0.00092280896385253761 0.093070418544485681 -0.02418311948918643 0.026287190076102623 0.036494414194171231 0.0092447223551894702 -0.022711172093487712 -0.029311710089443901 0.036057996532836173 0.0057392220855725252 0.054964703641340006 -0.0007266597119333938 -0.030248993447568737 -0.013964906534178867 -0.031080694601566608 0.0061911318215134179 0.04414301579493795 -0.016813164748790237 -0.0089429372160155472 0.038829300765998338 0.034654708264170872 -0.023857978983171792 -0.042242083102523323 -0.044409045884819393 -0.024315006412073351
leaf_weight=1.7713832110166561 1.6176977679133477 6.61810278892517 8.519066669046877 1.0444989949464827 1.0919205322861696 10.959497094154356 1.0402604863047615 2.3333713933825497 1.1394508406519881 2.9720042347908029 1.4349939078092564 1.0481175705790504 1.3683630898594854 4.6122385039925575 2.956391729414463 1.3734176084399217 1.1350379660725587 1.1427690163254727 1.22809112817049 1.7285611703991888 1.7097697705030426 1.2526292279362681 1.7507126703858373 1.3616562411189079 5.855473980307579 2.0474185273051262 1.9121442735195158 1.2393836006522181 1.5059484019875526 3.5832008123397827 1.7438388243317602 1.6236707791686056 2.9025833830237389 1.3058946728706358 7.8375956788659096 44.626179315149784 1.330271393060684
leaf_count=17 15 66 69 10 10 110 10 20 11 27 14 10 13 41 29 13 11 11 12 17 16 12 16 13 58 20 19 12 14 35 17 14 27 13 79 447 13
internal_value=0 0.0686578 0.115486 -0.0124934 0.0217936 -0.021937 0.00167584 0.0849012 -0.0315092 0.150242 0.0235852 0.0302492 0.0417994 0.0707193 0.00316304 -0.0352923 -0.0376029 -0.0395803 0.000670216 0 -0.00859715 0.010478 0.0372636 0.0189717 -0.0168105 0 -0.0126276 0.00884721 0.0263027 -0.000718531 0.0106746 0.124468 0.0257424 -0.00453744 -0.0383427 -0.0411096 -0.0119994
internal_weight=140.724 21.2108 14.5927 119.513 25.0531 94.4597 26.7566 7.90412 67.7031 11.4911 17.8787 16.4437 11.7358 5.9806 5.75522 62.5124 59.0916 56.7284 2.36313 4.70792 17.149 4.25669 2.79883 2.97935 12.8923 3.42084 3.16477 5.19068 2.6454 7.03681 3.45361 3.95704 3.94708 2.54528 8.87786 55.5857 3.10165
internal_count=1361 192 126 1169 238 931 257 71 674 96 168 154 109 54 55 624 591 568 23 45 167 41 26 28 126 33 31 50 25 68 33 34 37 25 89 557 30
is_linear=0
shrinkage=0.052938


Tree=24
num_leaves=33
num_cat=0
split_feature=17 6 5 8 3 0 7 10 13 7 20 5 7 0 7 7 0 1 5 7 3 0 20 7 7 0 7 7 5 7 0 0
split_gain=20.7885 21.8639 12.5512 9.69566 7.19146 9.61268 6.3756 6.29829 5.36904 3.70463 3.33722 3.1574 2.32052 1.22613 0.994367 0.967966 0.943711 1.14818 0.726497 0.713788 2.74609 0.993062 0.790231 0.618082 0.348485 0.196472 0.153474 0.60239 0.104225 0.103466 0.0562727 0.0400983
threshold=1.0000000180025095e-35 8.5000000000000018 4.5000000000000009 1.0000000180025095e-35 1.0000000180025095e-35 2021.5000000000002 6.5000000000000009 1.0000000180025095e-35 1.0000000180025095e-35 1.0000000180025095e-35 1.0000000180025095e-35 1.5000000000000002 3.5000000000000004 2018.5000000000002 6.5000000000000009 6.5000000000000009 2022.5000000000002 1.0000000180025095e-35 2.5000000000000004 1.0000000180025095e-35 1.0000000180025095e-35 2020.5000000000002 1.0000000180025095e-35 1.0000000180025095e-35 1.5000000000000002 2021.5000000000002 4.5000000000000009 1.5000000000000002 7.5000000000000009 2.5000000000000004 2022.5000000000002 2020.5000000000002
decision_type=2 2 2 2 2 2 2 2 2 2 2 2 2 2 2 2 2 2 2 2 2 2 2 2 2 2 2 2 2 2 2 2
left_child=1 2 3 12 5 7 13 8 9 -5 16 25 -1 23 -14 -9 -7 -18 19 20 -15 -22 26 -3 -20 -6 27 -21 -2 -29 -23 -16
right_child=28 6 -4 4 11 10 -8 15 -10 -11 -12 -13 14 18 31 -17 17 -19 24 22 21 30 -24 -25 -26 -27 -28 29 -30 -31 -32 -33
leaf_value=-0.038518431620802859 -0.0468071873467482 -0.035916801788724022 -0.042422581611881019 0.015055072888148207 -0.035562397230434611 -0.020664828721754874 -0.044122866800334934 0.024601639706276161 0 0.10185298939110687 0.074128965041566214 0.046400085043700551 0.033124894015995825 -0.029188488930073146 0 -0.021490536632253112 -0.0026569615959919257 0.046076459237485705 0 -0.02747306937028636 0 0.055538206325953285 0.01872480234745201 0 0.037717271738804257 0 -0.030914896163535207 0.010520055895109156 -0.0043300528629212336 0 0.004438442865085334 -0.0082336291885701882
leaf_weight=3.3126268833875638 20.603836476802829 2.7301134541630772 4.5973394438624373 2.5102413371205428 2.6802102774381633 4.1855955794453603 15.234319664537905 2.1094130128622046 1.3574245199561108 18.470494285225868 0.98247938603162754 1.4772441610693929 2.4211513474583626 1.8107529729604745 0.83842933923006091 1.2109893783926966 2.4730236232280736 0.96268381178379048 1.7329200133681291 1.6469609141349772 1.1680919528007505 2.2464588209986687 0.91362084448337544 1.8528881072998045 1.6947577148675916 1.1353076845407484 1.9938364923000333 1.9344659522175787 1.5615832358598698 2.2866667583584785 1.3309280127286913 1.7567101344466207
leaf_count=41 260 33 57 30 33 48 191 25 16 205 11 17 28 22 10 15 28 11 21 20 14 27 11 22 20 14 24 23 19 28 16 21
internal_value=0 0.011211 0.0333848 0.0417292 0.0525483 0.0612539 -0.0184438 0.0772089 0.0870469 0.0934808 0.00865069 -0.000743003 -0.00726627 0 0.0120037 0.00135787 -0.00353263 0.0119488 0.00542892 0 0.0124258 0.0343764 -0.0094633 -0.022984 0.0247783 -0.0289304 -0.0168374 -0.00541361 -0.0450707 0.00177159 0.0461155 -0.00428618
internal_weight=113.224 91.0581 52.4814 47.884 39.5551 34.2623 38.5768 25.6586 22.3382 20.9807 8.60378 5.29276 8.32892 23.3425 5.01629 3.3204 7.6213 3.43571 18.7595 15.3318 6.55623 4.74548 8.77555 4.583 3.42768 3.81552 7.86193 5.86809 22.1654 4.22113 3.57739 2.59514
internal_count=1361 1082 610 553 453 389 472 291 251 235 98 64 100 281 59 40 87 39 226 185 79 57 106 55 41 47 95 71 279 51 43 31
is_linear=0
shrinkage=0.052938


Tree=25
num_leaves=7
num_cat=0
split_feature=16 7 0 6 4 9
split_gain=244.447 38.1676 26.7226 1.67072 1.23171 1.23803
threshold=1.0000000180025095e-35 6.5000000000000009 2019.5000000000002 8.5000000000000018 1.0000000180025095e-35 1.0000000180025095e-35
decision_type=2 2 2 2 2 2
left_child=3 -2 -3 -1 -5 -6
right_child=1 2 -4 4 5 -7
leaf_value=-0.04994112792188489 -0.020390211301780859 0.35679592132401577 0.1254245174245319 -0.030367457954877126 -0.020998604244151845 0.03548411588453753
leaf_weight=39.156222432851791 1.2068209722638101 4.4952836409211159 4.3213577605783939 16.159603703767065 1.2574189789593211 1.2034726552665234
leaf_count=824 23 55 76 333 26 24
internal_value=0 0.230739 0.266278 -0.0427826 -0.0250698 0.00166894
internal_weight=67.8002 10.0235 8.81664 57.7767 18.6205 2.46089
internal_count=1361 154 131 1207 383 50
is_linear=0
shrinkage=0.052938


Tree=26
num_leaves=28
num_cat=0
split_feature=6 7 8 17 6 5 0 10 0 11 5 5 0 9 7 7 0 5 5 9 6 5 5 6 6 5 5
split_gain=24.9227 40.4254 20.8613 27.1749 12.8463 12.5249 6.83038 4.38078 2.53967 2.72667 2.33622 2.23154 2.04184 1.93847 1.79436 1.67468 1.65686 1.66397 0.793112 0.70675 0.627943 0.564116 0.439244 0.279732 0.242846 0.0104939 0.0102722
threshold=8.5000000000000018 1.5000000000000002 1.0000000180025095e-35 1.0000000180025095e-35 4.5000000000000009 3.5000000000000004 2018.5000000000002 1.0000000180025095e-35 2022.5000000000002 1.0000000180025095e-35 1.0000000180025095e-35 2.5000000000000004 2022.5000000000002 1.0000000180025095e-35 1.5000000000000002 4.5000000000000009 2017.5000000000002 1.5000000000000002 3.5000000000000004 1.0000000180025095e-35 3.5000000000000004 1.5000000000000002 1.5000000000000002 6.5000000000000009 2.5000000000000004 1.5000000000000002 3.5000000000000004
decision_type=2 2 2 2 2 2 2 2 2 2 2 2 2 2 2 2 2 2 2 2 2 2 2 2 2 2 2
left_child=1 12 6 4 26 8 11 15 9 10 23 -3 19 -12 -9 16 17 -2 -18 -1 24 -11 -14 -6 -8 -10 -4
right_child=7 2 3 -5 5 -7 20 14 25 21 13 -13 22 -15 -16 -17 18 -19 -20 -21 -22 -23 -24 -25 -26 -27 -28
leaf_value=-0.046454812429368129 0.053128843629590229 0.090774336616490175 -0.031381597376070047 0.15282462982283637 0.01024249547699479 0.12203008557255816 -0.016445192508547837 0.056721507558824748 -0.016817582726102637 0.010482895484271797 0.059570951570493955 0 0.017548774848380737 0 -0.005848882515936368 -0.049121594046193429 -0.030816394868913407 -0.016329856923934197 0 0 -0.036886362335201685 -0.025017670150234431 -0.016243857470890032 -0.017768043293530263 0.010165479103153857 0 0
leaf_weight=19.21274562925101 0.84801717847585922 1.1351975277066224 4.2652017101645496 7.1260515451431266 1.1342695131898062 5.5406534895300856 0.9367986321449272 1.2624534070491784 0.95145096629857961 1.1278862282633775 12.687471024692055 1.0493004471063612 1.6624347567558282 1.2056438997387893 1.6272780448198316 19.253972850739956 17.117528676986698 0.93228976428508759 1.6653296574950207 0.95044030994176765 8.6623743101954442 1.4378557577729223 0.9289138838648795 1.0020868331193922 1.136523999273777 1.0740508958697317 1.2910738363862035
leaf_count=233 10 12 51 71 13 57 11 14 11 13 140 12 19 14 19 233 203 11 20 11 103 17 11 12 13 12 15
internal_value=0 0.0185247 0.0443827 0.0635299 0.0393864 0.0549518 -0.0118821 -0.0317866 0.0318462 0.0382354 0.0462016 0.0574032 -0.0388243 0.0537501 0.0219004 -0.0366113 -0.0223817 0.0143777 -0.0274896 -0.0443395 -0.0310564 -0.00394146 0 0 0 -0.0128879 -0.0279493
internal_weight=117.225 74.5184 51.7639 38.8437 31.7176 26.1614 12.9202 42.7069 20.6207 18.5952 16.0295 2.1845 22.7545 13.8931 2.88973 39.8171 20.5632 1.78031 18.7829 20.1632 10.7357 2.56574 2.59135 2.13636 2.07332 2.0255 5.55628
internal_count=1361 851 577 426 355 289 151 510 232 209 179 24 274 154 33 477 244 21 223 244 127 30 30 25 24 23 66
is_linear=0
shrinkage=0.052938


Tree=27
num_leaves=33
num_cat=0
split_feature=7 8 0 6 1 6 0 0 0 6 21 0 6 5 7 8 6 0 6 0 14 6 0 0 0 0 7 3 0 0 0 5
split_gain=187.663 136.903 50.4983 22.836 17.6849 13.5298 31.1391 24.5919 15.0902 9.28503 4.17544 4.81408 2.81761 2.22287 2.05468 1.84764 1.83652 1.9959 1.80873 2.86298 1.14296 1.05959 0.936825 0.895785 0.493425 0.388011 0.375294 0.280185 2.74571 1.43699 1.1809 0.191156
threshold=2.5000000000000004 1.0000000180025095e-35 2020.5000000000002 3.5000000000000004 1.0000000180025095e-35 7.5000000000000009 2021.5000000000002 2017.5000000000002 2022.5000000000002 6.5000000000000009 1.0000000180025095e-35 2021.5000000000002 6.5000000000000009 1.0000000180025095e-35 3.5000000000000004 1.0000000180025095e-35 7.5000000000000009 2018.5000000000002 2.5000000000000004 2020.5000000000002 1.0000000180025095e-35 8.5000000000000018 2021.5000000000002 2022.5000000000002 2020.5000000000002 2021.5000000000002 1.0000000180025095e-35 1.0000000180025095e-35 2020.5000000000002 2021.5000000000002 2018.5000000000002 1.5000000000000002
decision_type=2 2 2 2 2 2 2 2 2 2 2 2 2 2 2 2 2 2 2 2 2 2 2 2 2 2 2 2 2 2 2 2
left_child=1 2 16 -4 -5 6 12 -7 9 -8 14 -12 18 -14 15 -2 -1 -18 -3 -20 -16 25 -17 -24 -22 26 -9 28 -23 -30 -29 -10
right_child=10 5 3 4 -6 7 8 21 31 -11 11 -13 13 -15 20 22 17 -19 19 -21 24 27 23 -25 -26 -27 -28 30 29 -31 -32 -33
leaf_value=-0.034331281202427323 0.012881663729869684 0.015536542174144236 0.0010135640590774313 0.20738999392247684 0.011142097274839233 0.099672688175586055 0.16833510887192757 0.012217256926771711 -0.0086316677847990859 0.025830236496022362 -0.040687163291475224 0.048310395591758142 0.060687024271900029 -0.003698193948743623 -0.052165047427208094 -0.046073276948793547 0.053345037292734071 -0.0097589358642611521 -0.046443676875141629 0.0081904957301061013 -0.02882184649184643 -0.045745922177340956 0.017445561460688031 -0.028123745515237844 0 -0.021237980973387756 -0.013148934955111345 0 0.041343003791559516 -0.0098423444147843018 -0.04721143028081793 0.011812543047492279
leaf_weight=1.9351450800895715 2.3740892112255096 1.6165765225887359 2.1228372901678112 20.536893889307979 1.7364551424980152 3.9199338704347602 5.9107636213302595 3.1645235270261791 1.599643558263778 2.5105810612440109 2.8802752643823615 2.3209900557994843 1.5651044845581048 2.2867642343044281 93.122278690338135 4.3015474379062635 1.7180365025997162 1.640791192650795 8.0700011253356916 2.6125147193670264 1.4688968360424035 4.09868985414505 1.5366137474775314 1.4350115954875946 2.3441669344902039 2.3649423569440842 1.8069836050271986 1.7819034308195121 1.5088953375816343 2.6779066622257233 12.811030000448225 1.7138071060180662
leaf_count=13 15 11 13 117 11 24 34 21 11 16 20 15 10 15 649 30 11 11 55 17 10 28 10 10 16 16 12 12 10 18 89 11
internal_value=-7.39841e-05 0.0556682 0.147524 0.178721 0.194026 0.00996693 0.036988 -0.0118084 0.0997042 0.134438 -0.0460822 0 -0.00987831 0.0237018 -0.0483253 -0.018585 0 0.0212398 -0.0229652 -0.0314727 -0.0508692 -0.029281 -0.0319393 0 -0.0106435 -0.00657639 0 -0.035115 -0.0179147 0.00783893 -0.041914 0
internal_weight=203.495 91.7107 29.6902 24.3962 22.2733 62.0206 27.8858 34.1348 11.7348 8.42134 111.784 5.20127 16.151 3.85187 106.583 9.64726 5.29397 3.35883 12.2991 10.6825 96.9353 30.2149 7.27317 2.97163 3.81306 7.33645 4.97151 22.8784 8.28549 4.1868 14.5929 3.31345
internal_count=1361 586 176 141 128 410 180 230 72 50 775 35 108 25 740 65 35 22 83 72 675 206 50 20 26 49 33 157 56 28 101 22
is_linear=0
shrinkage=0.052938


Tree=28
num_leaves=6
num_cat=0
split_feature=16 5 21 18 2
split_gain=23.8162 4.71451 2.04789 1.27699 1.27553
threshold=1.0000000180025095e-35 1.0000000180025095e-35 1.0000000180025095e-35 1.0000000180025095e-35 1.0000000180025095e-35
decision_type=2 2 2 2 2
left_child=2 -2 3 4 -1
right_child=1 -3 -4 -5 -6
leaf_value=-0.041739908777253941 0.16483088349223091 0 0.024704534827364181 0.01719926740417408 0.011793253160609887
leaf_weight=11.968952986411743 1.7133625010028493 0.34382839687168587 0.82710445486009199 0.23283270280808288 0.32415467407554466
leaf_count=1084 124 30 74 21 28
internal_value=0 0.139119 -0.0277095 -0.0341971 -0.037934
internal_weight=15.4102 2.05719 13.353 12.5259 12.2931
internal_count=1361 154 1207 1133 1112
is_linear=0
shrinkage=0.052938


Tree=29
num_leaves=27
num_cat=0
split_feature=6 7 8 5 6 5 6 1 17 0 6 7 10 0 8 0 20 5 15 6 0 0 0 0 6 6
split_gain=96.1005 43.955 22.7736 12.6892 10.5189 10.2361 10.5822 6.91568 3.90751 3.65184 3.33318 3.22657 3.03178 3.00263 2.1144 1.64233 1.19711 0.918762 0.62988 0.55141 0.347639 1.96636 0.455649 0.244294 0.201433 0.391209
threshold=7.5000000000000009 3.5000000000000004 1.0000000180025095e-35 5.5000000000000009 5.5000000000000009 2.5000000000000004 3.5000000000000004 1.0000000180025095e-35 1.0000000180025095e-35 2020.5000000000002 6.5000000000000009 1.5000000000000002 1.0000000180025095e-35 2017.5000000000002 1.0000000180025095e-35 2022.5000000000002 1.0000000180025095e-35 5.5000000000000009 1.0000000180025095e-35 8.5000000000000018 2020.5000000000002 2021.5000000000002 2018.5000000000002 2022.5000000000002 4.5000000000000009 6.5000000000000009
decision_type=2 2 2 2 2 2 2 2 2 2 2 2 2 2 2 2 2 2 2 2 2 2 2 2 2 2
left_child=1 5 4 7 -3 11 -7 10 -6 -8 13 15 18 -4 -13 -1 20 23 -2 -14 22 -22 -15 -11 -16 -26
right_child=12 2 3 -5 8 6 9 -9 -10 17 -12 14 19 16 24 -17 -18 -19 -20 -21 21 -23 -24 -25 25 -27
leaf_value=-0.047124043588603101 -0.047888727690429185 0.19492613865755726 -0.017702048499506493 0.14014404319164667 0.018967051123127424 0.10256296774526655 0.053166734758583481 -0.027214556656424253 0.12138396427620876 -0.033510300354374085 0.077256947873418094 0.046938016861550393 0.015728770780686734 0.037731369218791604 -0.025874099647486049 0 0 0.007084934910042349 0 -0.014808516278311921 0.086718899650066544 0.016122602167271252 0.0020716518277139359 0 0.010069052777820671 -0.020559537534640494
leaf_weight=12.221533030271534 63.224677108228207 5.5463002994656545 2.291545815765871 3.3181789964437476 3.6576133891940117 3.3002252355217925 1.7972888574004153 3.3506270349025717 1.6656803190708158 4.4858424738049507 6.824584260582923 1.4390767216682432 1.6933369487524021 2.216420061886307 1.4380377084016789 1.5404263511300094 1.2457660660147674 1.2134741768240926 1.0422223359346379 3.3727250844240189 2.6442191153764725 3.8249250948429108 4.0510885044932365 1.021258197724819 1.9062557891011238 1.1089565977454185
leaf_count=121 634 46 21 30 33 30 17 33 13 44 61 13 16 20 14 15 12 12 10 33 23 34 37 10 18 11
internal_value=0 0.0426509 0.0784831 0.0508359 0.143282 -0.00373573 0.0330058 0.034878 0.0667567 0 0.0454692 -0.0273837 -0.0441295 0.0277072 0.00188691 -0.0408752 0.0372636 -0.0192967 -0.0472175 0 0.0419929 0.0546753 0.020831 -0.028877 -0.0134324 0
internal_weight=141.442 72.1093 40.6369 29.7674 10.8696 31.4724 11.8181 26.4492 5.32329 8.51786 23.0985 19.6543 69.333 16.274 5.89233 13.762 13.9824 6.72057 64.2669 5.06606 12.7367 6.46914 6.26751 5.5071 4.45325 3.01521
internal_count=1361 668 363 271 92 305 113 241 46 83 208 192 693 147 56 136 126 66 644 49 114 57 57 54 43 29
is_linear=0
shrinkage=0.052938


Tree=30
num_leaves=27
num_cat=0
split_feature=7 6 8 0 20 1 16 5 3 8 5 0 0 6 1 0 0 5 13 23 3 10 0 5 12 5
split_gain=7.9486 11.5596 7.06968 4.42118 4.74196 3.7361 3.49433 2.46562 2.87474 2.22082 2.08692 1.61063 1.87721 1.04835 0.718478 1.71954 0.860841 0.563564 0.426868 0.399022 0.477947 0.350876 0.439687 0.049006 0.0236583 0.00681048
threshold=3.5000000000000004 6.5000000000000009 1.0000000180025095e-35 2022.5000000000002 1.0000000180025095e-35 1.0000000180025095e-35 1.0000000180025095e-35 2.5000000000000004 1.0000000180025095e-35 1.0000000180025095e-35 5.5000000000000009 2017.5000000000002 2020.5000000000002 8.5000000000000018 1.0000000180025095e-35 2019.5000000000002 2019.5000000000002 1.5000000000000002 1.0000000180025095e-35 1.0000000180025095e-35 1.0000000180025095e-35 1.0000000180025095e-35 2017.5000000000002 1.0000000180025095e-35 1.0000000180025095e-35 1.0000000180025095e-35
decision_type=2 2 2 2 2 2 2 2 2 2 2 2 2 2 2 2 2 2 2 2 2 2 2 2 2 2
left_child=9 2 10 4 5 -4 7 8 11 -1 -2 -3 -13 18 16 -16 -15 25 19 20 -11 22 -9 -17 -22 -18
right_child=1 6 3 -5 -6 -7 -8 21 -10 13 -12 12 -14 14 15 23 17 -19 -20 -21 24 -23 -24 -25 -26 -27
leaf_value=-0.044425777717192375 -0.031711315707269698 -0.0045230328946596499 0.11916805788462116 -0.0097919036463313507 -0.0076221236850912595 0 -0.041153277137110984 6.028933454342558e-05 -0.021591804482412637 -0.031279336688411312 0.046216330201137634 0.084084921575074439 0.0055669001910641988 -0.028600049365308508 0.067800349844835003 -0.0094560632247258879 -0.0037639298112697832 0.028396974972666331 1.9150843481029422e-05 0 -0.0044449106978268985 0.0026659984232706331 -0.024088549535194504 0 0.0036298338003411808 0
leaf_weight=7.4391545504331615 2.3652641661465164 0.55196837335825133 6.0682370960712451 0.72160644084215153 0.64631716534495343 0.9155437946319579 5.0396654494106761 0.57164923101663578 1.3172348737716673 7.2769498378038371 0.45310720428824414 2.4201177172362804 2.2600528858602047 1.9473879784345625 0.6629775017499927 0.71037665754556634 1.6174963973462588 1.3893870860338209 0.57267910614609796 0.72583811357617456 1.6523175351321699 0.50490486621856678 5.2325586713850498 0.74535099789500237 0.48295966163277615 0.97140382602810849
leaf_count=191 60 13 139 17 15 22 129 14 33 180 11 56 55 49 16 17 40 34 14 18 41 12 131 18 12 24
internal_value=0 0.0189484 0.0593874 0.0821989 0.0937029 0.105814 -0.00658215 0.00697191 0.0291375 -0.0206661 -0.00527253 0.0468793 0.0568514 -0.00859576 0.00349332 0.0262992 -0.00350942 0.0068397 -0.0192512 -0.0223393 -0.0253694 -0.0135529 -0.0185602 -0.000353983 0 -0.00213444
internal_weight=55.2625 29.0682 11.1701 8.3517 7.6301 6.98378 17.8982 12.8585 6.54937 26.1943 2.81837 5.23214 4.68017 18.7551 8.04438 2.11871 5.92568 3.97829 10.7107 10.1381 9.41223 6.30911 5.80421 1.45573 2.13528 2.5889
internal_count=1361 707 264 193 176 161 443 314 157 654 71 124 111 463 198 51 147 98 265 251 233 157 145 35 53 64
is_linear=0
shrinkage=0.052938


Tree=31
num_leaves=9
num_cat=0
split_feature=3 8 7 6 0 5 11 7
split_gain=2.12698 1.16132 1.74723 0.783326 0.365344 0.315938 0.281813 0.204999
threshold=1.0000000180025095e-35 1.0000000180025095e-35 6.5000000000000009 7.5000000000000009 2017.5000000000002 2.5000000000000004 1.0000000180025095e-35 6.5000000000000009
decision_type=2 2 2 2 2 2 2 2
left_child=1 2 -1 -4 -2 6 7 -6
right_child=4 -3 3 -5 5 -7 -8 -9
leaf_value=-0.014248115867838822 0 -0.033777262264920505 0 0.088117467590846987 0.074072569328257218 0 0 0
leaf_weight=0.95242121932096757 0.12008522800169874 3.0207186285406351 0.15913720126263797 0.072336853947490454 0.59844414936378598 0.088329891441389918 0.069449522998183966 0.045966201229020953
leaf_count=252 31 814 41 17 153 23 18 12
internal_value=0 -0.0166997 0.0115044 0.0672951 0.0510149 0.0584972 0.0647444 0.0701823
internal_weight=5.12689 4.20461 1.1839 0.231474 0.922275 0.80219 0.71386 0.64441
internal_count=1361 1124 310 58 237 206 183 165
is_linear=0
shrinkage=0.052938


Tree=32
num_leaves=5
num_cat=0
split_feature=5 11 6 0
split_gain=2.90165 0.925444 0.334505 0.204116
threshold=7.5000000000000009 1.0000000180025095e-35 6.5000000000000009 2017.5000000000002
decision_type=2 2 2 2
left_child=1 -1 -2 -3
right_child=2 3 -4 -5
leaf_value=-0.032343309580418193 0 0.031850745813588897 0.093891365879205699 0
leaf_weight=2.7290436686016628 0.054952438687905558 0.045250962488353141 0.036358199780806899 0.1889987790491432
leaf_count=1222 23 19 15 82
internal_value=0 -0.0195064 0.0852652 0.0172037
internal_weight=3.0546 2.96329 0.0913106 0.23425
internal_count=1361 1323 38 101
is_linear=0
shrinkage=0.052938


Tree=33
num_leaves=9
num_cat=0
split_feature=7 17 21 13 5 11 10 5
split_gain=24.5821 6.15071 2.76349 2.07182 1.13157 0.77632 0.667944 0.192052
threshold=1.0000000180025095e-35 1.0000000180025095e-35 1.0000000180025095e-35 1.0000000180025095e-35 2.5000000000000004 1.0000000180025095e-35 1.0000000180025095e-35 3.5000000000000004
decision_type=2 2 2 2 2 2 2 2
left_child=1 2 3 4 -1 6 -2 -6
right_child=5 -3 -4 -5 7 -7 -8 -9
leaf_value=0.15733511628612684 -0.045150708068249883 -0.0088669329711744821 0 0 0 0 0 0.023934899253964879
leaf_weight=2.5665407329797785 10.312143555842335 0.71583319827914227 0.25605420302599657 0.17152581736445416 0.3651219606399535 0.81509536691010076 1.0635246932506568 0.13723557163029909
leaf_count=184 882 60 21 14 30 69 90 11
internal_value=0 0.0998165 0.124778 0.13584 0.144063 -0.0378623 -0.0413227 0.0033757
internal_weight=16.4031 4.21231 3.49648 3.24042 3.0689 12.1908 11.3757 0.502358
internal_count=1361 320 260 239 225 1041 972 41
is_linear=0
shrinkage=0.052938


Tree=34
num_leaves=8
num_cat=0
split_feature=0 7 0 5 16 3 5
split_gain=5.28327 4.37458 1.49115 1.63164 0.918935 0.703062 0.332352
threshold=2021.5000000000002 1.5000000000000002 2022.5000000000002 4.5000000000000009 1.0000000180025095e-35 1.0000000180025095e-35 6.5000000000000009
decision_type=2 2 2 2 2 2 2
left_child=-1 -2 3 4 5 -3 -4
right_child=1 2 6 -5 -6 -7 -8
leaf_value=-0.03642861704520034 -0.014635747567347632 0.1578665059324186 -0.0066421004922009785 0 0 0 0.031401650700374241
leaf_weight=3.7316230712458491 0.97062325850129161 0.53253715066239216 0.64347773417830467 0.14879284799098969 0.071675260085612535 0.050047784112393856 0.049962611403316259
leaf_count=839 214 108 134 30 15 11 10
internal_value=0 0.0515378 0.0941888 0.123298 0.140752 0.150473 0
internal_weight=6.19874 2.46712 1.49649 0.803053 0.65426 0.582585 0.69344
internal_count=1361 522 308 164 134 119 144
is_linear=0
shrinkage=0.052938


Tree=35
num_leaves=3
num_cat=0
split_feature=12 7
split_gain=0.4234 0.0815571
threshold=1.0000000180025095e-35 6.5000000000000009
decision_type=2 2
left_child=-1 -2
right_child=1 -3
leaf_value=-0.014591480557678971 0 0.035004368162521379
leaf_weight=0.9733554411213845 0.052830780681688339 0.013040290446951985
leaf_count=1275 69 17
internal_value=0 0.0299576
internal_weight=1.03923 0.0658711
internal_count=1361 86
is_linear=0
shrinkage=0.052938


Tree=36
num_leaves=12
num_cat=0
split_feature=6 8 17 0 10 6 5 6 0 0 6
split_gain=2.67638 3.2617 3.17998 1.03808 1.04061 0.562443 1.20773 0.159973 0.0649667 0.099682 0.117913
threshold=5.5000000000000009 1.0000000180025095e-35 1.0000000180025095e-35 2019.5000000000002 1.0000000180025095e-35 7.5000000000000009 1.0000000180025095e-35 7.5000000000000009 2020.5000000000002 2021.5000000000002 4.5000000000000009
decision_type=2 2 2 2 2 2 2 2 2 2 2
left_child=1 2 -1 5 -5 -2 -7 -6 -3 10 -10
right_child=3 8 -4 4 7 6 -8 -9 9 -11 -12
leaf_value=0.13920523936823984 -0.011876568064335751 -0.010613397083464007 0 -0.038264135481132666 0.024621363858389908 -0.006626128050488303 0.052354069170222388 0 0.025356801822699303 0 0
leaf_weight=0.38720041466876876 0.84009457472711813 0.7875553541816771 0.35034995619207621 4.3698272272013128 0.12895368831232179 0.64151739329099655 0.89804254006594419 0.21887653553858399 0.1196797676384449 0.43772866204380989 0.13159588212147355
leaf_count=48 123 115 51 655 19 94 123 33 17 64 19
internal_value=0 0.0425535 0.0967152 -0.0158469 -0.0295021 0.00474151 0.0244256 0.0106019 0 0 0.0160829
internal_weight=9.31142 2.21411 0.73755 7.09731 4.71766 2.37965 1.53956 0.34783 1.47656 0.689004 0.251276
internal_count=1361 314 99 1047 707 340 217 52 215 100 36
is_linear=0
shrinkage=0.052938


Tree=37
num_leaves=6
num_cat=0
split_feature=7 5 11 0 9
split_gain=7.47279 6.82494 1.04695 0.976682 0.922117
threshold=1.0000000180025095e-35 1.0000000180025095e-35 1.0000000180025095e-35 2017.5000000000002 1.0000000180025095e-35
decision_type=2 2 2 2 2
left_child=1 2 3 -1 -5
right_child=-2 -3 -4 4 -6
leaf_value=0 -0.036774227220100958 -0.0097452842613630578 0 0.18726165803028266 0
leaf_weight=0.057923408225178497 3.8554501852486283 0.75610988028347492 0.068798280786722898 0.36437861900776625 0.049939788179472089
leaf_count=13 1041 200 15 79 13
internal_value=0 0.0828929 0.156581 0.167539 0.177705
internal_weight=5.1526 1.29715 0.54104 0.472242 0.414318
internal_count=1361 320 120 105 92
is_linear=0
shrinkage=0.052938


Tree=38
num_leaves=1
num_cat=0
split_feature=
split_gain=
threshold=
decision_type=
left_child=
right_child=
leaf_value=0
leaf_weight=
leaf_count=1361
internal_value=
internal_weight=
internal_count=
is_linear=0
shrinkage=1


Tree=39
num_leaves=1
num_cat=0
split_feature=
split_gain=
threshold=
decision_type=
left_child=
right_child=
leaf_value=0
leaf_weight=
leaf_count=1361
internal_value=
internal_weight=
internal_count=
is_linear=0
shrinkage=1


Tree=40
num_leaves=1
num_cat=0
split_feature=
split_gain=
threshold=
decision_type=
left_child=
right_child=
leaf_value=0
leaf_weight=
leaf_count=1361
internal_value=
internal_weight=
internal_count=
is_linear=0
shrinkage=1


Tree=41
num_leaves=3
num_cat=0
split_feature=11 8
split_gain=0.399259 0.102814
threshold=1.0000000180025095e-35 1.0000000180025095e-35
decision_type=2 2
left_child=-1 -2
right_child=1 -3
leaf_value=-0.014255946281957791 0.035276138859431816 0
leaf_weight=0.95665649179136381 0.010371650219894946 0.067711587995290756
leaf_count=1260 13 88
internal_value=0 0.0288747
internal_weight=1.03474 0.0780832
internal_count=1361 101
is_linear=0
shrinkage=0.052938


Tree=42
num_leaves=35
num_cat=0
split_feature=3 1 7 17 16 6 5 7 0 6 6 7 7 5 6 23 12 6 6 5 5 0 6 0 0 7 0 5 7 7 7 9 0 5
split_gain=48.5162 52.7642 18.5965 10.6642 11.3295 14.3976 11.3927 6.73203 7.8506 4.15076 3.36505 2.52246 2.43672 4.75188 2.07832 1.86426 1.63834 1.41874 1.39375 0.865993 0.712291 0.665882 0.695749 1.62177 0.815736 1.0211 0.619048 0.580462 0.548162 0.530032 2.943 0.476137 0.235221 0.00860307
threshold=1.0000000180025095e-35 1.0000000180025095e-35 2.5000000000000004 1.0000000180025095e-35 1.0000000180025095e-35 6.5000000000000009 3.5000000000000004 4.5000000000000009 2017.5000000000002 4.5000000000000009 6.5000000000000009 1.0000000180025095e-35 5.5000000000000009 2.5000000000000004 5.5000000000000009 1.0000000180025095e-35 1.0000000180025095e-35 5.5000000000000009 8.5000000000000018 2.5000000000000004 1.5000000000000002 2022.5000000000002 7.5000000000000009 2021.5000000000002 2020.5000000000002 1.0000000180025095e-35 2020.5000000000002 5.5000000000000009 1.5000000000000002 5.5000000000000009 6.5000000000000009 1.0000000180025095e-35 2018.5000000000002 1.5000000000000002
decision_type=2 2 2 2 2 2 2 2 2 2 2 2 2 2 2 2 2 2 2 2 2 2 2 2 2 2 2 2 2 2 2 2 2 2
left_child=1 3 9 4 5 16 11 8 18 -3 -10 -7 20 33 -4 21 17 -1 -2 -6 -13 22 24 28 25 -11 -9 -8 32 -19 -31 -28 -24 -14
right_child=7 2 14 -5 19 6 27 26 10 15 -12 12 13 -15 -16 -17 -18 29 -20 -21 -22 -23 23 -25 -26 -27 31 -29 -30 30 -32 -33 -34 -35
leaf_value=-0.04571340085090167 0.023882721252723355 -0.037920096583678439 0.013336219640868003 -0.05322862708518511 -0.056544014588641785 -0.011851597562735636 -0.034673094860283353 0.014346695846834829 0 0.032976494066700016 0.072558348959789604 0.093546602615441246 0.0019568368247919387 0.056887947861670958 0.07559081811681756 0.049197053823092404 0.0035336966787414548 -0.038415189163443796 -0.025529480047789582 -0.007204150833727177 0.023980782716234637 -0.016783183721636556 -0.016502950031538715 0.050768262098621578 -0.030017651423399676 -0.011693763636727778 -0.032121813034981912 0 0.0226572853994585 0.035851432034090899 -0.023639814846996409 0 0 -0.00079541951452821063
leaf_weight=18.246973171830177 1.9592482596635807 4.7136370986700085 3.0569955408573177 39.205962389707565 18.666675522923473 1.7185900062322641 7.9244515597820264 1.6194305270910252 1.773400723934176 1.682721853256232 29.526318460702896 3.0489987581968334 4.555996388196947 6.9162458777427664 19.405697330832481 2.7277354449033728 2.0397212207317343 2.4149150103330621 2.7247374057769775 2.4801048040390006 2.5452305972576141 2.0081674158573142 1.9952216148376445 2.2151437103748322 1.5273822546005247 1.7129550874233244 1.690703347325325 1.7440578639507291 1.9917417913675306 2.1522572189569464 8.1912903338670731 1.5696828067302704 3.96465964615345 4.6878837645053864
leaf_count=124 12 32 19 272 130 11 52 10 11 10 165 17 28 41 108 16 13 16 18 16 15 13 13 13 10 11 11 11 12 13 54 10 25 29
internal_value=0 -0.0123082 0.0349574 -0.030157 -0.0191378 -0.00769096 0.0163266 0.0512595 0.0590542 0.00177598 0.0684149 0.0363361 0.0414484 0.0262963 0.0688739 0.0134612 -0.0322621 -0.0353643 -0.000239295 -0.0522855 0.0726259 0.0044767 0.00946564 0.0173818 -0.00306478 0.00716846 -0.00245087 -0.0291121 0.00156885 -0.0169987 -0.00747784 -0.0175902 -0.0040236 0
internal_weight=214.405 173.541 47.0021 126.539 87.3334 66.1866 33.1415 40.8635 35.9837 24.5394 31.2997 23.4729 21.7544 16.1601 22.4627 19.8257 33.0452 31.0054 4.68399 21.1468 5.59423 17.098 15.0898 10.1668 4.92306 3.39568 4.87982 9.66851 7.95162 12.7585 10.3435 3.26039 5.95988 9.24388
internal_count=1361 1124 282 842 570 424 204 237 206 155 176 141 130 98 127 123 220 207 30 146 32 107 94 63 31 21 31 63 50 83 67 21 38 57
is_linear=0
shrinkage=0.052938


Tree=43
num_leaves=18
num_cat=0
split_feature=6 7 0 1 0 8 5 5 0 9 0 0 1 5 5 0 0
split_gain=181.452 61.4548 38.8662 33.4391 8.03935 5.65008 4.80695 15.248 1.56675 0.947877 0.458752 0.430927 0.428367 0.492595 0.380444 0.0838658 1.20145
threshold=8.5000000000000018 2.5000000000000004 2018.5000000000002 1.0000000180025095e-35 2021.5000000000002 1.0000000180025095e-35 4.5000000000000009 2.5000000000000004 2021.5000000000002 1.0000000180025095e-35 2017.5000000000002 2018.5000000000002 1.0000000180025095e-35 1.0000000180025095e-35 1.5000000000000002 2019.5000000000002 2020.5000000000002
decision_type=2 2 2 2 2 2 2 2 2 2 2 2 2 2 2 2 2
left_child=-1 4 10 6 9 -6 7 -4 -5 15 -3 -11 13 -7 -15 -2 -17
right_child=1 2 3 8 5 12 -8 -9 -10 11 -12 -13 -14 14 -16 16 -18
leaf_value=-0.053015146402584881 -0.044662682744871139 -0.03645825457491942 0.14619149941060242 -0.03265313912676545 -0.031186498399625857 0.079336759466320086 0.22031959822194519 0.016882070567990983 0.020530054470892359 -0.019497347794903221 0 0.013716806744104183 0.0022815234378814257 0 0.03702730352434519 0.0069544831582768812 -0.035835749090343011
leaf_weight=78.758833035826683 5.2394442930817622 2.6932444497942916 19.818863160908229 2.0979373082518569 1.9648547470569608 3.2184537574648839 4.7318298369646064 3.6515477523207656 2.2304829359054565 1.0625320151448243 2.0295938327908516 1.7685940936207769 1.3580902963876722 1.7267820835113528 1.6765085756778715 2.0480196550488472 2.5883335769176483
leaf_count=851 55 28 139 21 21 28 32 26 22 11 20 17 12 16 15 20 27
internal_value=-0.000267857 0.0684819 0.109552 0.129862 0 0.0335911 0.150352 0.128274 -0.00192831 -0.0276836 -0.0247322 0 0.0535646 0.0595967 0.0236575 -0.0348888 -0.0145711
internal_weight=138.664 59.9051 37.2535 32.5307 22.6516 9.94469 28.2022 23.4704 4.32842 12.7069 4.72284 2.83113 7.97983 6.62174 3.40329 9.8758 4.63635
internal_count=1361 510 288 240 222 92 197 165 43 130 48 28 71 59 31 102 47
is_linear=0
shrinkage=0.052938


Tree=44
num_leaves=35
num_cat=0
split_feature=6 17 8 7 3 17 6 17 23 0 6 5 5 6 0 0 16 7 0 7 0 0 5 7 0 6 0 0 7 0 0 5 0 0
split_gain=37.2669 31.7692 19.8595 9.5448 12.173 15.1352 7.26968 6.03827 3.37946 3.82345 2.60913 2.25037 2.53798 2.09272 5.98434 1.51765 2.96443 1.52884 1.45336 1.42506 0.987453 0.954069 0.843772 0.834862 0.753167 0.739754 1.52908 0.836769 0.718898 0.680216 0.308021 0.24063 0.197872 0.0611785
threshold=4.5000000000000009 1.0000000180025095e-35 1.0000000180025095e-35 1.0000000180025095e-35 1.0000000180025095e-35 1.0000000180025095e-35 8.5000000000000018 1.0000000180025095e-35 1.0000000180025095e-35 2020.5000000000002 5.5000000000000009 2.5000000000000004 5.5000000000000009 6.5000000000000009 2018.5000000000002 2018.5000000000002 1.0000000180025095e-35 3.5000000000000004 2017.5000000000002 5.5000000000000009 2020.5000000000002 2018.5000000000002 2.5000000000000004 1.5000000000000002 2022.5000000000002 7.5000000000000009 2019.5000000000002 2019.5000000000002 5.5000000000000009 2021.5000000000002 2022.5000000000002 2.5000000000000004 2019.5000000000002 2018.5000000000002
decision_type=2 2 2 2 2 2 2 2 2 2 2 2 2 2 2 2 2 2 2 2 2 2 2 2 2 2 2 2 2 2 2 2 2 2
left_child=1 2 31 4 5 8 7 10 9 -2 22 18 13 14 -13 16 17 -8 28 -4 21 -6 -5 -20 -25 27 -27 -15 -12 -11 -31 -1 -3 -9
right_child=3 32 19 6 20 -7 15 33 -10 29 11 12 -14 25 -16 -17 -18 -19 23 -21 -22 -23 -24 24 -26 26 -28 -29 -30 30 -32 -33 -34 -35
leaf_value=0 0.1217021811464585 0 0.14311619119767288 0.041469201731187857 -0.019846011568584229 -0.031262894524168833 -0.0025713203746988919 -6.1669847735513686e-05 0 0 0.03522476624716829 -0.027493380696989922 -0.032526666513043263 0.0052369179253548273 0.07239005495000185 -0.043688708141323029 -0.039610848387219656 0.055358848245153407 0.0018618537415082616 0.055262611914627495 -0.033300411986358441 0.014068026276488474 0 -0.032984050755464012 0 -0.010455358810101754 0.041471878652901702 -0.033128063140052913 -0.0030078827161836609 0.063513883004191946 0.0029731956075252043 -0.023770742031557372 -0.036296253328907624 -0.038703706969673714
leaf_weight=1.7737107574939739 4.9108584076166117 1.132308930158614 9.7284418940544111 4.7962591275572768 3.9702172949910164 4.095130406320096 1.4393103569746011 1.338913895189761 1.0900682061910636 1.6489240005612371 1.1593494713306456 1.5805832743644694 2.0859275981783858 1.2786457762122156 4.2398509383201599 30.108472928404808 3.3656538650393486 1.2737705633044241 1.3850964978337277 3.140432409942151 6.8109272196888924 3.2677165642380714 2.5659141764044762 11.092875048518177 1.7256039381027228 1.8295017406344416 2.1176652833819389 2.1666458994150162 1.4550050497055051 1.5650467127561569 1.3356283977627754 1.3012789413332937 5.3199129775166512 12.239567950367926
leaf_count=17 42 11 69 45 40 43 14 13 9 15 11 16 21 13 36 311 35 12 13 27 70 33 23 109 17 18 21 22 14 14 12 13 55 127
internal_value=0 0.0614682 0.100449 -0.0118533 0.0139514 0.0469628 -0.0204555 -0.0072315 0.0793961 0.0888371 0.002884 -0.0032056 0.0103206 0.0202302 0.0417887 -0.0386321 -0.0080468 0.0247742 -0.0167097 0.127983 -0.0196278 -0.00183428 0.0298712 -0.0238175 -0.0282085 0 0.0149889 -0.0152971 0.011718 0.035834 0.0486103 -0.0116432 -0.0321928 -0.0366997
internal_weight=140.335 22.3961 15.9439 117.939 28.6945 14.6457 89.2446 53.0574 10.5505 9.46046 39.4789 32.1168 15.2988 13.2129 5.82043 36.1872 6.07873 2.71308 16.8179 12.8689 14.0489 7.23793 7.36217 14.2036 12.8185 7.39246 3.94717 3.44529 2.61435 4.5496 2.90068 3.07499 6.45222 13.5785
internal_count=1361 192 126 1169 278 135 891 519 92 83 379 311 147 126 52 372 61 26 164 96 143 73 68 139 126 74 39 35 25 41 26 30 66 140
is_linear=0
shrinkage=0.052938


Tree=45
num_leaves=34
num_cat=0
split_feature=17 16 9 5 6 8 13 10 7 0 5 7 5 7 10 0 0 5 7 7 5 1 0 7 20 5 7 7 6 7 5 0 0
split_gain=19.2644 19.5075 11.1816 7.45812 8.29013 8.17744 6.07522 6.93786 7.0942 6.4724 4.08383 2.41384 1.24402 0.981143 0.731092 0.687928 0.704071 2.34793 2.00582 0.685594 1.02278 0.700411 0.958132 0.575305 0.518935 0.775366 0.295968 0.229341 0.223385 0.212959 0.0991945 0.0604573 0.0249461
threshold=1.0000000180025095e-35 1.0000000180025095e-35 1.0000000180025095e-35 4.5000000000000009 8.5000000000000018 1.0000000180025095e-35 1.0000000180025095e-35 1.0000000180025095e-35 1.0000000180025095e-35 2021.5000000000002 1.0000000180025095e-35 3.5000000000000004 2.5000000000000004 6.5000000000000009 1.0000000180025095e-35 2020.5000000000002 2022.5000000000002 1.5000000000000002 2.5000000000000004 6.5000000000000009 2.5000000000000004 1.0000000180025095e-35 2022.5000000000002 3.5000000000000004 1.0000000180025095e-35 2.5000000000000004 3.5000000000000004 5.5000000000000009 7.5000000000000009 5.5000000000000009 7.5000000000000009 2018.5000000000002 2020.5000000000002
decision_type=2 2 2 2 2 2 2 2 2 2 2 2 2 2 2 2 2 2 2 2 2 2 2 2 2 2 2 2 2 2 2 2 2
left_child=1 2 3 4 5 11 7 8 12 -10 -9 -1 -7 -13 15 24 18 -18 -17 20 21 22 -4 -5 25 29 -16 -20 -8 -6 -2 -12 -22
right_child=30 -3 19 23 14 6 28 10 9 -11 31 13 -14 -15 26 16 17 -19 27 -21 32 -23 -24 -25 -26 -27 -28 -29 -30 -31 -32 -33 -34
leaf_value=-0.036549488045375722 -0.046254341861091043 -0.049610204624105002 -0.040505722555381339 0 -0.027544115780503607 0.027208918984053632 -0.024973524078445455 0.064529938797379297 0.099814129018344869 0.023479066907467851 0 0.0386523938211112 -0.018003069428822911 0 -0.028090095635996737 0.049422215042016528 -0.031847373220525256 0.044361648881007222 -0.018629521675112979 -0.041116061209806952 0.021303082364733376 0.00080754677443660721 0 -0.039160553509301983 0.019097833334495724 0.012475401682953019 0 0.0019640389680871599 0 0 -0.0040936347353525363 -0.033261552714535382 0
leaf_weight=2.8979563936591139 19.742579862475399 12.061707243323324 3.8281377106904966 0.79972792416810889 3.5793247520923641 5.8682769089937237 1.4347064495086663 1.1287502795457829 17.972714006900791 5.4832284003496161 1.2476867958903315 2.2258508875966072 1.0118283778429029 2.2728263810276985 1.7074315845966332 3.4363202750682813 2.1170178204774861 0.99661392718553532 1.0504347458481791 4.0891674682497969 0.85280681401491143 1.4542581066489217 1.7243228256702421 3.5184721574187279 0.90548254549503315 1.0745892524719236 0.8041573017835616 1.4302760884165762 0.82793905586004246 0.96302935481071461 1.5515754371881474 2.3013925999403 0.84739019721746445
leaf_count=37 260 154 46 10 44 70 17 13 183 61 15 25 12 27 21 41 26 12 13 51 10 16 21 45 11 13 10 18 10 12 19 28 10
internal_value=0 0.0104943 0.0202722 0.0290477 0.0339172 0.0459978 0.0559211 0.0614627 0.0704881 0.0843192 0 -0.0018345 0.0163797 0.0184526 0.00212785 0.00766572 0.0169765 0 0.0267156 -0.0230096 -0.00927919 -0.019548 -0.0278671 -0.0313372 -0.00258259 -0.0116232 -0.0187293 -0.0023438 -0.0159417 -0.0226171 -0.044482 -0.0274285 0.0165563
internal_weight=113.208 91.9138 79.8521 67.056 62.7378 44.6732 37.2765 35.0139 30.336 23.4559 4.67783 7.39663 6.88011 4.49868 18.0647 15.5531 9.03066 3.11363 5.91703 12.7961 8.70692 7.00672 5.55246 4.3182 6.52243 5.61694 2.51159 2.48071 2.26265 4.54235 21.2942 3.54908 1.7002
internal_count=1361 1082 928 774 719 498 409 382 326 244 56 89 82 52 221 190 110 38 72 154 103 83 67 55 80 69 31 31 27 56 279 43 20
is_linear=0
shrinkage=0.052938


Tree=46
num_leaves=9
num_cat=0
split_feature=7 5 0 6 4 9 0 5
split_gain=76.731 122.905 16.8598 4.35514 0.353897 0.286392 0.099366 0.0380138
threshold=6.5000000000000009 1.0000000180025095e-35 2018.5000000000002 8.5000000000000018 1.0000000180025095e-35 1.0000000180025095e-35 2022.5000000000002 2.5000000000000004
decision_type=2 2 2 2 2 2 2 2
left_child=6 2 -2 -3 7 -6 -1 -5
right_child=1 3 -4 4 5 -7 -8 -9
leaf_value=-0.046667102917809566 0.27911553311802767 -0.04717019218738551 0.11393157486932114 0 0 0.035737805192479342 -0.021538735917056188 -0.0084327167879096124
leaf_weight=35.650327172130346 4.433857701718809 10.876038905233143 6.8439682088792324 0.61312285810708933 0.98147955909371387 1.1961669698357582 6.3697276823222628 0.66937665268778801
leaf_count=776 40 236 101 13 20 23 138 14
internal_value=0 0.0707947 0.195419 -0.0310603 0.0135875 0.0243571 -0.0438806 0
internal_weight=67.6341 25.614 11.2778 14.3362 3.46015 2.17765 42.0201 1.2825
internal_count=1361 447 141 306 70 43 914 27
is_linear=0
shrinkage=0.052938


Tree=47
num_leaves=32
num_cat=0
split_feature=6 7 8 17 6 5 0 10 0 11 2 5 0 5 7 9 7 1 9 6 5 5 7 6 12 5 6 5 5 5 5
split_gain=22.3773 35.373 17.3246 19.2939 10.9788 9.66607 6.30797 4.18062 2.26514 2.32011 2.23123 1.97716 1.96916 1.95748 1.64014 1.63873 1.37302 2.34271 0.689754 0.597329 0.53981 0.409802 0.329319 0.255455 0.25114 0.646707 0.237667 0.0495062 0.0762276 0.00632153 0.00553496
threshold=8.5000000000000018 1.5000000000000002 1.0000000180025095e-35 1.0000000180025095e-35 4.5000000000000009 3.5000000000000004 2018.5000000000002 1.0000000180025095e-35 2022.5000000000002 1.0000000180025095e-35 1.0000000180025095e-35 2.5000000000000004 2022.5000000000002 1.0000000180025095e-35 1.5000000000000002 1.0000000180025095e-35 1.0000000180025095e-35 1.0000000180025095e-35 1.0000000180025095e-35 3.5000000000000004 1.5000000000000002 1.5000000000000002 5.5000000000000009 6.5000000000000009 1.0000000180025095e-35 1.0000000180025095e-35 2.5000000000000004 1.5000000000000002 2.5000000000000004 1.5000000000000002 3.5000000000000004
decision_type=2 2 2 2 2 2 2 2 2 2 2 2 2 2 2 2 2 2 2 2 2 2 2 2 2 2 2 2 2 2 2
left_child=1 12 6 4 30 8 11 10 9 13 16 -3 18 23 -9 -15 24 -18 -1 26 -11 -14 -5 -6 25 -2 -8 -27 -29 -10 -4
right_child=7 2 3 22 5 -7 19 14 29 20 -12 -13 21 15 -16 -17 17 -19 -20 -21 -22 -23 -24 -25 -26 27 -28 28 -30 -31 -32
leaf_value=-0.045847721398901087 -0.037288682337899483 0.083912684591012615 -0.030550439725688265 0.045806321879901961 0.0095111155875945569 0.1058723197120086 -0.016381598629774285 0.053803708592609183 -0.016643779649641231 0.010152291330085552 0.021273400853652494 0 0.016822224487575432 0.053823104404449436 -0.0053941565469467784 0 -0.051986632555235168 -0.0041685295274007566 0 -0.036304748638958509 -0.024595069917604163 -0.015838804787433873 0.14171557419086045 -0.017225777792373099 0 0 0.009889064419295452 -0.011887482011098618 0 0 0
leaf_weight=18.383932858705528 3.016298040747639 1.2264405414462083 4.1253109052777281 1.9874215200543384 1.1543678715825216 6.1440536379814139 0.93428715318441313 1.3148653432726853 0.94451957195997183 1.1368694975972169 0.85372936725616355 1.0565609782934187 1.6854095682501786 13.353717058897015 1.6072803437709806 1.2067763730883605 22.546061560511593 4.6629710942506781 0.94829143583774467 8.4375671669840795 1.4116073250770567 0.91312083601951588 6.1901723146438599 0.97933619469404209 1.852434545755387 1.689996965229511 1.1441008746623993 1.9784507751464846 1.8405714258551595 1.0804712101817129 1.2846236005425451
leaf_count=233 37 12 51 19 13 57 11 14 11 13 10 12 19 140 19 14 286 56 11 103 17 11 52 12 22 20 13 24 22 12 15
internal_value=0 0.0171467 0.0402969 0.0569088 0.0359896 0.0496959 -0.011467 -0.0308683 0.0290724 0.0349736 -0.0357677 0.0535712 -0.0380399 0.0420658 0.0211627 0.0486964 -0.0380882 -0.0449709 -0.0436722 -0.0304797 -0.00365136 0 0.127299 0 -0.0160156 -0.0195586 0 -0.00264466 -0.00627599 -0.0128812 -0.0271783
internal_weight=117.092 75.729 53.7982 40.9992 32.8217 27.4117 12.799 41.3627 21.2677 19.2427 38.4405 2.283 21.9308 16.6942 2.92215 14.5605 37.5868 27.209 19.3322 10.516 2.54848 2.59853 8.17759 2.1337 10.3778 8.52532 2.07839 5.50902 3.81902 2.02499 5.40993
internal_count=1361 851 577 426 355 289 151 510 232 209 477 24 274 179 33 154 467 342 244 127 30 30 71 25 125 103 24 66 46 23 66
is_linear=0
shrinkage=0.052938


Tree=48
num_leaves=22
num_cat=0
split_feature=17 7 0 7 0 8 6 3 21 0 14 0 6 11 5 6 0 7 7 5 0
split_gain=226.227 126.026 44.8563 32.4115 23.5378 7.20534 5.45731 5.27043 4.2033 6.49961 1.87312 1.69375 1.60515 4.53461 3.3251 1.22267 0.534488 0.354154 0.148739 0.0583986 0.0259398
threshold=1.0000000180025095e-35 3.5000000000000004 2020.5000000000002 1.5000000000000002 2017.5000000000002 1.0000000180025095e-35 7.5000000000000009 1.0000000180025095e-35 1.0000000180025095e-35 2021.5000000000002 1.0000000180025095e-35 2020.5000000000002 8.5000000000000018 1.0000000180025095e-35 2.5000000000000004 6.5000000000000009 2021.5000000000002 6.5000000000000009 2.5000000000000004 6.5000000000000009 2019.5000000000002
decision_type=2 2 2 2 2 2 2 2 2 2 2 2 2 2 2 2 2 2 2 2 2
left_child=3 2 -2 4 7 11 -3 -1 10 -10 18 -6 14 -14 15 -7 20 -12 -5 -4 -17
right_child=1 6 19 8 5 12 -8 -9 9 -11 17 -13 13 -15 -16 16 -18 -19 -20 -21 -22
leaf_value=0.0099573231599312997 -0.039606728022591076 -0.045894959917936955 0.1740841894931571 -0.033151587532832164 0 -0.035516777586604292 0.02952524597512738 0.11795833267595579 -0.045513434693999461 0.046468471530350566 0 0.05402232843521601 -0.042844833922285872 0.030200341543584221 0.03703571795954224 0 -0.018060607203999629 -0.021929263323275838 -0.05493641033295963 0.062558873845474663 0.0084570563982958157
leaf_weight=2.5136894285678855 2.6451438069343558 11.966986820101736 29.729564592242244 11.497415348887442 2.5709602683782569 6.3569118827581432 2.4025380909442893 4.5717450380325317 4.2008264809846869 2.8536452203989029 2.3727918565273276 3.9279292821884155 15.815262243151665 1.7979841977357871 2.6713452488183966 2.5532970577478391 3.3762181848287582 2.4468442052602768 81.94322857260704 1.8880575746297825 2.6074228435754776
leaf_count=16 18 86 149 79 17 44 16 26 30 18 16 23 113 12 17 17 23 17 597 10 17
internal_value=-0.000192624 0.0982639 0.152518 -0.0317757 0.00345938 -0.0117338 -0.0308615 0.0875806 -0.0482048 -0.00443773 -0.0510533 0.0353085 -0.0216706 -0.0331291 -0.0079655 -0.0190146 -0.00223515 -0.0101569 -0.0528129 0.169896 0.00537541
internal_weight=202.71 48.6323 34.2628 154.078 48.7628 41.6773 14.3695 7.08543 105.315 7.05447 98.2603 6.49889 35.1784 17.6132 17.5652 14.8938 8.53694 4.81964 93.4406 31.6176 5.16072
internal_count=1361 279 177 1082 325 283 102 42 757 48 709 40 243 125 118 101 57 33 676 159 34
is_linear=0
shrinkage=0.052938


Tree=49
num_leaves=6
num_cat=0
split_feature=16 5 7 21 2
split_gain=20.2781 3.75707 2.14343 2.14054 1.35853
threshold=1.0000000180025095e-35 1.0000000180025095e-35 6.5000000000000009 1.0000000180025095e-35 1.0000000180025095e-35
decision_type=2 2 2 2 2
left_child=2 -2 4 -4 -1
right_child=1 -3 3 -5 -6
leaf_value=-0.044379556709642713 0.14226257607748719 0 -0.0097201502750047155 0.07541917415524349 0.012201828082735835
leaf_weight=9.0929072452709043 2.0088012125343098 0.34275341406464566 3.3163323663175102 0.16258751787245262 0.31666008383035738
leaf_count=864 124 30 303 13 27
internal_value=0 0.121436 -0.0269044 0.00270662 -0.0394135
internal_weight=15.24 2.35155 12.8885 3.47892 9.40957
internal_count=1361 154 1207 316 891
is_linear=0
shrinkage=0.052938


Tree=50
num_leaves=26
num_cat=0
split_feature=6 7 1 8 6 8 20 11 21 10 7 6 6 1 0 0 4 8 0 15 0 6 0 0 0
split_gain=86.8657 36.2445 18.6427 13.8641 9.12886 9.41091 3.93936 3.27635 3.70894 2.97941 2.55624 1.97789 1.71874 1.58751 2.79997 1.5528 1.53098 1.1315 1.82347 0.605256 0.544765 0.489354 0.436995 0.103039 0.0413658
threshold=7.5000000000000009 3.5000000000000004 1.0000000180025095e-35 1.0000000180025095e-35 3.5000000000000004 1.0000000180025095e-35 1.0000000180025095e-35 1.0000000180025095e-35 1.0000000180025095e-35 1.0000000180025095e-35 1.5000000000000002 5.5000000000000009 6.5000000000000009 1.0000000180025095e-35 2020.5000000000002 2019.5000000000002 1.0000000180025095e-35 1.0000000180025095e-35 2021.5000000000002 1.0000000180025095e-35 2018.5000000000002 8.5000000000000018 2020.5000000000002 2021.5000000000002 2018.5000000000002
decision_type=2 2 2 2 2 2 2 2 2 2 2 2 2 2 2 2 2 2 2 2 2 2 2 2 2
left_child=1 4 3 11 5 -1 7 8 16 19 17 15 20 14 -7 -3 -5 18 -6 -2 -12 -11 -22 -24 -4
right_child=9 2 24 6 10 13 -8 -9 -10 21 12 -13 -14 -15 -16 -17 -18 -19 -20 -21 22 -23 23 -25 -26
leaf_value=0.10683103291849301 -0.047197232791586184 0.052364439697578757 0 0.080442497296036447 0.030427888489885879 0.068415910596097446 -0.0077166457892619182 0 -0.0015114989472603949 0.014902282396515656 0 0.072963427380972459 -0.031078375248645158 -0.032587253485438991 -0.012242046429970461 0.18219726897128299 0.027349441788901769 -0.044323382396544479 -0.025317967267367961 0 0.046352661280446572 -0.013964412265933566 0 0.011082384361670871 -0.036229061440144844
leaf_weight=2.8498651906847954 60.517339780926704 1.7714497968554477 1.2865362167358392 18.094719469547286 1.2682377621531529 1.0475004017353087 1.673765830695628 1.9676966443657864 1.3883063495159138 1.7192107215523709 1.2890608981251706 4.99659763276577 1.9111257418990133 2.0899082124233246 1.9348859935998914 4.7397164702415466 4.4504437148571006 9.4414033591747248 4.8459538593888283 1.0444550737738598 1.451122313737869 3.3021594732999802 1.2335622087121012 1.8695975020527837 2.6101531907916069
leaf_count=23 634 13 13 153 12 9 16 17 13 16 12 40 19 21 19 33 39 97 50 10 13 33 12 18 26
internal_value=0.000117563 0.0394576 0.0705501 0.0816217 -0.00333554 0.0422351 0.0568041 0.061937 0.0671702 -0.0433372 -0.0206866 0.131429 0.00150382 -9.80716e-05 0.0188179 0.159883 0.0722792 -0.0326576 -0.0082171 -0.0465092 0.0181162 0 0.0262754 0.00329335 -0.0305067
internal_weight=140.795 74.2116 42.9794 39.0827 31.2322 7.92216 27.5749 25.9012 23.9335 66.5832 23.3101 11.5078 7.75447 5.07229 2.98239 6.51117 22.5452 15.5556 6.11419 61.5618 5.84334 5.02137 4.55428 3.10316 3.89669
internal_count=1361 668 363 324 305 72 238 222 205 693 233 86 74 49 28 46 192 159 62 644 55 49 43 30 39
is_linear=0
shrinkage=0.052938


Tree=51
num_leaves=33
num_cat=0
split_feature=7 6 0 5 5 6 0 0 6 6 0 16 6 6 13 3 23 5 1 0 0 0 5 5 5 0 0 5 0 12 5 5
split_gain=7.10432 10.0306 6.1631 2.62622 4.43805 3.10365 2.77801 4.90899 1.77515 1.29686 1.23164 1.08215 0.62985 1.14344 0.587441 0.681756 0.700846 0.581035 0.497025 1.41528 0.578177 0.196521 0.143143 0.0703389 0.211011 0.185703 0.0693023 0.592176 0.031743 0.0287994 0.0242528 0.00118015
threshold=3.5000000000000004 8.5000000000000018 2022.5000000000002 2.5000000000000004 4.5000000000000009 6.5000000000000009 2020.5000000000002 2018.5000000000002 5.5000000000000009 8.5000000000000018 2019.5000000000002 1.0000000180025095e-35 5.5000000000000009 6.5000000000000009 1.0000000180025095e-35 1.0000000180025095e-35 1.0000000180025095e-35 3.5000000000000004 1.0000000180025095e-35 2019.5000000000002 2019.5000000000002 2020.5000000000002 1.0000000180025095e-35 1.0000000180025095e-35 3.5000000000000004 2022.5000000000002 2022.5000000000002 2.5000000000000004 2020.5000000000002 1.0000000180025095e-35 1.0000000180025095e-35 1.5000000000000002
decision_type=2 2 2 2 2 2 2 2 2 2 2 2 2 2 2 2 2 2 2 2 2 2 2 2 2 2 2 2 2 2 2 2
left_child=9 2 3 6 12 10 7 -2 -8 14 -6 17 -5 -14 15 16 -1 22 20 -20 -11 -15 -3 25 26 -22 27 -25 -7 -17 -21 -28
right_child=1 11 -4 4 5 28 8 -9 -10 18 -12 -13 13 21 -16 29 -18 -19 19 30 23 -23 -24 24 -26 -27 31 -29 -30 -31 -32 -33
leaf_value=-0.039035281310930231 0.02426761512180382 0 -0.030264004091242139 -0.025906178134776317 0 0.0016169349735272102 -0.019336091624588079 0.14054299690538508 0.045040445655341939 -0.029668663254527074 0.1131025587650548 -0.039978167006991 0.032147641332266844 -0.022074000276184069 0 -0.0050690982384524455 0 -0.024930829285752517 0.049301223214711802 -0.012202668977901216 -0.018214176276500387 0 0.012385251258746144 0.034730880278413617 -0.0049137774005085164 0 -0.00050936328619585313 -0.002080433421132529 -0.0076045380365248145 0.0035006690305658793 0 0.0014774971043850791
leaf_weight=12.039660502225157 2.8768171928823048 1.3360863961279408 2.1499233469367018 1.6549022234976272 0.66747987270355302 0.53135451301932313 1.1603358760476115 2.5643775425851345 1.5498503372073171 2.0833332389593124 1.5310199446976183 4.5211344659328461 1.9080128483474252 1.3516124002635481 0.6909159794449814 1.6852539554238313 0.79186682030558664 1.578604884445667 0.93316254764795337 0.81610844284296025 1.1064204871654508 0.84033746644854534 2.7519933581352234 1.2282966375350959 0.56640681251883496 0.67651306837797154 0.44663833826780308 0.48795075342059124 0.64807214960455894 0.48586080968379963 1.0410652197897432 0.53472142666578293
leaf_count=314 64 32 53 39 14 13 26 56 35 54 34 121 41 34 17 42 20 40 22 20 28 21 68 30 15 17 11 13 16 12 26 13
