tree
version=v4
num_class=8
num_tree_per_iteration=8
label_index=0
max_feature_idx=23
objective=multiclass num_class:8
feature_names=Column_0 Column_1 Column_2 Column_3 Column_4 Column_5 Column_6 Column_7 Column_8 Column_9 Column_10 Column_11 Column_12 Column_13 Column_14 Column_15 Column_16 Column_17 Column_18 Column_19 Column_20 Column_21 Column_22 Column_23
feature_infos=[2017:2023] [0:1] [0:1] [0:1] [0:1] [0:8] [1:9] [0:7] [0:1] [0:1] [0:1] [0:1] [0:1] [0:1] [0:1] [0:1] [0:1] [0:1] [0:1] [0:1] [0:1] [0:1] [0:1] [0:1]
tree_sizes=2738 1995 1924 2735 2136 2518 2390 1990 2783 1919 1933 2703 2486 2299 2449 2097 1594 2041 2237 2660 2846 2511 2669 1901 2487 1724 2378 2612 2375 2303 1443 1765 1986 2043 2237 2805 2788 2811 2667 1313 1502 1938 1917 2507 2010 2202 2587 2014 2158 1780 1918 1843 3034 2392 1557 1615 2151 2160 2278 2710 3031 2418 2806 1960 1596 2141 1843 1948 2593 2009 2397 2130 1495 2039 1725 2180 2528 2737 1831 1715 1570 1736 2298 2376 2327 1890 2591 2055 1471 2032 1339 2406 2689 2726 2312 2121 1605 1594 2937 2438 2150 2281 2307 1695 1471 1605 2529 2627 2709 2425 1417 2329 1939 1841 1844 2082 2613 2077 2502 1734 906 2338 2747 2152 2924 2290 2420 2108 1262 2641 1456 2301 2290 1788 2508 2330 1910 1935 2125 1357 2195 1982 2290 1608 2090 1938 2255 2381 2283 2625 2220 2265 1387 2120 1712 2507 2444 1854 2269 2426 2245 1979 1811 2487 2519 1263 2279 2116 1303 2244 2923 2487 1967 1874 1938 1867 1102 2387 2539 1559 1568 2098 2613 2053 1721 2235 2216 2713 2643 2739 2579 1537 1942 2020 1818 1561 2197 1672 2250 1794 2445 1948 1864 2682 1861 1775 2324 1928 1475 1708 1892 1824 2398 2087 2379 2615 1492 2294 1690 2223 2532 1987 1827 2515 1202 1928 1877 1944 2108 2290 1771 2108 1925 1843 1817 1768 2178 2637 2511 1863 1015 1976 1915 1435 1860 1902 2165 2093 994 2283 2367 1794 1561 1858 1756 1880 1020 2124 1320 1879 2393 2422 2035 1500 1216 2342 2427 1658 2184 1771 2040 2548 1096 1817 1452 2285 1747 2583 1982 1330 919 2333 1737 1786 2611 1897 2498 1637 1117 1916 1970 1875 1844 1771 1874 1548 1115 2230 1836 1539 1850 1887 2186 1961 919 1905 2224 1326 2605 2049 1966 2426 1018 2028 1845 2815 2500 2053 1852 2307 1229 2036 1498 2565 1616 1653 2180 2325 1100 1613 1502 1569 1757 1757 2074 1092 1114 1523 1522 2569 1678 2387 1881 2121 1822 1441 2620 1943 1660 3058 2496 2146 1288 1731 1837 1983 2436 2210 1846 2265 1319 2113 1826 1734 2172 1894 2076 1728 1090 2099 1696 1943 2632 1893 1877 1605 1383 1219 1614 2158 2086 1896 1779 2229 1966 1820 2662 2217 2215 2014 1774 1841

Tree=0
num_leaves=25
num_cat=0
split_feature=7 0 6 6 6 0 3 5 0 20 9 0 0 6 7 20 7 7 7 7 5 0 0 6
split_gain=14.1604 22.6732 15.7503 19.2454 4.6183 3.58276 2.85864 2.5397 2.32088 3.06762 2.11202 2.40776 2.05905 1.9466 1.70644 1.06952 0.71129 0.560081 0.480821 0.460123 0.386898 0.0540532 0.0337348 0.0230302
threshold=4.5000000000000009 2019.5000000000002 7.5000000000000009 6.5000000000000009 8.5000000000000018 2020.5000000000002 1.0000000180025095e-35 1.5000000000000002 2018.5000000000002 1.0000000180025095e-35 1.0000000180025095e-35 2019.5000000000002 2017.5000000000002 8.5000000000000018 1.0000000180025095e-35 1.0000000180025095e-35 6.5000000000000009 1.5000000000000002 1.5000000000000002 1.0000000180025095e-35 4.5000000000000009 2018.5000000000002 2022.5000000000002 8.5000000000000018
decision_type=2 2 2 2 2 2 2 2 2 2 2 2 2 2 2 2 2 2 2 2 2 2 2 2
left_child=4 2 3 -2 8 10 19 13 9 18 11 -6 -11 16 -10 -8 -3 -16 -1 -7 -9 -12 -22 -4
right_child=1 7 23 -5 5 6 15 20 14 12 21 -13 -14 -15 17 -17 -18 -19 -20 -21 22 -23 -24 -25
leaf_value=-5.5849982975311434 -5.4376235743789367 -5.5503304754259837 -5.5503304754259837 -4.8985759835347524 -5.5266535343289398 -5.504427309019345 -5.6227297566338112 -5.613197929869651 -5.6294927076175316 -5.5503304754259837 -5.5503304754259837 -5.4162103464957472 -5.3429726759228195 -5.5623120695750732 -5.5375703237349017 -5.5407473534015468 -5.3756149794802592 -5.5826846812282591 -5.5473221865473876 -5.5503304754259837 -5.5597862716891493 -5.5805367356508935 -5.5367474533551535 -5.5625334238895769
leaf_weight=7.1802822500467265 2.3137939721345888 0.76536588370800041 0.69015651941299416 0.79191036522388447 8.3128467947244662 3.0880080163478834 7.4324548244476318 4.0613056719303131 15.705484896898271 0.34507825970649797 1.1856535077095025 2.9110448062419882 0.34950233995914459 0.79633444547653187 2.3713070154190055 0.42471170425415028 0.47780066728591919 5.0124829262495041 1.6059411317110059 1.5528521686792371 0.74766956269741036 1.2785591930150983 0.38047090172767639 0.80075852572917938
leaf_count=1623 523 173 156 179 1879 698 1680 918 3550 78 268 658 79 180 536 96 108 1133 363 351 169 289 86 181
internal_value=-5.55033 -5.45584 -5.30125 -5.19501 -5.5702 -5.54132 -5.57598 -5.5606 -5.59466 -5.55033 -5.50642 -5.48777 -5.41687 -5.48953 -5.611 -5.61195 -5.42866 -5.56205 -5.57303 -5.52453 -5.60095 -5.57042 -5.55033 -5.55033
internal_weight=70.5818 11.8256 4.59662 3.1057 58.7562 26.1861 12.498 7.22895 32.5701 9.4808 13.6881 11.2239 0.694581 2.0395 23.0893 7.85717 1.24317 7.38379 8.78622 4.64086 5.18945 2.46421 1.12814 1.49092
internal_count=15954 2673 1039 702 13281 5919 2825 1634 7362 2143 3094 2537 157 461 5219 1776 281 1669 1986 1049 1173 557 255 337
is_linear=0
shrinkage=1


Tree=1
num_leaves=18
num_cat=0
split_feature=16 5 0 5 7 7 7 6 0 6 7 6 7 0 5 0 6
split_gain=282.017 404.786 154.24 168.577 78.1563 74.0404 94.558 69.1046 51.6517 20.9653 14.0286 40.9409 2.93322 5.73168 1.98222 0.238987 0.0424809
threshold=1.0000000180025095e-35 1.0000000180025095e-35 2021.5000000000002 3.5000000000000004 1.5000000000000002 1.0000000180025095e-35 1.5000000000000002 8.5000000000000018 2022.5000000000002 7.5000000000000009 6.5000000000000009 8.5000000000000018 1.0000000180025095e-35 2020.5000000000002 1.5000000000000002 2017.5000000000002 8.5000000000000018
decision_type=2 2 2 2 2 2 2 2 2 2 2 2 2 2 2 2 2
left_child=2 -2 10 5 8 9 -7 -6 -5 -4 12 14 15 -14 -12 -1 -3
right_child=1 16 3 4 7 6 -8 -9 -10 -11 11 -13 13 -15 -16 -17 -18
leaf_value=-3.9797539318593484 -2.7237530153641982 -3.9863544957352182 -3.8618615562261573 -2.9259461452077007 -3.87594691603389 -3.4547722322530277 -3.8634616007307057 -3.247952263407468 -3.7525445413602454 -3.9846320664423347 -3.9093432241712671 -3.5846795303922709 -3.9843961578011737 -3.9128998646400253 -3.9820675614673733 -4.0020575252592749 -3.9248922216454418
leaf_weight=32.935707692056894 3.8045276850461942 3.5833342149853706 17.584880869835615 2.3004120886325827 7.2772651650011522 6.5252073667943504 24.353401053696871 1.6368316784501074 1.6147123314440253 46.030361119657755 3.2073053158819702 2.5437249056994906 45.632212873548269 12.209879547357557 12.740743875503538 127.31896136701107 1.5925929844379423
leaf_count=1489 172 162 795 104 329 295 1101 74 73 2081 145 115 2063 552 576 5756 72
internal_value=-3.92489 -3.4043 -3.93948 -3.84289 -3.51966 -3.88986 -3.76729 -3.71584 -3.18039 -3.9496 -3.98362 -3.90464 -3.99059 -3.96847 -3.96435 -3.99804 -3.97666
internal_weight=352.892 8.98045 343.912 107.323 12.8292 94.4939 30.8786 8.9141 3.91512 63.6152 236.589 18.4918 218.097 57.8421 15.948 160.255 5.17593
internal_count=15954 406 15548 4852 580 4272 1396 403 177 2876 10696 836 9860 2615 721 7245 234
is_linear=0
shrinkage=1


Tree=2
num_leaves=17
num_cat=0
split_feature=6 5 17 3 13 5 11 5 3 23 18 12 3 6 6 6
split_gain=43.6438 12.9512 10.0749 8.16768 7.34358 4.99194 4.49832 3.2601 2.68872 1.94769 1.63279 1.49649 2.85562 0.917531 0.424972 0.335192
threshold=5.5000000000000009 2.5000000000000004 1.0000000180025095e-35 1.0000000180025095e-35 1.0000000180025095e-35 5.5000000000000009 1.0000000180025095e-35 4.5000000000000009 1.0000000180025095e-35 1.0000000180025095e-35 1.0000000180025095e-35 1.0000000180025095e-35 1.0000000180025095e-35 7.5000000000000009 2.5000000000000004 8.5000000000000018
decision_type=2 2 2 2 2 2 2 2 2 2 2 2 2 2 2 2
left_child=3 10 8 4 6 -4 7 -1 9 -3 11 13 -13 -2 -8 -12
right_child=1 2 5 -5 -6 -7 14 -9 -10 -11 15 12 -14 -15 -16 -17
leaf_value=-3.8592219166221744 -3.9782691429890589 -3.9516824783896118 -3.790078661128415 -3.9912449561267578 -4.0015100813836781 -3.9604371590648531 -3.9223626030029837 -3.9465450130137101 -4.0017795578711004 -3.8688020531130021 -3.9074248746833713 -3.9216926717139988 -3.9874813658238084 -3.9978105972899969 -3.9708376402705623 -3.9604371590648531
leaf_weight=51.2259311825037 43.193841889500618 29.970801271498203 5.4259326606988898 6.4726677015423766 3.8237871900200835 2.2430036589503288 1.7303171083331097 6.1736005470156661 8.1175370514392835 2.6488805115222922 1.4739738330245011 7.9252795949578312 20.656995601952076 142.89001404494047 4.5714550763368607 2.2643655985593796
leaf_count=2398 2022 1403 254 303 179 105 81 289 380 124 69 371 967 6689 214 106
internal_value=-3.96044 -3.97887 -3.93397 -3.89442 -3.88418 -3.83589 -3.876 -3.86747 -3.95538 -3.94171 -3.9891 -3.99035 -3.96703 -3.99363 -3.96044 -3.93507
internal_weight=340.808 266.811 48.4062 73.9978 67.5251 7.66894 63.7013 57.3995 40.7372 32.6197 218.404 214.666 28.5823 186.084 6.30177 3.73834
internal_count=15954 12490 2266 3464 3161 359 2982 2687 1907 1527 10224 10049 1338 8711 295 175
is_linear=0
shrinkage=1


Tree=3
num_leaves=25
num_cat=0
split_feature=6 7 6 11 23 10 5 5 6 5 6 14 23 7 4 7 7 6 7 23 11 7 5 5
split_gain=53.9907 11.4322 11.1443 8.55623 9.3978 7.68676 5.09061 4.49781 4.41163 2.74947 2.11972 2.7934 2.24473 4.37713 1.94833 1.73024 2.70173 1.71231 1.43077 1.32896 1.18366 0.884115 0.561985 0.335076
threshold=5.5000000000000009 5.5000000000000009 7.5000000000000009 1.0000000180025095e-35 1.0000000180025095e-35 1.0000000180025095e-35 1.5000000000000002 1.0000000180025095e-35 3.5000000000000004 1.5000000000000002 8.5000000000000018 1.0000000180025095e-35 1.0000000180025095e-35 1.0000000180025095e-35 1.0000000180025095e-35 6.5000000000000009 2.5000000000000004 3.5000000000000004 6.5000000000000009 1.0000000180025095e-35 1.0000000180025095e-35 6.5000000000000009 2.5000000000000004 3.5000000000000004
decision_type=2 2 2 2 2 2 2 2 2 2 2 2 2 2 2 2 2 2 2 2 2 2 2 2
left_child=1 3 5 4 6 7 -1 20 -3 -5 11 19 18 -14 -9 16 -7 -6 -12 -4 -2 23 -23 -10
right_child=2 8 10 9 17 15 -8 14 21 -11 12 -13 13 -15 -16 -17 -18 -19 -20 -21 -22 22 -24 -25
leaf_value=-2.640692815007704 -2.7020551228919585 -2.6673536302662431 -2.7336548422446416 -2.7691183904915051 -2.717294298915816 -2.6617078366298261 -2.6786409448311796 -2.7311560563562183 -2.7608454531447335 -2.6975320117827417 -2.7463683380573922 -2.680627863004255 -2.7396678928949405 -2.6488562115348131 -2.7740837818341086 -2.6117255234929351 -2.7351299506372149 -2.7807433322220589 -2.7736226000462572 -2.7681608461999656 -2.7353464301475507 -2.7096828502384396 -2.7421041875397711 -2.7247362158462067
leaf_weight=77.298828363418579 73.86799268424511 9.2422512173652631 177.00311422348022 10.012438818812372 9.3122682720422727 12.67308689653874 82.480090409517288 105.16561612486839 15.47376908361912 8.4720636159181577 405.18869541585445 8.0519612878561002 21.215167567133907 5.8114155381917945 11.272745802998541 5.1112449914216986 5.5313473194837561 5.2512791007757178 22.615508660674095 11.832882240414618 9.1722341626882535 10.43254114687443 8.752131834626196 5.8114155381917945
leaf_count=1104 1055 132 2528 143 133 181 1178 1502 221 121 5787 115 303 83 161 73 79 75 323 169 131 149 125 83
internal_value=-2.72474 -2.68403 -2.73605 -2.6733 -2.66657 -2.71737 -2.65969 -2.72391 -2.7248 -2.73386 -2.74251 -2.73356 -2.74626 -2.7206 -2.73601 -2.6651 -2.68628 -2.73831 -2.748 -2.73623 -2.70639 -2.73987 -2.72474 -2.75325
internal_weight=1117.05 242.539 874.513 192.827 174.342 222.794 159.779 199.479 49.7121 18.4845 651.719 196.888 454.831 27.0266 116.438 23.3157 18.2044 14.5635 427.804 188.836 83.0402 40.4699 19.1847 21.2852
internal_count=15954 3464 12490 2754 2490 3182 2282 2849 710 264 9308 2812 6496 386 1663 333 260 208 6110 2697 1186 578 274 304
is_linear=0
shrinkage=1


Tree=4
num_leaves=19
num_cat=0
split_feature=6 6 17 3 5 11 6 12 21 17 13 6 10 5 5 11 6 5
split_gain=84.4397 27.192 21.5033 18.9251 17.469 13.972 10.0852 8.94881 7.71001 7.56781 6.50774 5.95771 5.47462 4.43327 4.20178 2.73289 0.464134 0.31573
threshold=3.5000000000000004 8.5000000000000018 1.0000000180025095e-35 1.0000000180025095e-35 1.0000000180025095e-35 1.0000000180025095e-35 1.5000000000000002 1.0000000180025095e-35 1.0000000180025095e-35 1.0000000180025095e-35 1.0000000180025095e-35 5.5000000000000009 1.0000000180025095e-35 4.5000000000000009 1.0000000180025095e-35 1.0000000180025095e-35 7.5000000000000009 1.0000000180025095e-35
decision_type=2 2 2 2 2 2 2 2 2 2 2 2 2 2 2 2 2 2
left_child=4 2 5 12 -1 10 -6 8 -5 13 -2 -7 15 -8 -14 -3 -4 -9
right_child=1 3 16 7 6 11 9 17 -10 -11 -12 -13 14 -15 -16 -17 -18 -19
leaf_value=-1.1421131073978359 -1.2102501855295207 -1.2457464167606056 -1.2544827206830644 -1.2304701494117767 -1.1371762355588289 -1.2030711319048204 -1.1844526705477103 -1.2058613100550624 -1.1980261920402044 -1.2391479997203809 -1.1839959801665461 -1.2451851998776027 -1.2502581326570004 -1.2263499594133602 -1.2077233835216887 -1.2658633881699188 -1.235154563070352 -1.1934810928810566
leaf_weight=108.57938575744629 1410.5795640945435 447.65185356140137 114.05597758293152 711.95693731307983 32.859550952911377 38.336142778396606 214.30141925811768 72.148144483566284 75.719834804534912 30.954649448394775 97.14997673034668 152.6302330493927 33.812001705169678 24.76371955871582 59.051946640014648 87.863581895828247 27.859184503555298 58.575721263885498
leaf_count=456 5924 1880 479 2990 138 161 900 303 318 130 408 641 142 104 248 369 117 246
internal_value=-1.21769 -1.22277 -1.21477 -1.23231 -1.17595 -1.21169 -1.18839 -1.2233 -1.22727 -1.19499 -1.20851 -1.23644 -1.24539 -1.18902 -1.22279 -1.2492 -1.25114 -1.19983
internal_weight=3798.85 3387.39 1840.61 1546.78 411.459 1698.7 302.879 918.401 787.677 270.02 1507.73 190.966 628.379 239.065 92.8639 535.515 141.915 130.724
internal_count=15954 14226 7730 6496 1728 7134 1272 3857 3308 1134 6332 802 2639 1004 390 2249 596 549
is_linear=0
shrinkage=1


Tree=5
num_leaves=23
num_cat=0
split_feature=7 6 8 1 0 17 7 1 6 8 11 1 4 0 0 7 6 0 0 1 6 0
split_gain=38.0573 38.02 7.87227 12.8274 9.3209 7.07877 8.01894 6.77054 6.15153 7.33194 5.54928 4.49099 4.30918 4.01148 6.69799 2.72911 1.70307 1.35889 3.95034 2.10679 0.914997 0.656736
threshold=6.5000000000000009 7.5000000000000009 1.0000000180025095e-35 1.0000000180025095e-35 2019.5000000000002 1.0000000180025095e-35 5.5000000000000009 1.0000000180025095e-35 8.5000000000000018 1.0000000180025095e-35 1.0000000180025095e-35 1.0000000180025095e-35 1.0000000180025095e-35 2019.5000000000002 2022.5000000000002 1.0000000180025095e-35 8.5000000000000018 2017.5000000000002 2018.5000000000002 1.0000000180025095e-35 6.5000000000000009 2020.5000000000002
decision_type=2 2 2 2 2 2 2 2 2 2 2 2 2 2 2 2 2 2 2 2 2 2
left_child=1 5 3 4 -3 6 7 -1 17 -10 12 -8 -4 -7 -15 -5 -12 20 -19 -20 -2 -11
right_child=8 2 10 15 -6 13 11 -9 9 21 16 -13 -14 14 -16 -17 -18 18 19 -21 -22 -23
leaf_value=-1.09429237280665 -1.1092865619750343 -1.0517453129688161 -1.0809529756288991 -1.0501788364953373 -1.1030101886034862 -1.0927184781998778 -1.0854647950428886 -1.109464077666547 -1.0903725416751702 -1.1410211247039272 -1.0834915219333912 -1.0428157964516667 -1.0364331393786446 -1.1492923603400729 -1.0893430202829171 -1.0752675070085473 -1.1025888151263346 -1.1437047785974659 -1.112851390750101 -1.0809350138817546 -1.0805188402267527 -1.1720212294468271
leaf_weight=765.79559344053268 20.145804822444916 45.646823585033417 1535.9263600707054 226.19403642416 124.189961373806 35.191405892372131 105.57421767711639 453.15310341119766 19.890794634819031 31.111242890357971 58.652343153953552 31.111242890357971 20.910835385322571 64.262567281723022 22.185886323451996 60.692424654960632 152.24108201265335 41.311650395393372 180.80222302675247 19.380774259567261 18.615743696689606 35.446416079998016
leaf_count=3003 79 179 6023 887 487 138 414 1777 78 122 230 122 82 252 87 238 597 162 709 76 73 139
internal_value=-1.09037 -1.0874 -1.07932 -1.06784 -1.08943 -1.09952 -1.09744 -1.09998 -1.12035 -1.14353 -1.08233 -1.0752 -1.0803 -1.12215 -1.13344 -1.05526 -1.09703 -1.11292 -1.11568 -1.10949 -1.09425 -1.15894
internal_weight=4068.43 3701.73 2224.45 456.723 169.837 1477.27 1355.63 1218.95 366.705 86.4485 1767.73 136.685 1556.84 121.64 86.4485 286.886 210.893 280.256 241.495 200.183 38.7615 66.5577
internal_count=15954 14516 8723 1791 666 5793 5316 4780 1438 339 6932 536 6105 477 339 1125 827 1099 947 785 152 261
is_linear=0
shrinkage=1


Tree=6
num_leaves=22
num_cat=0
split_feature=6 0 6 5 5 10 7 0 6 7 0 6 6 0 0 1 6 6 6 5 5
split_gain=127.256 32.169 18.3026 11.3202 10.3852 9.7429 8.11537 7.26209 5.24934 4.66934 4.95381 7.22517 4.36133 3.54493 3.5166 1.97841 2.04183 1.40591 1.09877 1.05575 0.989553
threshold=4.5000000000000009 2017.5000000000002 8.5000000000000018 4.5000000000000009 4.5000000000000009 1.0000000180025095e-35 1.5000000000000002 2018.5000000000002 7.5000000000000009 6.5000000000000009 2018.5000000000002 2.5000000000000004 3.5000000000000004 2019.5000000000002 2019.5000000000002 1.0000000180025095e-35 6.5000000000000009 7.5000000000000009 8.5000000000000018 1.5000000000000002 1.5000000000000002
decision_type=2 2 2 2 2 2 2 2 2 2 2 2 2 2 2 2 2 2 2 2 2
left_child=4 15 5 7 9 6 -3 -4 -7 10 11 -1 13 -6 -12 16 20 -17 -18 -19 -2
right_child=1 2 3 -5 12 8 -8 -9 -10 -11 14 -13 -14 -15 -16 17 18 19 -20 -21 -22
leaf_value=-1.4978937442075142 -1.4527541753649904 -1.4338147791451616 -1.4316068759084031 -1.4799615135056934 -1.4930677702255128 -1.4715601793237154 -1.4158974545376792 -1.4091544048397733 -1.4305972026125122 -1.4349717072834491 -1.5131048960606335 -1.4463592076697629 -1.3967785240549622 -1.433026204098383 -1.485790173812221 -1.4601092882265503 -1.4680125244778521 -1.4397949685959164 -1.4530535238020035 -1.4130770329089999 -1.4259427507019864
leaf_weight=43.540793359279633 23.429093569517136 743.30354377627373 166.0770260989666 23.014419347047806 14.306260675191877 79.824787825345993 361.18124777078629 985.47328969836235 43.955467581748962 17.208980232477188 69.043258041143417 71.323966264724731 16.379631787538528 20.941048234701157 272.02628993988037 23.221756458282471 118.182153403759 48.724221140146255 122.12155851721764 18.453002899885178 26.12447601556778
leaf_count=210 113 3585 801 111 69 385 1742 4753 212 83 333 344 79 101 1312 112 570 235 589 89 126
internal_value=-1.43497 -1.42665 -1.42246 -1.41374 -1.47905 -1.43085 -1.4279 -1.41234 -1.45666 -1.48359 -1.48547 -1.46659 -1.43642 -1.45662 -1.49161 -1.45297 -1.45695 -1.43959 -1.46069 -1.43306 -1.43768
internal_weight=3307.86 2783.09 2402.83 1174.56 524.77 1228.27 1104.48 1151.55 123.78 473.143 455.934 114.865 51.6269 35.2473 341.07 380.256 289.857 90.399 240.304 67.1772 49.5536
internal_count=15954 13423 11589 5665 2531 5924 5327 5554 597 2282 2199 554 249 170 1645 1834 1398 436 1159 324 239
is_linear=0
shrinkage=1


Tree=7
num_leaves=18
num_cat=0
split_feature=7 7 17 2 20 17 0 5 5 0 0 0 5 5 0 0 5
split_gain=167.25 10.3902 13.9169 13.621 15.5632 9.96441 13.932 5.64918 3.67853 2.8405 2.80354 4.68098 1.15599 1.03868 0.636762 0.275865 0.134778
threshold=6.5000000000000009 3.5000000000000004 1.0000000180025095e-35 1.0000000180025095e-35 1.0000000180025095e-35 1.0000000180025095e-35 2018.5000000000002 2.5000000000000004 2.5000000000000004 2020.5000000000002 2019.5000000000002 2021.5000000000002 1.5000000000000002 1.5000000000000002 2022.5000000000002 2017.5000000000002 2.5000000000000004
decision_type=2 2 2 2 2 2 2 2 2 2 2 2 2 2 2 2 2
left_child=1 3 9 8 -5 6 -2 -7 14 13 16 -12 -11 -3 -1 -10 -8
right_child=5 2 -4 4 -6 7 10 -9 15 12 11 -13 -14 -15 -16 -17 -18
leaf_value=-3.8609777493754032 -3.5498269902090294 -3.8339204434397152 -3.6601840938257491 -3.8371252321181388 -3.5796834390918071 -3.3458972014216299 -3.796560525159058 -3.6577441864044902 -3.8465643930703366 -3.831868832339183 -3.6431991666537855 -3.7639222380192914 -3.877698842493976 -3.7882803859230068 -3.8443525710992281 -3.8925515381285773 -3.8339204434397152
leaf_weight=216.59977384284139 7.7616127934306887 6.8427925873547819 4.5941010303795329 5.2711264453828317 2.780640097334981 1.8859993703663338 1.7409224957227736 3.43348603323102 4.7149984259158364 5.9723313394933966 8.4869971666485089 9.3090994562953693 10.808227160945533 11.872124241665004 37.574910532683134 43.95829301699996 2.1519736405462027
leaf_count=8958 321 283 190 218 115 78 72 142 195 247 351 385 447 491 1554 1818 89
internal_value=-3.83392 -3.8543 -3.80846 -3.86042 -3.74125 -3.63172 -3.66488 -3.49625 -3.86395 -3.83193 -3.71564 -3.69874 -3.85903 -3.80499 -3.85875 -3.88936 -3.81255
internal_weight=385.759 350.989 40.0896 310.9 8.05177 34.7701 29.4506 5.31949 302.848 35.4955 21.689 17.7961 16.7806 18.7149 254.175 48.6733 3.8929
internal_count=15954 14516 1658 12858 333 1438 1218 220 12525 1468 897 736 694 774 10512 2013 161
is_linear=0
shrinkage=1


Tree=8
num_leaves=26
num_cat=0
split_feature=7 0 6 8 6 6 21 0 0 3 5 0 5 6 7 7 7 7 5 3 5 5 0 6 6
split_gain=11.8139 15.6461 9.41656 8.71656 6.60312 4.12198 3.82843 4.506 3.72975 2.94002 2.31202 2.25054 1.75726 1.7516 1.69597 0.834288 0.506714 0.494684 0.365373 0.229094 0.663664 0.339241 0.0313843 0.0204554 0.000207078
threshold=4.5000000000000009 2019.5000000000002 7.5000000000000009 1.0000000180025095e-35 6.5000000000000009 8.5000000000000018 1.0000000180025095e-35 2020.5000000000002 2017.5000000000002 1.0000000180025095e-35 1.5000000000000002 2018.5000000000002 1.5000000000000002 8.5000000000000018 1.0000000180025095e-35 1.0000000180025095e-35 1.5000000000000002 6.5000000000000009 4.5000000000000009 1.0000000180025095e-35 1.5000000000000002 2.5000000000000004 2022.5000000000002 8.5000000000000018 5.5000000000000009
decision_type=2 2 2 2 2 2 2 2 2 2 2 2 2 2 2 2 2 2 2 2 2 2 2 2 2
left_child=5 2 3 24 -5 11 9 8 -8 15 13 19 -11 17 -13 -7 -16 -3 -12 20 -1 -21 -20 -4 -2
right_child=1 10 23 4 -6 6 7 -9 -10 12 18 14 -14 -15 16 -17 -18 -19 22 21 -22 -23 -24 -25 -26
leaf_value=0.048482148324369784 0 0 0 0.10936622892971626 0.48662395145003945 0.056288680855266074 0 -0.015668711293110409 0.26086951677015313 -0.047258466237869751 -0.061576586546436662 -0.078618990147838977 0.023665417084453983 -0.011339200650187082 0.012002583127950469 0 -0.030841778455759531 0.15645863402737525 -0.009260148725235208 -0.02852908191448579 -0.0096995570172850494 0.014226053809194521 0.012937741537216583 -0.011551183732884135 0.0012814854700830744
leaf_weight=2.2884493852034229 0.48990254336968042 0.76035616779699944 0.6877792873419819 1.8641260475851578 1.2142611984163523 6.2492400109767949 0.39383666450157706 0.87386843655258406 1.036583488807082 12.282414149492977 3.8120692856609821 14.515961145283656 2.9601484006270775 0.78369950735941518 2.3948183599859467 2.5724041205830872 4.8568709590472281 0.56449274066835642 0.74404934560880043 4.6330753387883306 2.0357951326295733 0.37370724882930506 0.38734144112095237 0.78786433534696698 0.52835403755307198
leaf_count=525 99 173 156 377 144 1348 87 208 223 2810 918 3550 673 180 536 570 1133 108 169 1069 463 86 86 181 82
internal_value=0 0.0836197 0.196689 0.263586 0.33239 -0.0184055 0.0083694 0.113338 0.196004 -0.00244837 -0.00853225 -0.0423993 -0.0298807 0.0571484 -0.0591749 0.0383682 -0.0104794 0.113178 -0.0490685 0 0.013336 -0.0151045 0 0 0
internal_weight=70.0915 12.6243 5.57229 4.09664 3.07839 57.4672 26.3685 2.30429 1.43042 24.0642 7.05201 31.0987 15.2426 2.10855 21.7677 8.82164 7.25169 1.32485 4.94346 9.33103 4.32424 5.00678 1.13139 1.47564 1.01826
internal_count=15954 2673 1039 702 521 13281 5919 518 310 5401 1634 7362 3483 461 5219 1918 1669 281 1173 2143 988 1155 255 337 181
is_linear=0
shrinkage=0.0976639


Tree=9
num_leaves=17
num_cat=0
split_feature=17 0 0 16 6 5 5 6 0 19 6 6 5 0 6 4
split_gain=495.305 339.403 306.868 150.835 81.8108 61.1897 54.1917 120.089 4.47628 3.74422 3.66691 2.62089 1.06301 0.448405 0.484416 0.133765
threshold=1.0000000180025095e-35 2021.5000000000002 2022.5000000000002 1.0000000180025095e-35 8.5000000000000018 1.5000000000000002 4.5000000000000009 8.5000000000000018 2021.5000000000002 1.0000000180025095e-35 4.5000000000000009 6.5000000000000009 4.5000000000000009 2020.5000000000002 5.5000000000000009 1.0000000180025095e-35
decision_type=2 2 2 2 2 2 2 2 2 2 2 2 2 2 2 2
left_child=3 12 5 6 -5 -3 8 15 9 -1 -10 -4 13 14 -2 -8
right_child=1 2 11 4 -6 -7 7 -9 10 -11 -12 -13 -14 -15 -16 -17
leaf_value=-0.064864960366185581 0.017443976201225432 1.5240654468424384 0.15257004673909 -0.054223087813886323 0.3905160373384079 0.72731589567904342 -0.0054276836500979763 0.66433614557683474 0.0028935804034440943 0.034848585589743811 -0.044468822808661351 0 -0.056466317033448503 0.043426700966069466 -0.031854073589114115 -0.062751817021230449
leaf_weight=206.47952390648425 2.2050420306623 2.5422135330736619 2.2091338690370312 5.3802546672523031 11.321219341829419 6.1577301919460297 3.0426248926669341 2.5798728670924902 16.708312490954995 2.5945500750094643 81.66035146638751 2.7845025286078453 2.8965721596032381 1.630486851558089 3.0718333031982183 3.7890178114175797
leaf_count=9898 104 90 91 192 214 177 130 71 670 122 3572 103 136 73 143 168
internal_value=-0.00104774 0.425734 0.728109 -0.0320626 0.247785 1.05844 -0.0474681 0.174528 -0.0547956 -0.0632778 -0.0359474 0.0862072 -0.0114479 0.00408739 -0.0030932 -0.0467567
internal_weight=357.053 23.4975 13.6936 333.556 16.7015 8.69994 316.854 9.41152 307.443 209.074 98.3687 4.99364 9.80393 6.90736 5.27688 6.83164
internal_count=15954 917 461 15037 406 267 14631 369 14262 10020 4242 194 456 320 247 298
is_linear=0
shrinkage=0.0976639


Tree=10
num_leaves=17
num_cat=0
split_feature=5 17 7 23 22 11 7 7 13 10 15 5 4 5 7 5
split_gain=20.0598 11.6073 11.4943 4.0027 3.91739 3.12847 3.16862 2.34229 2.15735 2.0644 1.85421 1.62966 1.48155 1.34116 0.799828 0.00960287
threshold=2.5000000000000004 1.0000000180025095e-35 1.0000000180025095e-35 1.0000000180025095e-35 1.0000000180025095e-35 1.0000000180025095e-35 1.0000000180025095e-35 1.0000000180025095e-35 1.0000000180025095e-35 1.0000000180025095e-35 1.0000000180025095e-35 3.5000000000000004 1.0000000180025095e-35 5.5000000000000009 2.5000000000000004 7.5000000000000009
decision_type=2 2 2 2 2 2 2 2 2 2 2 2 2 2 2 2
left_child=4 3 -3 8 5 6 9 -6 12 -1 -8 -5 -2 -4 -9 -15
right_child=1 2 13 11 7 -7 10 14 -10 -11 -12 -13 -14 15 -16 -17
leaf_value=-0.021287377021046678 0.028998368948548212 0.28635039175496313 0.083670310169935883 0.024021120259609723 0.10453858630823439 -0.043504851941497516 0.0034564935298456059 -0.04232526239754146 -0.044208856801379613 0.014674285035647912 0.085932995145544117 0.16586463326930687 -0.0077756211375963327 0.006493553123850135 0.036584635520571215 0
leaf_weight=149.42144311219454 46.478013209998608 2.74530897848308 7.9383997712284309 2.909422578290104 3.4439562913030377 33.215013694018126 54.388318683952093 1.7665230054408314 4.1561743803322306 14.759162200614808 2.1935582552105179 2.0588024780154228 10.543227499350904 1.4978297520428896 1.7584668975323436 1.5817007832229137
leaf_count=7137 2124 116 324 126 160 1589 2510 80 199 701 101 90 475 69 80 73
internal_value=0 0.0425881 0.122956 0.0240346 -0.0131409 -0.0153341 -0.0107471 0.0544552 0.0156046 -0.0177003 0.00851384 0.104583 0.0213088 0.06374 0 0
internal_weight=340.855 79.9089 13.7632 66.1456 260.946 253.977 220.762 6.96895 61.1774 164.181 56.5819 4.96823 57.0212 11.0179 3.52499 3.07953
internal_count=15954 3596 582 3014 12358 12038 10449 320 2798 7838 2611 216 2599 466 160 142
is_linear=0
shrinkage=0.0976639


Tree=11
num_leaves=24
num_cat=0
split_feature=3 9 5 7 2 0 11 5 0 12 5 5 9 0 5 5 0 5 13 5 5 9 5
split_gain=3.80184 6.03756 15.2996 9.52998 3.99564 4.34966 3.72189 3.65757 3.48002 4.38202 2.61703 2.07391 1.66175 3.05478 1.59312 1.3331 1.2976 1.23948 0.414011 0.637997 0.563129 0.25588 0.124796
threshold=1.0000000180025095e-35 1.0000000180025095e-35 1.5000000000000002 1.0000000180025095e-35 1.0000000180025095e-35 2017.5000000000002 1.0000000180025095e-35 1.0000000180025095e-35 2017.5000000000002 1.0000000180025095e-35 3.5000000000000004 1.0000000180025095e-35 1.0000000180025095e-35 2022.5000000000002 1.0000000180025095e-35 1.5000000000000002 2019.5000000000002 3.5000000000000004 1.0000000180025095e-35 2.5000000000000004 1.0000000180025095e-35 1.0000000180025095e-35 1.5000000000000002
decision_type=2 2 2 2 2 2 2 2 2 2 2 2 2 2 2 2 2 2 2 2 2 2 2
left_child=1 4 3 -3 5 10 -7 -6 9 11 -1 21 18 15 -11 -14 -9 -4 19 -10 -20 -2 -13
right_child=8 2 17 -5 7 6 -8 16 12 14 -12 22 13 -15 -16 -17 -18 -19 20 -21 -22 -23 -24
leaf_value=-0.026674296541637416 0.011448885743255083 0.16227403881829575 -0.025499865525296563 0.0053215972757806708 -0.065322109605249534 0.010648791212326515 -0.015636003907382658 0.034155928855898403 -0.015136007309130235 0.016709481254610092 0.03397817491927059 -0.0047180825925229493 0.0030687957758344193 -0.040370145350362978 0.10518911593312921 0.039907229851808439 -0.023623168643453533 0.019383065957421144 0.013633178026644434 0.0016844433877296358 -0.022900899653445963 0.039642286295508526 -0.023178881734803772
leaf_weight=56.809556409716606 29.799522809684277 10.904332593083383 15.841743342578413 6.4983946532011023 14.790106222033502 434.35456517338753 56.239637665450573 6.4043571203947049 294.08289938420057 5.7471505999565107 6.4177056699991217 16.384486608207229 63.54901734739542 13.024149373173712 5.3429528772830963 11.313646778464316 6.7388921007514 7.3545203059911719 11.51849138736725 17.285413660109043 5.2461747750639907 6.1129388809204093 15.281221009790896
leaf_count=808 425 150 227 92 209 6151 810 90 4239 82 91 234 917 189 77 164 96 105 166 250 76 87 219
internal_value=0 0.00506928 0.0412435 0.108855 0.00241291 0.00432747 0.00751509 -0.0329812 -0.00639408 0.0120817 -0.019431 0.0017134 -0.0100234 0.00138306 0.0672324 0.00961374 0.00115509 -0.00900013 -0.0132292 -0.0140381 0 0.0182758 -0.015492
internal_weight=1117.04 622.354 40.599 17.4027 581.755 553.821 490.594 27.9334 494.688 78.6683 63.2273 67.5782 416.02 87.8868 11.0901 74.8627 13.1432 23.1963 328.133 311.368 16.7647 35.9125 31.6657
internal_count=15954 8829 574 242 8255 7860 6961 395 7125 1124 899 965 6001 1270 159 1081 186 332 4731 4489 242 512 453
is_linear=0
shrinkage=0.0976639


Tree=12
num_leaves=22
num_cat=0
split_feature=6 6 17 1 11 0 8 0 12 6 13 6 20 8 0 0 1 0 0 0 1
split_gain=64.3786 20.8826 18.016 16.6105 11.7611 10.8474 10.0114 8.56977 8.19252 6.79001 5.33396 4.93227 4.68062 3.98722 3.29714 4.44336 2.4722 2.46542 1.6448 0.862124 0.226088
threshold=3.5000000000000004 8.5000000000000018 1.0000000180025095e-35 1.0000000180025095e-35 1.0000000180025095e-35 2022.5000000000002 1.0000000180025095e-35 2017.5000000000002 1.0000000180025095e-35 2.5000000000000004 1.0000000180025095e-35 5.5000000000000009 1.0000000180025095e-35 1.0000000180025095e-35 2022.5000000000002 2020.5000000000002 1.0000000180025095e-35 2020.5000000000002 2020.5000000000002 2018.5000000000002 1.0000000180025095e-35
decision_type=2 2 2 2 2 2 2 2 2 2 2 2 2 2 2 2 2 2 2 2 2
left_child=3 2 4 5 10 9 12 20 -9 19 -2 -6 16 -5 15 -4 -3 -11 -15 -1 -8
right_child=1 6 14 13 11 -7 7 8 -10 17 -12 -13 -14 18 -16 -17 -18 -19 -20 -21 -22
leaf_value=0.010496980683766945 0.0066358678863329273 -0.017506350696399373 -0.017510670587824212 0.014805945142253701 0.012604117882067969 0.068422770883686174 0.014534120445047677 -0.015125714391047752 0.010587263049598575 -0.020876469082936066 0.030262992751963078 -0.025542130025934931 0.017118124301742782 0.073388034301311564 0 -0.057971917188974161 -0.037398061088635484 0.0093261757007741565 0.04916316403966884 0.034242974380713387 0.0011791280210559812
leaf_weight=28.726301431655884 1415.7699827253819 103.1048388928175 57.71552811563015 22.056427896022797 38.684755712747574 34.256773352622986 128.23836116492748 920.63518127799034 132.71009102463722 61.082232549786568 98.526468709111214 150.9725240021944 18.763327643275261 90.373399451375008 25.976372614502907 56.230306446552277 206.37741838395596 41.017511621117592 77.345189213752747 65.855515047907829 22.856343820691109
leaf_count=118 5924 438 246 90 161 142 539 3900 557 253 408 641 80 368 111 239 885 170 316 271 97
internal_value=2.59306e-05 -0.00445181 0.00252767 0.0360333 0.00532365 0.0180381 -0.0128789 -0.00868783 -0.0118334 0.00880167 0.0082194 -0.0174779 -0.0280536 0.0575242 -0.0310231 -0.0381435 -0.030987 -0.00826802 0.0627592 0.0276884 0.0128621
internal_weight=3797.27 3376.56 1843.88 420.713 1703.95 230.938 1532.69 1204.44 1053.35 196.682 1514.3 189.657 328.246 189.775 139.922 113.946 309.482 102.1 167.719 94.5818 151.095
internal_count=15954 14226 7730 1728 7134 954 6496 5093 4457 812 6332 802 1403 774 596 485 1323 423 684 389 636
is_linear=0
shrinkage=0.0976639


Tree=13
num_leaves=20
num_cat=0
split_feature=7 17 0 0 16 5 0 16 5 7 7 0 5 1 7 0 0 0 0
split_gain=29.6671 11.8341 9.53638 7.76492 7.35709 8.2531 3.86571 5.00094 4.61173 11.3549 10.4076 3.04576 2.20081 1.79396 1.22836 0.98467 0.877768 0.331097 0.238372
threshold=6.5000000000000009 1.0000000180025095e-35 2022.5000000000002 2019.5000000000002 1.0000000180025095e-35 3.5000000000000004 2020.5000000000002 1.0000000180025095e-35 2.5000000000000004 5.5000000000000009 1.0000000180025095e-35 2021.5000000000002 1.0000000180025095e-35 1.0000000180025095e-35 2.5000000000000004 2018.5000000000002 2017.5000000000002 2022.5000000000002 2018.5000000000002
decision_type=2 2 2 2 2 2 2 2 2 2 2 2 2 2 2 2 2 2 2
left_child=1 6 3 18 5 13 8 12 10 -10 -1 15 -8 16 -5 -7 -2 -13 -3
right_child=4 2 -4 14 -6 11 7 -9 9 -11 -12 17 -14 -15 -16 -17 -18 -19 -20
leaf_value=0.008384278991401416 0.00082252032076513481 0.0037327178867089146 0.020687074956143962 -0.058667589811579775 -0.064559966860064197 -0.03494250185946908 0.0048663296149780658 -0.038628613275256504 0.0089808554206261253 0.058108494087712619 -0.011336628483810313 -0.031617210135454349 -0.0025495499774194456 0.0094535018249478318 -0.027981693556355134 -0.071547512404632529 -0.016891891859298187 -0.0080555910897651389 -0.0099064845390959277
leaf_weight=1342.6220902502537 25.366426050662994 28.951299905776978 37.48168620467186 64.31130363047123 43.659453839063644 19.880701720714569 740.90679007768631 30.247160896658897 270.75455325841904 54.259492307901382 312.66980828344822 19.145849972963333 777.74493546783924 33.086570158600807 27.377046033740044 36.811680510640144 163.8796189725399 19.360211953520775 18.456270188093185
leaf_count=5247 100 113 147 256 177 79 2903 119 1060 212 1227 76 3051 131 109 146 652 77 72
internal_value=3.43367e-05 0.00265268 -0.0219297 -0.0338206 -0.0266444 -0.021146 0.00390093 0.000211873 0.00675968 0.0174415 0.00462546 -0.0452727 0.00103563 -0.0104824 -0.0503252 -0.0601564 -0.014256 -0.0214073 -0.000587288
internal_weight=4066.97 3705.78 176.578 139.096 361.191 317.531 3529.2 1548.9 1980.31 325.014 1655.29 95.1984 1518.65 222.333 91.6883 56.6924 189.246 38.5061 47.4076
internal_count=15954 14516 697 550 1438 1261 13819 6073 7746 1272 6474 378 5954 883 365 225 752 153 185
is_linear=0
shrinkage=0.0976639


Tree=14
num_leaves=22
num_cat=0
split_feature=6 11 0 0 18 14 6 6 17 4 0 11 1 6 0 10 0 6 0 6 6
split_gain=104.086 59.9991 18.5114 9.12056 9.05674 8.47826 5.54671 4.49251 4.09484 3.79511 4.55957 3.20653 3.42795 2.03136 1.78224 1.53749 1.27232 1.1797 0.787233 0.448848 0.259551
threshold=4.5000000000000009 1.0000000180025095e-35 2017.5000000000002 2017.5000000000002 1.0000000180025095e-35 1.0000000180025095e-35 3.5000000000000004 5.5000000000000009 1.0000000180025095e-35 1.0000000180025095e-35 2017.5000000000002 1.0000000180025095e-35 1.0000000180025095e-35 8.5000000000000018 2020.5000000000002 1.0000000180025095e-35 2021.5000000000002 5.5000000000000009 2019.5000000000002 8.5000000000000018 8.5000000000000018
decision_type=2 2 2 2 2 2 2 2 2 2 2 2 2 2 2 2 2 2 2 2 2
left_child=6 2 15 20 5 -4 8 -5 9 10 -1 12 18 -9 -11 17 -10 -2 -8 -17 -3
right_child=1 3 4 7 -6 -7 11 13 16 14 -12 -13 -14 -15 -16 19 -18 -19 -20 -21 -22
leaf_value=-0.018951461482136622 0 -0.0024761990848508565 0.0029120384268205468 0 0.043281476978245172 0.031936976001410378 -0.028206244846955348 0.042775240427139059 0.0032446451102642691 -0.039263779696662546 -0.060158303687655713 0.014219199655404495 -0.050340635322539302 0.062771539791848574 1.0306263555970545e-07 -0.010213658841756431 -0.033059112791390635 -0.023218192547601685 -0.0083505429168347616 0.011010466264960606 0.011526631307426283
leaf_weight=33.721081838011742 19.804436281323433 23.694406747817993 1968.5694082528353 14.796856135129927 58.367677301168442 100.83114252984524 41.810674071311951 112.59273448586464 17.462526395916939 20.25524178147316 241.51648144423962 15.866119772195814 51.351565405726433 165.9725903570652 18.015737146139145 19.849065721035004 14.662271082401274 276.97426722943783 54.531697049736977 16.979900225996971 19.270927920937538
leaf_count=168 96 115 9434 71 279 482 204 538 86 101 1212 78 254 785 89 97 72 1351 267 82 93
internal_value=0 0.00740562 0.00209193 0.0460609 0.00546555 0.00436071 -0.0405729 0.0522147 -0.0477676 -0.0512253 -0.0553522 -0.024927 -0.0295195 0.0549937 -0.019799 -0.0192412 -0.0121184 -0.0215723 -0.0176262 0 0.00272378
internal_weight=3306.9 2797.7 2461.38 336.328 2127.77 2069.4 509.193 293.362 345.633 313.509 275.238 163.56 147.694 278.565 38.271 333.608 32.1248 296.779 96.3424 36.829 42.9653
internal_count=15954 13423 11821 1602 10195 9916 2531 1394 1728 1570 1380 803 725 1323 190 1626 158 1447 471 179 208
is_linear=0
shrinkage=0.0976639


Tree=15
num_leaves=19
num_cat=0
split_feature=17 4 0 6 5 5 6 6 2 6 6 0 6 5 5 6 18 5
split_gain=23.4856 12.3623 9.36926 7.08355 9.09295 18.3736 5.47391 7.84315 6.59672 5.30167 5.24036 3.07175 2.87481 2.60939 2.00137 1.61423 0.950003 0.255138
threshold=1.0000000180025095e-35 1.0000000180025095e-35 2020.5000000000002 7.5000000000000009 1.5000000000000002 2.5000000000000004 7.5000000000000009 5.5000000000000009 1.0000000180025095e-35 6.5000000000000009 5.5000000000000009 2021.5000000000002 5.5000000000000009 2.5000000000000004 3.5000000000000004 4.5000000000000009 1.0000000180025095e-35 3.5000000000000004
decision_type=2 2 2 2 2 2 2 2 2 2 2 2 2 2 2 2 2 2
left_child=1 6 10 4 -2 -6 7 13 16 -9 14 -5 -7 -1 -3 -4 -8 -17
right_child=3 2 15 11 5 12 8 9 -10 -11 -12 -13 -14 -15 -16 17 -18 -19
leaf_value=-0.0046315971768921011 0 -0.015884924108927116 -0.05602544051749192 0.073679144518741857 0.35059585890258299 0.019339552639331143 -0.021765416059904577 0.063201426174174916 0.087934933578409577 0.0050557148598206385 0.19686122264082845 -0.044101993068914984 0.13495967084585789 -0.048202033570362728 0.091716237985211307 0 -0.067969152480049325 0.042204328051149514
leaf_weight=46.694303475320339 3.8004772644490066 2.225637152791025 2.8333835843950492 3.0113772805780163 3.1300268005579701 5.8010196499526483 200.64181865751743 25.321580223739147 4.3814661949872962 40.629660816863179 5.1929384078830481 4.1087269112467766 4.6297345217317343 19.599682323634624 2.0981951169669628 3.1939698588103056 4.9970181453973046 3.1545427683740854
leaf_count=1932 142 92 123 115 98 223 8440 1032 165 1678 200 165 174 823 86 131 213 122
internal_value=0 -0.00628944 0.0692853 0.0913035 0.123987 0.159905 -0.0106942 0.00454759 -0.0205161 0.0285551 0.13377 0.0012732 0.0803024 -0.0186258 0.031517 0 -0.0233524 0.0249921
internal_weight=385.446 360.964 18.6987 24.4814 17.3613 13.5608 342.266 132.245 210.02 65.9512 9.51677 7.1201 10.4308 66.294 4.32383 9.1819 205.639 6.34851
internal_count=15954 15037 754 917 637 495 14283 5465 8818 2710 378 280 397 2755 178 376 8653 253
is_linear=0
shrinkage=0.0976639


Tree=16
num_leaves=14
num_cat=0
split_feature=7 6 6 6 12 9 20 7 2 7 6 7 7
split_gain=9.79494 7.20828 7.75641 3.67241 2.42252 3.04668 1.43724 1.93651 1.26919 0.76466 0.592214 0.510019 0.19877
threshold=4.5000000000000009 7.5000000000000009 6.5000000000000009 8.5000000000000018 1.0000000180025095e-35 1.0000000180025095e-35 1.0000000180025095e-35 1.0000000180025095e-35 1.0000000180025095e-35 1.0000000180025095e-35 8.5000000000000018 6.5000000000000009 3.5000000000000004
decision_type=2 2 2 2 2 2 2 2 2 2 2 2 2
left_child=3 2 11 6 5 9 7 -1 -8 -5 -3 -2 -9
right_child=1 10 -4 4 -6 -7 8 12 -10 -11 -12 -13 -14
leaf_value=-0.064940395961541095 0 0.00041818678293395212 0.22672664149890712 0.046940316705888795 -0.05908723666916945 -0.043894135079017862 -0.0063594007827392331 0 0.11148326610694033 0 -0.050759705448328439 0.060198825557782512 -0.031490963308599074
leaf_weight=18.618884776718922 3.2127312438096833 1.6745995748788107 3.4063970742281526 16.301137550501164 3.3909968223888418 4.24934850889258 1.9220635192468756 7.5718463766388577 0.35205452935770143 2.6127155893482259 2.4255505476612598 2.7187792249023914 1.3251076061278579
leaf_count=4757 698 391 447 3558 776 1011 457 1752 83 574 577 560 313
internal_value=0.000239102 0.0737732 0.119602 -0.0170748 0.00772211 0.0210244 -0.040524 -0.0472666 0.0160164 0.0392066 -0.0221329 0.0335414 -0.00301403
internal_weight=69.7822 13.4381 9.33791 56.3442 26.5542 23.1632 29.79 27.5158 2.27412 18.9139 4.10015 5.93151 8.89695
internal_count=15954 2673 1705 13281 5919 5143 7362 6822 540 4132 968 1258 2065
is_linear=0
shrinkage=0.0976639


Tree=17
num_leaves=18
num_cat=0
split_feature=0 16 1 8 0 16 9 0 4 6 6 0 6 11 6 0 0
split_gain=83.363 85.7955 58.4207 40.3503 49.039 18.2853 19.1315 11.1335 10.2072 34.5681 4.57811 1.53891 1.30687 0.623319 0.451128 0.170811 0.0371879
threshold=2021.5000000000002 1.0000000180025095e-35 1.0000000180025095e-35 1.0000000180025095e-35 2022.5000000000002 1.0000000180025095e-35 1.0000000180025095e-35 2018.5000000000002 1.0000000180025095e-35 8.5000000000000018 4.5000000000000009 2022.5000000000002 8.5000000000000018 1.0000000180025095e-35 2.5000000000000004 2018.5000000000002 2020.5000000000002
decision_type=2 2 2 2 2 2 2 2 2 2 2 2 2 2 2 2 2
left_child=1 8 3 4 -2 6 -5 -3 16 15 11 -4 -6 -12 -13 -10 -1
right_child=2 7 10 5 12 -7 -8 -9 9 -11 13 14 -14 -15 -16 -17 -18
leaf_value=-0.063171117272319943 0.27061097234199127 0.050039750719492702 -0.037475406932280866 0.014010361072155529 0.030577505876328886 0.24116223801255635 0.15789542149270114 0.24316262623009735 -0.009831553552781376 0.33615510696624429 -0.078737892459379691 0 -0.038501180919977507 -0.0081508704979780747 0.056774217000048054 -0.069006278823225325 -0.046775506132784729
leaf_weight=159.78187935054302 20.892412299290299 5.5735647268593302 3.459043459966777 55.789717903360724 6.0137473959475773 4.0450445543974629 10.095388345420359 9.5451612137258035 3.2746611293405277 2.1073252763599148 21.715756401419643 2.1855343095958233 3.5162122994661331 3.1830364614725104 3.4468054044991732 5.4025628287345171 40.867484256625175
leaf_count=8147 422 98 133 2297 245 74 436 174 166 73 882 85 124 148 140 271 2039
internal_value=-0.00250456 -0.0387488 0.0581297 0.0956299 0.189067 0.0528454 0.0381956 0.180354 -0.0551785 0.0327713 -0.05083 0.00331719 0 -0.0721494 0.0377363 -0.0544151 -0.0602514
internal_weight=360.895 226.553 134.343 100.353 30.4224 69.9302 65.8851 15.1187 211.434 10.7845 33.9902 9.09138 9.52996 24.8988 5.63234 8.67722 200.649
internal_count=15954 10968 4986 3598 791 2807 2733 272 10696 510 1388 358 369 1030 225 437 10186
is_linear=0
shrinkage=0.0976639


Tree=18
num_leaves=20
num_cat=0
split_feature=6 5 8 0 0 8 5 13 0 0 5 0 12 6 1 14 12 5 1
split_gain=32.9408 9.2614 7.53678 14.5396 31.3168 6.31874 3.26917 2.46034 2.24478 2.00727 2.00278 1.77244 3.14156 1.53943 1.41633 1.05165 0.899755 0.714394 0.465748
threshold=5.5000000000000009 2.5000000000000004 1.0000000180025095e-35 2020.5000000000002 2021.5000000000002 1.0000000180025095e-35 4.5000000000000009 1.0000000180025095e-35 2020.5000000000002 2021.5000000000002 2.5000000000000004 2017.5000000000002 1.0000000180025095e-35 8.5000000000000018 1.0000000180025095e-35 1.0000000180025095e-35 1.0000000180025095e-35 6.5000000000000009 1.0000000180025095e-35
decision_type=2 2 2 2 2 2 2 2 2 2 2 2 2 2 2 2 2 2 2
left_child=5 11 3 -3 -5 8 7 10 -1 13 -7 16 15 -4 -14 -13 18 -8 -2
right_child=1 2 9 4 -6 6 17 -9 -10 -11 -12 12 14 -15 -16 -17 -18 -19 -20
leaf_value=0.05323250179287152 0.011610149575184196 -0.037471173264246128 0.025402380999242462 0.39050791484221004 0.035309532518358756 0.034543222807655212 -0.056955129499823377 -0.027921831562403791 0.14866718261933431 -0.046559911097590438 0.080136739143053484 -0.036439661584798715 -0.010875042043850085 -0.026263333043197955 0.040535627234585377 0 -0.042728550374913458 0 -0.016188692339044491
leaf_weight=7.722309352830055 20.195224501192577 7.4143237378448275 14.139529032632714 2.6125427801161996 10.539341595023869 38.689691917970777 2.9426816776394835 2.829902082681655 8.4656698424369079 9.2257188595831376 17.451799016445875 148.18387671932578 17.433106996119026 7.5383715126663438 6.2727727405726901 6.4289390482008448 3.9953598883002988 1.738830894231796 6.38103487715125
leaf_count=326 985 328 630 108 442 1703 130 142 360 412 725 7275 858 346 288 318 192 78 308
internal_value=0 -0.0166997 0.0196648 0.064802 0.12514 0.0547557 0.0388867 0.0455102 0.110097 -0.00951086 0.0503914 -0.0259361 -0.0296835 0.00491757 0.00139427 -0.0347603 -0.00228671 -0.0303065 0.00283978
internal_weight=340.201 260.36 51.4698 20.5662 13.1519 79.8409 63.6529 58.9714 16.188 30.9036 56.1415 208.89 178.319 21.6779 23.7059 154.613 30.5716 4.68151 26.5763
internal_count=15954 12490 2266 878 550 3464 2778 2570 686 1388 2428 10224 8739 976 1146 7593 1485 208 1293
is_linear=0
shrinkage=0.0976639


Tree=19
num_leaves=24
num_cat=0
split_feature=6 6 7 11 23 10 6 1 0 7 6 14 7 7 0 12 0 7 0 7 0 0 0
split_gain=41.7288 9.17435 8.49116 5.89266 6.9125 5.84184 3.62552 3.5433 2.754 2.06787 2.51324 3.53408 1.90175 1.76229 1.29932 1.21084 1.18863 1.09905 2.45091 0.725928 0.899775 0.657647 0.546771
threshold=5.5000000000000009 7.5000000000000009 5.5000000000000009 1.0000000180025095e-35 1.0000000180025095e-35 1.0000000180025095e-35 3.5000000000000004 1.0000000180025095e-35 2020.5000000000002 6.5000000000000009 8.5000000000000018 1.0000000180025095e-35 1.0000000180025095e-35 3.5000000000000004 2017.5000000000002 1.0000000180025095e-35 2020.5000000000002 6.5000000000000009 2021.5000000000002 6.5000000000000009 2021.5000000000002 2020.5000000000002 2019.5000000000002
decision_type=2 2 2 2 2 2 2 2 2 2 2 2 2 2 2 2 2 2 2 2 2 2 2
left_child=2 5 3 4 7 13 -4 -1 -6 10 11 -3 -5 14 -2 -12 -15 18 -7 20 -8 -21 -14
right_child=1 9 6 12 8 17 19 -9 -10 -11 15 -13 22 16 -16 -17 -18 -19 -20 21 -22 -23 -24
leaf_value=0.040389373551290145 0.027702959253639591 -0.0075793701798463628 0.050160103519207355 -0.043336957731537555 0.019515697653629621 0.055895619086938124 -0.04135589840391031 0.071628291962367752 -0.060774800138645453 -0.038294015976241449 -0.020727908481305159 0.058978808321722705 0 -0.026772413832769654 0.0020983695383300269 -0.0038109899745021269 5.570270243765156e-05 0.092391637481632177 -0.012903287469283157 0.014000976978203412 0 -0.02132674062674679 0.036802820723580675
leaf_weight=96.881151787936687 23.161390908062458 169.73642698675394 9.7229240685701352 7.7856077328324345 8.2313300520181638 13.291341908276086 13.317923881113531 73.980476066470146 6.1821028068661681 40.119821421802044 367.57342332229018 7.180817984044551 4.73558062314987 29.777308404445648 121.57399135828018 54.209516935050488 25.069623470306396 5.7333183810114852 5.7064172700047484 11.461205624043943 7.4273492619395247 7.8867944329977027 5.5075492262840271
leaf_count=1306 325 2466 132 115 119 182 196 976 89 585 5361 100 69 429 1735 796 360 73 78 162 108 112 80
internal_value=9.47871e-06 -0.0101743 0.0348705 0.043703 0.0489133 0.00664353 -0.000273911 0.0544393 -0.0127391 -0.0161597 -0.0145505 -0.0043787 -0.00696448 0.000767554 0.00665388 -0.0186832 -0.0137449 0.0507886 0.0329194 -0.0143755 -0.026769 0 0.0170073
internal_weight=1116.25 863.133 253.12 203.304 185.275 224.313 49.8162 170.862 14.4134 638.82 598.7 176.917 18.0287 199.582 144.735 421.783 54.8469 24.7311 18.9978 40.0933 20.7453 19.348 10.2431
internal_count=15954 12490 3464 2754 2490 3182 710 2282 208 9308 8723 2566 264 2849 2060 6157 789 333 260 578 304 274 149
is_linear=0
shrinkage=0.0976639


Tree=20
num_leaves=25
num_cat=0
split_feature=6 7 11 6 7 8 7 7 6 6 13 7 23 8 7 8 8 7 7 7 6 8 4 7
split_gain=49.8278 18.6077 15.9775 10.9147 9.77474 6.07298 8.70752 6.85134 5.06229 4.74721 4.22355 2.70226 2.696 2.67875 3.23551 2.3416 1.68023 1.26981 0.934049 0.81722 0.633592 0.514172 1.52466 0.0508416
threshold=4.5000000000000009 3.5000000000000004 1.0000000180025095e-35 8.5000000000000018 5.5000000000000009 1.0000000180025095e-35 5.5000000000000009 1.0000000180025095e-35 2.5000000000000004 5.5000000000000009 1.0000000180025095e-35 1.0000000180025095e-35 1.0000000180025095e-35 1.0000000180025095e-35 2.5000000000000004 1.0000000180025095e-35 1.0000000180025095e-35 1.0000000180025095e-35 6.5000000000000009 1.0000000180025095e-35 1.5000000000000002 1.0000000180025095e-35 1.0000000180025095e-35 1.5000000000000002
decision_type=2 2 2 2 2 2 2 2 2 2 2 2 2 2 2 2 2 2 2 2 2 2 2 2
left_child=1 8 3 4 10 7 -7 -5 11 -4 -2 15 -6 19 -15 -1 17 -11 21 -10 -13 -3 -23 -18
right_child=2 18 9 5 12 6 -8 -9 13 16 -12 20 -14 14 -16 -17 23 -19 -20 -21 -22 22 -24 -25
leaf_value=0.021075348022691339 0.0060706823079871462 -0.011210549319492939 0.020436054575187958 -0.033708346294332843 -0.014160034498370579 -0.0027474675271301416 -0.035443789318517493 -2.8147076452434441e-05 0.016053220241923988 -0.04349664980243155 0.031732972102372956 0.054729841946585062 0.020909577744801136 0.024608801558626662 0.060780259595344069 0.066139237617196964 -0.020049297446516713 -0.0090184597998636176 -0.020243992782553687 -0.010665098733416905 0.028638208802783623 0.0095756898746975905 -0.017891193153409167 -0.029323213944514943
leaf_weight=17.574045434594154 1098.5918554663658 27.706488311290741 20.0318443775177 170.25600032508373 297.95425772666931 972.23651777207851 84.384972095489502 91.465120553970337 20.600669682025909 81.014599278569221 65.473350748419762 17.712474912405014 20.779864683747292 182.74749663472176 30.127956584095955 86.065098732709885 213.41096931695938 16.561696976423264 23.685819029808044 20.532412201166153 81.78170457482338 89.688849881291389 23.060508131980896 41.016680136322975
leaf_count=71 4598 115 83 736 1250 4125 362 395 85 355 268 70 87 747 123 343 915 72 99 85 329 368 96 177
internal_value=6.80642e-05 0.0253585 -0.00487197 -0.0023237 0.0033995 -0.00879771 -0.00542758 -0.0221615 0.0354815 -0.0238836 0.00757513 0.0473057 -0.0116756 0.0257262 0.0301413 0.0591694 -0.0265837 -0.0382627 -0.00255657 0.00154674 0.0341265 0.000149427 0.00343799 -0.0218167
internal_weight=3794.46 621.284 3173.18 2801.14 1482.8 1318.34 1056.62 261.721 457.142 372.036 1164.07 203.133 318.734 254.009 212.875 103.639 352.004 97.5763 164.142 41.1331 99.4942 140.456 112.749 254.428
internal_count=15954 2531 13423 11821 6203 5618 4487 1131 1853 1602 4866 813 1337 1040 870 414 1519 427 678 170 399 579 464 1092
is_linear=0
shrinkage=0.0976639


Tree=21
num_leaves=22
num_cat=0
split_feature=17 5 8 3 1 0 0 5 20 12 20 0 0 0 0 0 8 10 5 5 0
split_gain=9.37197 10.3649 9.22292 12.8614 8.65676 8.00977 9.95627 6.98755 4.29995 4.93987 4.17446 4.06624 3.72444 5.05633 2.95656 1.73883 1.38158 0.721518 0.649568 0.0560078 0.00632756
threshold=1.0000000180025095e-35 1.0000000180025095e-35 1.0000000180025095e-35 1.0000000180025095e-35 1.0000000180025095e-35 2022.5000000000002 2019.5000000000002 1.0000000180025095e-35 1.0000000180025095e-35 1.0000000180025095e-35 1.0000000180025095e-35 2017.5000000000002 2017.5000000000002 2018.5000000000002 2022.5000000000002 2021.5000000000002 1.0000000180025095e-35 1.0000000180025095e-35 4.5000000000000009 1.5000000000000002 2020.5000000000002
decision_type=2 2 2 2 2 2 2 2 2 2 2 2 2 2 2 2 2 2 2 2 2
left_child=2 -2 4 7 12 6 16 10 9 -5 -4 -9 -1 -14 17 -10 -3 -6 -7 -16 -8
right_child=1 5 3 8 14 18 20 11 15 -11 -12 -13 13 -15 19 -17 -18 -19 -20 -21 -22
leaf_value=0.029105077234452641 0.037847517192428071 -0.022353909283859781 -0.020700874756472917 0.008072011264898005 0.026703210741803936 0 -0.037640805182422195 0.014889154198667204 -0.021723848300592079 -0.0064965560554146743 0.012247253185446194 -0.0054569972527098963 -0.038256039743306117 0.00067285888882048686 -0.0027835629305399466 0.0049351208518121237 0.007001256003214034 0.0090514232901415994 0.022033700159995746 0.0038513443561458069 -0.059445344170192919
leaf_weight=35.759485214948654 25.694851815700531 24.477098137140274 424.6297293305397 1394.636974349618 287.21153239905834 24.662274241447449 19.815624594688416 104.26936423778534 79.333807498216629 259.58893525600433 37.705412670969963 812.33240629732609 35.390999302268028 251.75970973074436 32.663616195321083 28.691744416952133 35.001981526613235 34.721812576055527 19.640033692121506 17.926612913608551 79.21543163061142
leaf_count=139 103 96 1680 5444 1110 97 80 409 309 1016 148 3205 139 994 127 112 138 135 77 70 326
internal_value=6.90565e-05 -0.0191027 0.00122729 -0.00101166 0.0114043 -0.0266686 -0.0369602 -0.00808741 0.00449724 0.00575349 -0.0178904 -0.00307798 -0.000148539 -0.00402735 0.0215366 -0.0141901 -0.00435153 0.0249794 0.00902895 0 -0.0558749
internal_weight=4065.13 228.507 3836.62 3141.19 695.434 202.812 158.51 1378.94 1762.25 1654.23 462.335 916.602 322.91 287.151 372.524 108.026 59.4791 321.933 44.3023 50.5902 99.0311
internal_count=15954 917 15037 12323 2714 814 640 5442 6881 6460 1828 3614 1272 1133 1442 421 234 1245 174 197 406
is_linear=0
shrinkage=0.0976639


Tree=22
num_leaves=24
num_cat=0
split_feature=6 0 6 17 5 5 13 7 0 8 0 6 4 6 5 0 5 5 9 7 9 7 5
split_gain=85.1665 21.3845 12.447 9.53527 9.45079 8.27629 7.58047 6.84378 5.12915 4.11633 3.94079 6.34582 4.10704 3.31504 3.37345 2.61774 2.36183 1.56749 2.67016 2.51672 0.869804 0.993855 0.652496
threshold=4.5000000000000009 2017.5000000000002 7.5000000000000009 1.0000000180025095e-35 4.5000000000000009 4.5000000000000009 1.0000000180025095e-35 1.5000000000000002 2018.5000000000002 1.0000000180025095e-35 2018.5000000000002 2.5000000000000004 1.0000000180025095e-35 3.5000000000000004 6.5000000000000009 2019.5000000000002 1.5000000000000002 1.5000000000000002 1.0000000180025095e-35 3.5000000000000004 1.0000000180025095e-35 1.0000000180025095e-35 1.5000000000000002
decision_type=2 2 2 2 2 2 2 2 2 2 2 2 2 2 2 2 2 2 2 2 2 2 2
left_child=5 17 4 6 8 10 -4 -5 -3 -6 11 22 15 14 -7 -12 -13 18 19 -2 21 -19 -1
right_child=1 2 3 7 9 13 -8 -9 -10 -11 12 16 -14 -15 -16 -17 -18 20 -20 -21 -22 -23 -24
leaf_value=-0.068478348295253469 -0.011271591383949184 0.013528210260197009 0.017223434814594471 -0.063415702074170396 0 0.0072556470764285654 -0.017303280294424732 0.0039348543318801221 -0.007862989703182572 0.059393216498879763 -0.070285922903997974 -0.024828489285152276 -0.0066891992082025306 0.034942375736690165 -0.051971318124972389 -0.044937115596442624 0.0092573129080646827 0 -0.045491486124369006 -0.047338273377693592 0.012385553847671298 -0.019166662639426013 -0.031382577613356867
leaf_weight=24.325186148285866 198.0563763231039 130.51094697415829 1584.7594746053219 23.983627051115036 17.963331550359726 19.423348009586334 61.083916127681732 31.309171125292778 554.40854009985924 33.416941255331039 61.31481084227562 36.093888938426971 25.181095972657204 16.653504490852356 14.720365718007086 243.2323926538229 37.794665843248367 51.612985551357269 34.113931313157082 21.241494819521904 19.286990061402321 48.343247219920158 16.035841464996338
leaf_count=127 975 626 7500 116 86 97 292 149 2662 158 321 180 128 79 73 1255 188 253 169 105 95 237 83
internal_value=1.127e-05 0.00660757 0.0099518 0.014543 -0.000590479 -0.0373083 0.0159047 -0.0247852 -0.00370367 0.039446 -0.0415747 -0.0247452 -0.0471902 0 -0.0173349 -0.0503507 -0.00678736 -0.0151088 -0.0195266 -0.0151299 -0.00524048 -0.00920549 -0.0557332
internal_weight=3304.87 2810.09 2437.44 1701.14 736.3 494.775 1645.84 55.2928 684.919 51.3803 443.978 114.25 329.728 50.7972 34.1437 304.547 73.8886 372.655 253.412 219.298 119.243 99.9562 40.361
internal_count=15954 13423 11589 8057 3532 2531 7792 265 3288 244 2282 578 1704 249 170 1576 368 1834 1249 1080 585 490 210
is_linear=0
shrinkage=0.0976639


Tree=23
num_leaves=17
num_cat=0
split_feature=7 7 17 1 5 5 6 5 0 6 0 22 5 5 0 5
split_gain=110.545 8.51755 7.76055 7.48055 7.60196 9.57731 7.55931 4.70959 2.23278 2.00426 2.63761 1.67345 1.02943 0.850592 0.20513 0.133975
threshold=6.5000000000000009 3.5000000000000004 1.0000000180025095e-35 1.0000000180025095e-35 2.5000000000000004 5.5000000000000009 7.5000000000000009 2.5000000000000004 2020.5000000000002 7.5000000000000009 2022.5000000000002 1.0000000180025095e-35 1.5000000000000002 1.5000000000000002 2017.5000000000002 2.5000000000000004
decision_type=2 2 2 2 2 2 2 2 2 2 2 2 2 2 2 2
left_child=1 7 8 4 -2 6 -6 9 13 11 -11 -1 -10 -3 -9 -5
right_child=3 2 -4 15 5 -7 -8 14 12 10 -12 -13 -14 -15 -16 -17
leaf_value=-0.0018503322775470137 0.2107760221052988 0 0.1191990012369166 0 0.11765927416731664 0.25091225546537349 -0.0060276997504070499 -0.013002932402491322 0.0026960946061988923 -0.030179534053900347 0.0019830179056449099 -0.063477724831775509 -0.040970814372800007 0.04032442884411306 -0.056696431947333627 0.026294030855000702
leaf_weight=81.711948629468679 17.980149630457163 6.8804887291044023 5.9667462278157464 2.4183187820017329 10.774460379034286 3.3859972674399605 6.6464863438159218 4.7416893765330306 5.9256530907005098 143.24130956083536 25.674251560121775 3.9210201967507592 10.139227194711564 12.385337958112357 41.301834117621183 1.9705222826451061
leaf_count=3391 573 283 190 86 366 109 233 198 247 6184 1096 164 447 491 1825 71
internal_value=0 -0.018561 0.0221244 0.14613 0.15976 0.108082 0.0692024 -0.0243559 0.00239657 -0.0187519 -0.0250036 -0.00573351 -0.0223757 0.0256535 -0.0535345 0.0104295
internal_weight=385.065 341.89 41.2975 43.1759 38.7871 20.8069 17.4209 300.592 35.3307 254.549 168.916 85.633 16.0649 19.2658 46.0435 4.38884
internal_count=15954 14516 1658 1438 1281 708 599 12858 1468 10835 7280 3555 694 774 2023 157
is_linear=0
shrinkage=0.0976639


Tree=24
num_leaves=23
num_cat=0
split_feature=7 0 8 6 6 21 0 0 3 8 0 20 14 0 7 10 0 7 7 6 0 6
split_gain=7.96173 9.64419 4.72784 4.14311 3.15336 2.71216 3.26217 2.63534 2.34837 7.83187 2.22695 2.5075 1.96413 1.7621 1.6376 1.3303 0.571617 0.451068 0.373473 0.149319 0.102183 0.00850615
threshold=4.5000000000000009 2019.5000000000002 1.0000000180025095e-35 7.5000000000000009 8.5000000000000018 1.0000000180025095e-35 2020.5000000000002 2017.5000000000002 1.0000000180025095e-35 1.0000000180025095e-35 2018.5000000000002 1.0000000180025095e-35 1.0000000180025095e-35 2017.5000000000002 1.0000000180025095e-35 1.0000000180025095e-35 2022.5000000000002 1.5000000000000002 1.5000000000000002 6.5000000000000009 2020.5000000000002 6.5000000000000009
decision_type=2 2 2 2 2 2 2 2 2 2 2 2 2 2 2 2 2 2 2 2 2 2
left_child=4 2 21 -4 10 8 7 -7 9 -6 11 18 16 -13 -12 -10 20 -16 -1 -18 -3 -2
right_child=1 12 3 -5 5 6 -8 -9 15 -11 14 13 -14 -15 17 -17 19 -19 -20 -21 -22 -23
leaf_value=-0.029649243716582247 0 0 0.21246287128290697 0 -0.047503989590906959 0 -0.016873399378211862 0.19912839630550389 -0.038575622156934018 0.11645487326341603 -0.077544451860172073 0 0.10508977457281128 0.1851733302521312 0.011621994661661328 0.047976309710761694 -0.011818453443290956 -0.028973273455242938 0.0027588900256301269 0.02593878600749833 -0.059160875007360537 -0.0076482574821194029
leaf_weight=6.4818301256746054 0.75328367017209508 1.5007617040537296 4.5801959768868965 1.093849557219073 4.7073387536220253 0.41702871117740814 0.90080935321748246 1.4066996700130401 14.03878407506272 4.6720278356224334 12.592681570909919 0.34591240435838777 0.3864192881155758 0.43319963663816452 2.4067603498697272 0.83934147050604302 0.79311159439384926 4.6759168196003884 1.6123305265791712 1.1377794202417133 3.4011440719477832 0.712606490124017
leaf_count=1623 146 333 521 256 965 87 208 223 3294 953 3550 78 89 79 536 189 184 1133 363 255 773 116
internal_value=9.15705e-05 0.0639137 0.139735 0.176459 -0.0160785 0.0062683 0.0886579 0.15156 -0.00309997 0.0314577 -0.038591 0 -0.0101841 0.120688 -0.0564132 -0.0285646 -0.0323111 -0.00883214 -0.0176965 0 -0.0488186 0
internal_weight=69.8898 14.3592 7.13994 5.67405 55.5307 26.982 2.72454 1.82373 24.2575 9.37937 28.5486 8.87327 7.21922 0.779112 19.6754 14.8781 6.8328 7.08268 8.09416 1.93089 4.90191 1.46589
internal_count=15954 2673 1039 777 13281 5919 518 310 5401 1918 7362 2143 1634 157 5219 3483 1545 1669 1986 439 1106 262
is_linear=0
shrinkage=0.0976639


Tree=25
num_leaves=15
num_cat=0
split_feature=17 0 6 4 0 1 3 19 6 0 6 0 0 0
split_gain=218.466 62.9247 33.5407 110.986 19.8765 16.9816 72.3469 3.86892 3.29346 3.32785 1.72875 1.56451 0.439319 0.553589
threshold=1.0000000180025095e-35 2021.5000000000002 8.5000000000000018 1.0000000180025095e-35 2022.5000000000002 1.0000000180025095e-35 1.0000000180025095e-35 1.0000000180025095e-35 4.5000000000000009 2021.5000000000002 6.5000000000000009 2020.5000000000002 2020.5000000000002 2017.5000000000002
decision_type=2 2 2 2 2 2 2 2 2 2 2 2 2 2
left_child=2 12 7 5 -3 6 -4 8 9 -1 -6 -9 13 -2
right_child=1 4 3 -5 10 -7 -8 11 -10 -11 -12 -13 -14 -15
leaf_value=-0.056017962765089697 0.0058745423377002731 0.31081327562008521 0.15731592313200299 0.4167729332559364 0.1268975942427413 -0.067188113030452759 -0.037328922915999402 0.089609400517007332 -0.069326488982639115 0 0.00015072958957172914 -0.010716144648404877 0.016441277195772791 -0.038374489298434705
leaf_weight=28.131528772413731 1.5144069436937551 25.750294938683513 23.174529040232301 5.3130917139351359 2.5509065743535748 38.520711287856102 76.023453582078218 1.5824640765786164 126.21863934583962 18.421201856806874 2.7568926718086004 2.0259877722710371 2.2286004405468702 5.5897996705025434
leaf_count=1495 76 267 484 118 91 1882 3849 78 6332 715 103 84 98 282
internal_value=-0.00261345 0.209306 -0.0299545 0.00487139 0.274934 -0.0126067 0.00839143 -0.0583932 -0.0606072 -0.0352406 0.0769777 0.0286265 -0.0078351 -0.0227331
internal_weight=359.803 40.3909 319.412 143.032 31.0581 137.719 99.198 176.38 172.771 46.5527 5.3078 3.60845 9.33281 7.10421
internal_count=15954 917 15037 6333 461 6215 4333 8704 8542 2210 194 162 456 358
is_linear=0
shrinkage=0.0976639


Tree=26
num_leaves=22
num_cat=0
split_feature=6 5 17 0 0 13 22 11 21 0 18 6 6 6 5 5 6 6 0 6 0
split_gain=26.7744 7.88119 4.70102 7.387 16.1339 4.04083 3.68432 2.93115 1.78513 2.25203 1.6507 1.56983 1.34153 1.13522 6.82533 0.687128 0.523361 0.337416 0.279921 0.272822 0.105188
threshold=5.5000000000000009 2.5000000000000004 1.0000000180025095e-35 2021.5000000000002 2019.5000000000002 1.0000000180025095e-35 1.0000000180025095e-35 1.0000000180025095e-35 1.0000000180025095e-35 2020.5000000000002 1.0000000180025095e-35 7.5000000000000009 7.5000000000000009 7.5000000000000009 3.5000000000000004 3.5000000000000004 4.5000000000000009 3.5000000000000004 2022.5000000000002 8.5000000000000018 2020.5000000000002
decision_type=2 2 2 2 2 2 2 2 2 2 2 2 2 2 2 2 2 2 2 2 2
left_child=5 6 13 4 -4 7 10 8 9 -1 11 -2 -8 14 -3 -15 17 -9 -5 -12 -10
right_child=1 2 3 18 -6 -7 12 16 20 -11 19 -13 -14 15 -16 -17 -18 -19 -20 -21 -22
leaf_value=0.041680190080306156 -0.0099782190525965625 -0.0214471437374253 -0.015388465579895564 0.016239929480887046 0.30979358187511574 -0.03953550679453717 0 0 0.015714876481088557 0.084010971069942431 0.053882552361036437 -0.032788269671112646 0.093406272186971492 0 0.10620481307898709 -0.031501128250240276 -0.042670718239310693 0.03962094967516501 -0.022760218967656731 0 -0.0036089823234255894
leaf_weight=34.954075248911977 45.111369591206312 9.9016567524522525 2.1990527398884279 3.1657765358686447 2.2911663241684437 3.6882299128919831 1.4845985565334547 3.7967535052448502 3.1963252089917651 31.841529561206698 1.4608633313328021 150.89304807595909 2.6161003429442644 18.727188820019368 5.4260019268840542 8.3006413113325817 1.7873398307710884 1.7004006709903476 2.5246043056249619 2.1413914281874895 2.9652253799140453
leaf_count=1425 2233 444 83 114 68 187 69 172 134 1265 69 7625 122 852 240 371 83 78 94 106 120
internal_value=0 -0.0155573 0.0174488 0.0749289 0.159508 0.0477866 -0.0243472 0.0527228 0.0586037 0.0632487 -0.0264751 -0.0278484 0.0577275 0.00149691 0.0231452 -0.00921452 0 0.00908729 0 0.0290018 0
internal_weight=340.173 256.243 52.5361 10.1806 4.49022 83.9299 203.707 80.2416 72.9572 66.7956 199.607 196.004 4.1007 42.3555 15.3277 27.0278 7.28449 5.49715 5.69038 3.60225 6.16155
internal_count=15954 12490 2266 359 151 3464 10224 3277 2944 2690 10033 9858 191 1907 684 1223 333 250 208 175 254
is_linear=0
shrinkage=0.0976639


Tree=27
num_leaves=23
num_cat=0
split_feature=6 6 0 0 12 11 7 0 7 0 10 2 6 21 14 21 7 0 6 7 7 7
split_gain=34.0985 10.1904 8.64264 5.02658 4.21651 3.11829 3.02856 2.3823 1.98608 2.72254 2.28103 1.91227 1.917 3.53906 1.82124 1.9045 1.49608 0.54453 0.564681 0.516026 0.355219 0.33974
threshold=7.5000000000000009 4.5000000000000009 2019.5000000000002 2018.5000000000002 1.0000000180025095e-35 1.0000000180025095e-35 2.5000000000000004 2022.5000000000002 3.5000000000000004 2022.5000000000002 1.0000000180025095e-35 1.0000000180025095e-35 8.5000000000000018 1.0000000180025095e-35 1.0000000180025095e-35 1.0000000180025095e-35 2.5000000000000004 2019.5000000000002 6.5000000000000009 6.5000000000000009 1.0000000180025095e-35 1.0000000180025095e-35
decision_type=2 2 2 2 2 2 2 2 2 2 2 2 2 2 2 2 2 2 2 2 2 2
left_child=1 2 3 16 7 8 -5 -4 9 -3 -10 12 14 19 15 -2 -1 21 -19 -14 -13 -7
right_child=11 5 4 6 -6 17 -8 -9 10 -11 -12 20 13 -15 -16 -17 -18 18 -20 -21 -22 -23
leaf_value=0.024000694413875218 -0.011254051667031839 0.011800355287685542 0.022365346532112005 0.1175435526708042 0.080018708653683282 0.0069355183741539282 0.036609561759461139 -0.0086724192147699004 -0.0084435702526530088 0.048995402853539802 0.033499498006234765 -0.074704076880619058 -0.0136923877449048 -0.04764609719843562 0.035861905060659435 0.022052910382066401 0.065813167367319847 -0.004250870359577782 -0.054783339452513388 -0.031612120467217224 -0.015531705891776475 -0.022520496672342585
leaf_weight=31.395114496350288 164.26293638721108 160.76095281541348 74.509394321590662 20.325805783271793 9.5958610922098142 6.3841293565928954 9.2787619605660421 31.11499696969986 71.336322706192732 22.31231839209795 14.175425723195074 6.1820764206349832 372.45501387864351 35.580352447926998 8.5856693908572179 16.659928686916828 16.127762489020824 6.2294842116534692 7.7253399267792702 20.952649410814047 4.6882224343717098 5.221841748803854
leaf_count=414 2408 2219 980 261 123 91 122 410 1032 309 184 94 5521 532 115 245 221 92 111 322 71 77
internal_value=2.31178e-05 0.0194718 0.036984 0.0624715 0.0192212 0.00778994 0.0952316 0.0127483 0.0110353 0.0167726 -0.000694667 -0.0149348 -0.0140715 -0.0177383 -0.00547087 -0.00783737 0.0399647 -0.0237864 -0.0369267 -0.0148279 -0.0559731 -0.00269832
internal_weight=1115.86 486.494 192.348 77.1274 115.22 294.146 29.6046 105.624 268.585 183.073 85.5117 629.367 618.497 428.988 189.509 180.923 47.5229 25.5608 13.9548 393.408 10.8703 11.606
internal_count=15954 6646 2531 1018 1513 4115 383 1390 3744 2528 1216 9308 9143 6375 2768 2653 635 371 203 5843 165 168
is_linear=0
shrinkage=0.0976639


Tree=28
num_leaves=21
num_cat=0
split_feature=17 11 9 14 19 0 1 5 0 0 5 0 0 5 5 5 5 5 5 5
split_gain=14.3892 14.0945 9.83089 7.88212 8.16597 3.9516 6.1299 5.15979 2.79136 5.07342 5.01202 2.12883 3.94361 1.4345 1.02825 0.816608 0.532038 0.551982 0.210726 0.0530036
threshold=1.0000000180025095e-35 1.0000000180025095e-35 1.0000000180025095e-35 1.0000000180025095e-35 1.0000000180025095e-35 2019.5000000000002 1.0000000180025095e-35 1.5000000000000002 2017.5000000000002 2020.5000000000002 1.0000000180025095e-35 2022.5000000000002 2020.5000000000002 1.5000000000000002 1.0000000180025095e-35 2.5000000000000004 5.5000000000000009 2.5000000000000004 4.5000000000000009 4.5000000000000009
decision_type=2 2 2 2 2 2 2 2 2 2 2 2 2 2 2 2 2 2 2 2
left_child=1 2 3 4 -1 7 -7 -4 13 10 -10 12 16 -3 -5 -11 17 -2 -13 -14
right_child=11 8 5 14 -6 6 -8 -9 9 15 -12 18 19 -15 -16 -17 -18 -19 -20 -21
leaf_value=0.0083854393389864567 -0.016956156397473887 0.016559667740198403 0.011764367181230393 -0.025264597157280803 -0.030289333256465049 -0.023516275676403842 0.012867862929805492 -0.020482550078502481 -0.047779961303839102 -0.0098139956714684562 -0.013352329703642172 0 -0.048936295068947623 -0.015383385288830436 -0.007822377657727619 0.0069904558981964196 -0.029503007865524521 0 -0.012433590634494167 -0.028922590043949141
leaf_weight=2446.5453520566225 33.724687188863754 36.613324657082558 143.7110548466444 59.476472109556198 52.023671165108681 225.83687551319599 52.462294608354568 69.497800648212433 83.386774882674217 173.37965412437916 89.200084283947945 27.38034451007843 63.079033613204956 19.10165111720562 99.339268639683723 28.649324402213097 18.032525807619095 32.208632096648216 17.892535507678986 20.396658927202225
leaf_count=10227 144 156 602 250 218 957 220 293 362 749 382 117 276 81 418 122 77 137 77 89
internal_value=7.71819e-05 0.00155906 0.00383832 0.00619652 0.00755194 -0.00879949 -0.0164612 0.000984662 -0.0149815 -0.0180403 -0.0304002 -0.024546 -0.0296719 0.0046561 -0.0147516 -0.00716556 -0.0136773 -0.00833302 -0.00432728 -0.0449195
internal_weight=3791.94 3579.22 3148.89 2657.38 2498.57 491.508 278.299 213.209 430.331 374.616 172.587 212.714 167.442 55.715 158.816 202.029 83.9658 65.9333 45.2729 83.4757
internal_count=15954 15037 13185 11113 10445 2072 1177 895 1852 1615 744 917 723 237 668 871 358 281 194 365
is_linear=0
shrinkage=0.0976639


Tree=29
num_leaves=20
num_cat=0
split_feature=6 7 16 5 17 19 5 6 1 1 5 7 5 13 5 6 7 5 5
split_gain=23.157 23.8793 6.17221 8.80482 5.22527 4.46371 4.27216 5.83048 3.82197 3.34567 6.88968 6.51276 2.73705 2.24869 1.96416 2.79233 1.30045 0.695425 0.523084
threshold=7.5000000000000009 6.5000000000000009 1.0000000180025095e-35 3.5000000000000004 1.0000000180025095e-35 1.0000000180025095e-35 1.0000000180025095e-35 4.5000000000000009 1.0000000180025095e-35 1.0000000180025095e-35 2.5000000000000004 5.5000000000000009 6.5000000000000009 1.0000000180025095e-35 5.5000000000000009 6.5000000000000009 5.5000000000000009 1.5000000000000002 2.5000000000000004
decision_type=2 2 2 2 2 2 2 2 2 2 2 2 2 2 2 2 2 2 2
left_child=4 5 3 17 6 9 7 8 -1 11 -11 -2 13 -8 15 18 -9 -3 -6
right_child=1 2 -4 -5 14 -7 12 16 -10 10 -12 -13 -14 -15 -16 -17 -18 -19 -20
leaf_value=-0.0041643068841353834 0.0069157693632830386 0.012698563451050242 -0.070379298227088702 -0.058892993316823593 -0.049580285966425122 0.055568144215235295 -0.00329697032160953 -0.0086269222641849001 -0.039010268653711877 0.0098376549941677667 0.038055167410544842 -0.033277619521925803 -0.03457313221701086 0.016460855570607558 -0.0028249435739633533 -0.0025603072738245624 0.014349371492764428 -0.0073049083895059784 -0.029160450789926178
leaf_weight=45.376514077186584 1553.2979331016541 23.351117491722107 31.829596504569054 37.098756745457649 44.311990663409233 19.013193547725677 895.79089359939098 360.06634633243084 115.1199889332056 531.38335803151131 99.833208903670311 38.378808155655861 24.957314908504486 57.255009323358536 33.090767666697502 28.415629431605339 22.967448428273201 51.158204600214958 50.541577085852623
leaf_count=179 6057 93 137 151 182 74 3536 1416 461 2055 387 150 99 227 134 116 91 204 205
internal_value=9.74385e-05 0.00629275 -0.0321723 -0.0204673 -0.0086788 0.0087853 -0.00687908 -0.0138412 -0.0295316 0.00834562 0.0144166 0.0059011 -0.00295115 -0.00204605 -0.0257642 -0.0314642 -0.0070943 -0.00030389 -0.0395132
internal_weight=4063.24 2385.34 143.438 111.608 1677.89 2241.91 1521.53 543.53 160.497 2222.89 631.217 1591.68 978.003 953.046 156.36 123.269 383.034 74.5093 94.8536
internal_count=15954 9308 585 448 6646 8723 6009 2147 640 8649 2442 6207 3862 3763 637 503 1507 297 387
is_linear=0
shrinkage=0.0976639


Tree=30
num_leaves=12
num_cat=0
split_feature=11 18 13 7 7 14 3 7 8 3 7
split_gain=47.2224 10.4799 6.29895 6.06851 5.15979 5.09624 5.44709 5.09379 3.38611 0.657879 0.419105
threshold=1.0000000180025095e-35 1.0000000180025095e-35 1.0000000180025095e-35 1.0000000180025095e-35 5.5000000000000009 1.0000000180025095e-35 1.0000000180025095e-35 6.5000000000000009 1.0000000180025095e-35 1.0000000180025095e-35 3.5000000000000004
decision_type=2 2 2 2 2 2 2 2 2 2 2
left_child=1 2 5 9 -5 6 -1 10 -7 -2 -4
right_child=3 -3 7 4 -6 8 -8 -9 -10 -11 -12
leaf_value=-0.0093097367993197136 0.031015119396783176 0.031661865671544255 -0.027566994428823738 -0.0060638531202988353 0.037862674133039058 0.04221863736876038 -0.0001933549800225805 0.026052480356442011 0.005084947239968423 0.043614867526825925 -0.048664161345749031
leaf_weight=1390.8015377223492 117.05038966238499 74.177610352635384 110.77286863327026 63.820825323462486 40.102376446127892 30.97042527794838 1156.2215623706579 15.066735759377478 108.19725957512856 175.7448645234108 20.157217860221863
leaf_count=6823 545 350 548 309 189 148 5540 73 520 809 100
internal_value=0 -0.00431492 -0.00528239 0.031579 0.0105369 -0.00418244 -0.0051924 -0.0250623 0.013875 0.0388335 -0.0314329
internal_weight=3303.08 2906.37 2832.19 396.718 103.923 2686.19 2547.02 145.997 139.168 292.795 130.93
internal_count=15954 14102 13752 1852 498 13031 12363 721 668 1354 648
is_linear=0
shrinkage=0.0976639


Tree=31
num_leaves=15
num_cat=0
split_feature=8 3 1 17 16 23 14 13 0 0 17 16 13 23
split_gain=33.6721 43.379 38.5542 9.0135 8.00243 1.18628 0.890611 0.79012 0.8653 0.632321 0.533245 0.642643 0.260838 0.214669
threshold=1.0000000180025095e-35 1.0000000180025095e-35 1.0000000180025095e-35 1.0000000180025095e-35 1.0000000180025095e-35 1.0000000180025095e-35 1.0000000180025095e-35 1.0000000180025095e-35 2018.5000000000002 2020.5000000000002 1.0000000180025095e-35 1.0000000180025095e-35 1.0000000180025095e-35 1.0000000180025095e-35
decision_type=2 2 2 2 2 2 2 2 2 2 2 2 2 2
left_child=10 2 3 4 -2 6 12 8 -4 -8 11 13 -3 -1
right_child=1 5 7 -5 -6 -7 9 -9 -10 -11 -12 -13 -14 -15
leaf_value=-0.065651570864684983 0.067385522044527343 -0.017941983991404183 0.015973976776948732 0.178909491588711 0.18229395076381535 -0.056473008873986354 -0.0017407302387060703 0.044181634022341175 -0.0085453356478196359 0.050582365926181476 -0.02921915868067293 0 -0.044358216275605281 -0.011295521756489318
leaf_weight=58.392842445522547 57.958283303305507 136.20828731916845 17.368956007063389 12.509189659729598 6.9464922640472642 9.2341685071587545 2.8919340334832659 3.1017355490475884 51.578401636332273 2.2194292955100536 14.452669886872171 2.6055236309766761 6.4371531736105672 3.3375414554029694
leaf_count=2466 2165 5976 734 376 229 404 128 132 2224 98 490 104 284 144
internal_value=0 0.014706 0.0523489 0.0998906 0.0822049 -0.0208809 -0.0180685 0.000117458 -0.00154547 0.0154644 -0.0566207 -0.0616295 -0.0196909 -0.0636789
internal_weight=385.243 306.454 149.463 77.414 64.9048 156.991 147.757 72.0491 68.9474 5.11136 78.7886 64.3359 142.645 61.7304
internal_count=15954 12750 5860 2770 2394 6890 6486 3090 2958 226 3204 2714 6260 2610
is_linear=0
shrinkage=0.0976639


Tree=32
num_leaves=18
num_cat=0
split_feature=0 21 5 1 0 1 1 6 5 5 10 6 5 0 1 6 10
split_gain=7.01039 4.73976 5.15847 3.09751 2.53223 1.99747 1.67582 1.23958 0.792324 0.741534 0.741279 1.43407 0.687482 0.422486 0.388366 0.166519 0.0538558
threshold=2020.5000000000002 1.0000000180025095e-35 1.0000000180025095e-35 1.0000000180025095e-35 2018.5000000000002 1.0000000180025095e-35 1.0000000180025095e-35 5.5000000000000009 1.0000000180025095e-35 5.5000000000000009 1.0000000180025095e-35 6.5000000000000009 1.5000000000000002 2019.5000000000002 1.0000000180025095e-35 8.5000000000000018 1.0000000180025095e-35
decision_type=2 2 2 2 2 2 2 2 2 2 2 2 2 2 2 2 2
left_child=1 4 15 -4 6 16 9 -7 14 -1 11 -9 -8 -10 -6 -3 -2
right_child=5 2 3 -5 8 7 12 10 13 -11 -12 -13 -14 -15 -16 -17 -18
leaf_value=0.06030655785886662 -0.0545327881494675 -0.01882996261917046 0.27876783342627204 0 -0.049108449455882303 -0.049377644220826175 0.016706759972168625 0.11026500124592939 -0.009747308556119284 0 0.080146563800743989 -0.014139459575769248 -0.045288818954466972 0.02542436601355428 0 0.023389023522129061 0
leaf_weight=13.400213159853593 18.442432529991496 0.94699008273892027 1.2199887242168186 0.7682888836134224 4.9507481714244959 2.3100105281919259 3.2042805913370094 0.35850412165746082 5.872075973544268 0.53316369000822383 1.1342049702070651 4.9286115658469498 1.9973351862281559 4.6589958746917546 2.3177582016214728 1.1781186619773507 1.5709989622700948
leaf_count=2800 4768 249 228 139 1268 625 663 96 1149 68 241 1094 391 1096 516 175 388
internal_value=0.000184608 0.0266288 0.119585 0.210221 0.0129697 -0.0355997 0.037687 0 -0.0112637 0.0549541 0.0253142 0 -0.000936697 0.00188232 -0.0352356 0 -0.052184
internal_weight=69.7927 41.048 4.11339 1.98828 36.9346 28.7448 19.135 8.73133 17.7996 13.9334 6.42132 5.28712 5.20162 10.5311 7.26851 2.12511 20.0134
internal_count=15954 8742 791 367 7951 7212 3922 2056 4029 2868 1431 1190 1054 2245 1784 424 5156
is_linear=0
shrinkage=0.0976639


Tree=33
num_leaves=18
num_cat=0
split_feature=17 7 7 6 6 6 0 7 6 0 5 5 6 0 6 8 10
split_gain=155.696 154.114 100.115 88.3443 13.7129 19.3139 8.8336 7.6733 11.4122 13.0009 3.02583 2.46842 2.30189 2.17963 2.12221 2.05714 1.25104
threshold=1.0000000180025095e-35 6.5000000000000009 3.5000000000000004 8.5000000000000018 3.5000000000000004 8.5000000000000018 2019.5000000000002 1.5000000000000002 8.5000000000000018 2020.5000000000002 1.5000000000000002 2.5000000000000004 4.5000000000000009 2022.5000000000002 7.5000000000000009 1.0000000180025095e-35 1.0000000180025095e-35
decision_type=2 2 2 2 2 2 2 2 2 2 2 2 2 2 2 2 2
left_child=1 7 4 11 -2 -6 -5 12 10 -10 -9 15 13 -1 -4 -3 -13
right_child=2 3 14 6 5 -7 -8 8 9 -11 -12 16 -14 -15 -16 -17 -18
leaf_value=-0.048629713188549167 0.087039443741625741 0.088227282375945182 -0.07209089377071709 0.14171434482041836 0.32922815912312092 0.11183011023914818 0.30863512999822756 -0.011063064005870569 -0.056653875333217828 0.11665605678331374 -0.069062787379849513 -0.064701371883252187 -0.068762014688226888 0.011644534153057277 0.00094007679280822996 -0.0074945111811862255 0.0041529052101841827
leaf_weight=17.389115093275908 5.7780352141708127 2.150970570743084 10.758692851290105 7.6066310517489937 20.761014634743336 6.8768329732120028 16.495011925697327 16.169041553512216 6.0239335503429166 9.3778249491006118 27.169172339141369 8.6150125786662066 185.86422575265169 6.3002214990556231 3.6772376690059891 5.6038679927587536 1.5563014689832932
leaf_count=896 110 98 321 92 282 115 218 825 296 357 1381 444 9824 240 89 285 81
internal_value=-0.00295911 -0.0284796 0.159594 0.143641 0.251233 0.280878 0.263291 -0.055923 -0.0230049 0.0461846 -0.0490766 -0.0182176 -0.0648057 -0.0306403 -0.0509212 0.0179763 -0.0498887
internal_weight=358.173 310.321 47.8518 42.0278 33.4159 27.6378 24.1016 268.294 58.74 15.4018 43.3382 17.9262 209.554 23.6893 14.4359 7.75484 10.1713
internal_count=15954 15037 917 1218 507 397 310 13819 2859 653 2206 908 10960 1136 410 383 525
is_linear=0
shrinkage=0.0976639


Tree=34
num_leaves=20
num_cat=0
split_feature=3 6 7 7 6 6 0 6 17 0 0 6 7 7 6 7 6 6 6
split_gain=23.4824 10.4295 14.9983 4.67203 7.34706 6.11814 4.10169 3.43294 2.80791 5.54135 18.4897 1.6018 1.19132 1.08507 0.457319 0.432738 0.413847 0.04052 0.124709
threshold=1.0000000180025095e-35 5.5000000000000009 1.0000000180025095e-35 5.5000000000000009 4.5000000000000009 2.5000000000000004 2017.5000000000002 4.5000000000000009 1.0000000180025095e-35 2021.5000000000002 2020.5000000000002 8.5000000000000018 4.5000000000000009 1.5000000000000002 8.5000000000000018 1.5000000000000002 6.5000000000000009 8.5000000000000018 7.5000000000000009
decision_type=2 2 2 2 2 2 2 2 2 2 2 2 2 2 2 2 2 2 2
left_child=1 2 7 5 -5 -4 17 -1 11 10 -10 12 -3 -13 16 -11 -8 18 -2
right_child=6 8 3 4 -6 -7 14 -9 9 15 -12 13 -14 -15 -16 -17 -18 -19 -20
leaf_value=0.08236451536642761 0.0098757921945005125 0.020296508129757418 0.054921556314472701 0.11048355703263907 -0.0069608896573771315 -0.028109875267189822 -0.047434140368620176 0.18941752760541744 -0.011866553803371338 -0.036207284164950011 0.28317143621455682 -0.025821866221545718 -0.0073312137965938547 0.0019075770053176185 -0.045606716991256409 0 -0.020120273048352292 0.0094820054573420479 -0.0087884377031469327
leaf_weight=20.645003085955981 6.4593957792967558 33.053869532421231 11.728385722264646 10.218661781400444 7.9658156782388678 25.83843364007771 11.942305957898496 4.998924456536769 4.6479753032326681 3.3646422419697046 2.4956290274858475 33.033426377922297 22.714131889864802 16.977165715768933 63.415688153356314 3.8976968042552471 40.417858662083745 10.542701207101345 5.7181809060275555
leaf_count=797 309 1600 457 393 314 1004 577 196 186 133 60 1659 1044 825 3328 161 2096 529 286
internal_value=0 0.0213814 0.0482584 0.0182288 0.057939 -0.000350328 -0.0307411 0.109478 0.00259165 0.0422306 0.100257 -0.00256387 0.0081925 -0.0155082 -0.0382101 -0.0121284 -0.0278299 0.00515637 0
internal_weight=340.076 201.58 81.3952 55.7513 18.1845 37.5668 138.496 25.6439 120.185 14.4059 7.1436 105.779 55.768 50.0106 115.776 7.26234 52.3602 22.7203 12.1776
internal_count=15954 8829 3161 2168 707 1461 7125 993 5668 540 246 5128 2644 2484 6001 294 2673 1124 595
is_linear=0
shrinkage=0.0976639


Tree=35
num_leaves=25
num_cat=0
split_feature=6 8 0 0 7 11 6 6 7 9 0 0 0 6 23 7 11 14 8 1 0 6 17 6
split_gain=27.8005 8.75658 9.74954 8.53075 8.50531 6.39043 5.79558 5.11256 3.31411 2.38735 3.4703 3.36865 2.11906 1.69698 2.51501 3.5564 1.9974 1.76112 1.56971 1.47967 1.35593 0.940443 0.885663 0.841249
threshold=7.5000000000000009 1.0000000180025095e-35 2021.5000000000002 2018.5000000000002 5.5000000000000009 1.0000000180025095e-35 3.5000000000000004 5.5000000000000009 5.5000000000000009 1.0000000180025095e-35 2022.5000000000002 2021.5000000000002 2019.5000000000002 8.5000000000000018 1.0000000180025095e-35 1.0000000180025095e-35 1.0000000180025095e-35 1.0000000180025095e-35 1.0000000180025095e-35 1.0000000180025095e-35 2020.5000000000002 3.5000000000000004 1.0000000180025095e-35 4.5000000000000009
decision_type=2 2 2 2 2 2 2 2 2 2 2 2 2 2 2 2 2 2 2 2 2 2 2 2
left_child=1 2 3 6 5 7 -1 -3 23 13 11 18 -5 17 16 -16 -15 20 -11 -7 -2 -6 -23 -4
right_child=9 4 8 12 21 19 -8 -9 -10 10 -12 -13 -14 14 15 -17 -18 -19 -20 -21 -22 22 -24 -25
leaf_value=0.09468584301854692 -0.017991794962591155 0.033767993042993182 0.0042013023809323279 0.13910138475251496 0.010816486208684311 -0.0048808273645299738 -0.010141476321195256 0.0072955660992439914 0.049429122653303854 -0.045906971605100821 -0.043616864772819577 0.049151310195747727 0.072727738899672933 -0.026080569978172465 -0.010686396180452777 0.070138104914487021 -0.0047959231596421915 0.031992574046739074 0.0033001954833761491 -0.054137284276023351 0 -0.015774304661555376 -0.051276203505661852 -0.027359867867549868
leaf_weight=6.1708425730466869 90.222918644547462 163.39399329945445 10.58658552914858 12.041608177125452 7.0058512836694709 18.691432867199183 16.273857530206442 131.64146567881107 10.479079157114027 6.1068890839815131 14.062478631734846 14.710102349519728 23.101543486118317 273.15076241642237 20.149831961840395 6.0319327116012564 57.280586753040552 8.8577280268073064 64.517624005675316 10.199527591466905 64.980400770902634 60.17783385515213 9.4185265377163869 16.250306103378534
leaf_count=77 1336 2045 137 157 88 271 226 1820 146 90 216 218 306 4152 303 83 878 115 951 147 966 866 135 225
internal_value=3.08212e-05 0.0173118 0.0440603 0.0690833 0.0107841 0.0177808 0.0184078 0.0221713 0.00356826 -0.0136987 0 0.00767369 0.0990766 -0.0163435 -0.0202143 0.00734051 -0.0225612 -0.00757357 -0.000637688 -0.024823 -0.0102855 -0.0180437 -0.0217462 -0.0132692
internal_weight=1115.5 495.432 94.9038 57.5879 400.529 323.926 22.4447 295.035 37.316 620.071 99.3971 85.3346 35.1432 520.674 356.613 26.1818 330.431 164.061 70.6245 28.891 155.203 76.6022 69.5964 26.8369
internal_count=15954 6646 1274 766 5372 4283 303 3865 508 9308 1475 1259 463 7833 5416 386 5030 2417 1041 418 2302 1089 1001 362
is_linear=0
shrinkage=0.0976639


Tree=36
num_leaves=25
num_cat=0
split_feature=6 3 7 6 20 0 21 5 5 7 5 0 6 21 0 23 5 0 0 5 0 5 5 0
split_gain=37.8795 14.748 14.6354 9.96749 9.79212 7.67618 9.54552 6.5259 5.56696 5.5365 5.52874 4.71755 4.10843 4.06697 3.66414 3.11391 3.05825 4.86494 2.65818 2.41431 1.8499 1.40019 1.21493 0.992399
threshold=4.5000000000000009 1.0000000180025095e-35 3.5000000000000004 8.5000000000000018 1.0000000180025095e-35 2018.5000000000002 1.0000000180025095e-35 1.5000000000000002 4.5000000000000009 1.0000000180025095e-35 1.5000000000000002 2018.5000000000002 2.5000000000000004 1.0000000180025095e-35 2019.5000000000002 1.0000000180025095e-35 3.5000000000000004 2020.5000000000002 2022.5000000000002 3.5000000000000004 2022.5000000000002 1.0000000180025095e-35 1.5000000000000002 2020.5000000000002
decision_type=2 2 2 2 2 2 2 2 2 2 2 2 2 2 2 2 2 2 2 2 2 2 2 2
left_child=2 3 8 13 5 7 -7 -3 12 10 -5 -11 18 15 -15 -2 21 -18 -1 -14 22 -4 -6 -23
right_child=1 4 16 9 20 6 -8 -9 -10 11 -12 -13 19 14 -16 -17 17 -19 -20 -21 -22 23 -24 -25
leaf_value=0.038797709965661092 -0.0081929409881940658 0.016739430905229485 0.028513525431135854 -0.037003586959463361 0.042521123431186095 -0.0073672712193665535 0.024452429484071069 -0.010718316644242514 -0.0055566908291336458 0.015718006980275024 -0.0088259344312366685 -0.0165994991015114 0.027636940494982692 0.045907796212593485 -0.00021747926590473545 0.014797733195250819 -0.060701484748295217 0.003082521046272547 0.073020774344413009 -0.0065730023641399418 0 -0.0088408763693055923 0.011291738601085665 0.010272346313107238
leaf_weight=159.84142337739468 779.05948339402676 363.95568512380123 19.132785469293594 247.00008411705494 69.542066976428032 984.63856106996536 97.756760716438293 103.85406789183617 34.554222241044044 52.292503327131271 98.550872072577477 206.5049951672554 220.22884321212769 26.765324249863625 35.608046323060989 58.489079460501671 19.380999282002449 23.078917175531387 31.305597394704819 18.783762618899345 16.836099565029144 54.411447897553444 20.826818957924843 48.22746354341507
leaf_count=625 3292 1518 77 1085 290 4179 409 437 143 225 430 899 886 111 148 242 82 97 122 77 71 225 87 197
internal_value=7.7887e-05 -0.0042642 0.0219671 -0.0112688 0.00206457 5.18729e-05 -0.00443322 0.0105289 0.0308222 -0.0209874 -0.0291466 -0.00985018 0.0338663 -0.00467504 0.0190508 -0.00651632 -0.00280571 -0.0253505 0.044904 0.024726 0.0305164 0.00473761 0.0360176 0
internal_weight=3790.63 3161.68 628.945 1504.27 1657.41 1550.21 1082.4 467.81 464.714 604.348 345.551 258.797 430.16 899.922 62.3734 837.549 164.232 42.4599 191.147 239.013 107.205 121.772 90.3689 102.639
internal_count=15954 13423 2531 6432 6991 6543 4588 1955 1853 2639 1515 1124 1710 3793 259 3534 678 179 747 963 448 499 377 422
is_linear=0
shrinkage=0.0976639


Tree=37
num_leaves=25
num_cat=0
split_feature=7 6 8 17 11 12 5 5 7 10 6 1 17 5 5 1 6 5 6 6 6 5 7 5
split_gain=19.5464 18.9677 4.56704 6.67949 4.534 4.48153 4.45653 4.71212 4.23913 4.34937 4.12303 3.22184 2.91521 2.86457 2.78496 2.12035 1.79487 1.60089 0.988462 1.34061 0.698799 0.547416 0.0299343 0.000268634
threshold=6.5000000000000009 7.5000000000000009 1.0000000180025095e-35 1.0000000180025095e-35 1.0000000180025095e-35 1.0000000180025095e-35 1.0000000180025095e-35 3.5000000000000004 2.5000000000000004 1.0000000180025095e-35 2.5000000000000004 1.0000000180025095e-35 1.0000000180025095e-35 3.5000000000000004 2.5000000000000004 1.0000000180025095e-35 8.5000000000000018 1.5000000000000002 8.5000000000000018 6.5000000000000009 7.5000000000000009 2.5000000000000004 1.5000000000000002 2.5000000000000004
decision_type=2 2 2 2 2 2 2 2 2 2 2 2 2 2 2 2 2 2 2 2 2 2 2 2
left_child=1 8 3 15 5 -4 16 20 10 13 14 -11 -12 -10 -1 -3 -2 -6 19 -9 21 -8 -5 -22
right_child=6 2 4 22 17 -7 7 18 9 11 12 -13 -14 -15 -16 -17 -18 -19 -20 -21 23 -23 -24 -25
leaf_value=-0.01373504317114721 -0.0180270627364311 0.0090975763529888617 0.0095540142363712537 -0.012915606182412442 -0.0024513844272353669 -0.004990082233755069 -0.017288628056884525 -0.041330115305222639 -0.0073196990572466213 0.0020528927459212 -0.0052971420080586609 0.050984092647931863 -0.029022546191141262 0.013462670592701825 -0.040507224591956367 0.024682688951827802 -0.062129918820678719 -0.02249502305954755 -0.058706102140505818 -0.013588210337869696 0.00029104716720090374 -0.0034053085673048031 -0.030451706749333982 0
leaf_weight=120.23832961916924 17.720492705702782 134.18653501570225 1339.3272864669561 18.933305308222771 159.01225031912327 232.63878232240677 78.975933820009232 41.10021498799324 246.5541544854641 28.011103123426437 839.92133072018623 27.346554532647133 53.246020674705505 83.520167157053947 60.912391915917397 295.43357670307159 34.542236566543579 52.737991958856583 17.203146010637283 41.38917663693428 29.574006393551826 57.682884484529495 16.978973492980003 34.217447817325592
leaf_count=485 71 524 5195 78 621 910 318 168 974 110 3316 108 225 332 243 1121 152 206 73 170 118 231 68 137
internal_value=0.000101331 0.00220364 0.00783934 0.0165037 0.00554424 0.00736815 -0.0218434 -0.0169254 -0.00644501 0.00223268 -0.0096049 0.0274523 -0.00678907 -0.00189104 -0.0231329 0.0199546 -0.048554 -0.00773762 -0.0343642 -0.0282432 -0.00791416 -0.0118432 -0.0230006 0
internal_weight=4061.4 3709 2249.25 465.532 1783.72 1571.97 352.406 300.143 1459.75 385.432 1074.32 55.3577 893.167 330.074 181.151 429.62 52.2627 211.75 99.6925 82.4894 200.45 136.659 35.9123 63.7915
internal_count=15954 14516 8723 1791 6932 6105 1438 1215 5793 1524 4269 218 3541 1306 728 1645 223 827 411 338 804 549 146 255
is_linear=0
shrinkage=0.0976639


Tree=38
num_leaves=24
num_cat=0
split_feature=6 11 0 5 18 0 5 6 0 6 0 7 6 6 0 5 5 7 6 5 5 7 6
split_gain=66.99 34.1153 12.2052 7.19675 5.791 5.7351 5.56486 4.95439 3.58836 5.65348 3.42964 3.50647 2.93793 2.7103 3.291 2.34783 2.07989 1.61255 0.921728 0.657497 0.529628 0.440748 0.317869
threshold=4.5000000000000009 1.0000000180025095e-35 2017.5000000000002 4.5000000000000009 1.0000000180025095e-35 2017.5000000000002 2.5000000000000004 7.5000000000000009 2018.5000000000002 2.5000000000000004 2019.5000000000002 1.5000000000000002 6.5000000000000009 3.5000000000000004 2020.5000000000002 1.5000000000000002 1.5000000000000002 3.5000000000000004 8.5000000000000018 1.5000000000000002 1.0000000180025095e-35 6.5000000000000009 5.5000000000000009
decision_type=2 2 2 2 2 2 2 2 2 2 2 2 2 2 2 2 2 2 2 2 2 2 2
left_child=3 2 15 8 7 20 -6 -4 9 19 -10 -12 22 14 -5 17 -11 -2 -14 -1 -3 -17 -7
right_child=1 5 4 13 6 12 -8 -9 10 16 11 -13 18 -15 -16 21 -18 -19 -20 -21 -22 -23 -24
leaf_value=-0.064429999226135654 -0.018512524349024406 0.012020947719840141 -0.003547485768371837 -0.045589751694455741 0.057069833007165637 0 -0.001223315100900967 0.0066938894305891544 -0.064930131905828081 -0.021951399043801313 -0.049411349775514646 -0.024954916975051859 0.032288454277274184 0.032362035609034806 0.013080706277603609 -0.0066675302088797404 0.010366628700297373 -0.049801344700704873 0.046976063187973996 -0.027501144733946572 -0.0091059879426284625 0.0085521688126116019 0.017284642816817221
leaf_weight=23.070015668869019 201.50536416471004 20.627747893333435 650.07632720470428 16.576674923300743 37.452702537178993 15.023508816957474 23.602252691984177 1429.6661818921566 63.234764888882637 35.290707886219025 127.54485858976841 126.43652868270874 103.55036211013794 16.873091191053391 16.928474083542824 84.773460865020752 37.533856987953186 19.391264826059341 177.71637389063835 15.494575887918471 23.125794902443886 20.027436852455139 15.679505527019501
leaf_count=127 1008 98 3143 85 171 71 108 6773 349 180 686 669 467 79 85 419 188 99 785 83 110 100 71
internal_value=2.6374e-05 0.00577538 0.00167208 -0.0337021 0.00437154 0.0340274 0.0339468 0.00346821 -0.0378025 -0.0215825 -0.0432808 -0.0375339 0.0386636 0.000228359 -0.0147901 -0.0158884 -0.00466263 -0.0216312 0.0418387 -0.0516123 0 -0.00324233 0.00768674
internal_weight=3301.2 2822.22 2466.49 478.984 2140.8 355.723 61.055 2079.74 428.605 111.389 317.216 253.981 311.97 50.3782 33.5051 325.698 72.8246 220.897 281.267 38.5646 43.7535 104.801 30.703
internal_count=15954 13423 11821 2531 10195 1602 279 9916 2282 578 1704 1355 1394 249 170 1626 368 1107 1252 210 208 519 142
is_linear=0
shrinkage=0.0976639


Tree=39
num_leaves=11
num_cat=0
split_feature=7 8 8 7 2 20 17 11 22 2
split_gain=71.14 26.4583 16.6358 7.34551 8.54919 12.2242 4.61559 1.44592 0.958112 0.113186
threshold=6.5000000000000009 1.0000000180025095e-35 1.0000000180025095e-35 3.5000000000000004 1.0000000180025095e-35 1.0000000180025095e-35 1.0000000180025095e-35 1.0000000180025095e-35 1.0000000180025095e-35 1.0000000180025095e-35
decision_type=2 2 2 2 2 2 2 2 2 2
left_child=2 -2 9 4 8 -6 7 -5 -4 -1
right_child=1 -3 3 6 5 -7 -8 -9 -10 -11
leaf_value=-0.063077567150890801 -0.014021367851308251 0.14376451025800152 -0.01462039054752708 0.028519834458592245 -0.012619568755707309 0.2097287535084944 0.13149189212845522 -0.032047910535443848 -0.063579512734085963 0
leaf_weight=60.552781185135245 12.630678931251166 39.702714141458273 226.7996893581003 25.504132103174928 4.7035090718418351 3.2895945981144905 3.7991887703537932 3.0671982895582905 3.9659871999174348 1.5838938374072302
leaf_count=2765 378 1060 10005 1014 181 98 91 121 180 61
internal_value=0 0.105033 -0.0167577 -0.00604245 -0.0121453 0.0822383 0.0367662 0.0196952 -0.0158637 -0.062139
internal_weight=385.599 52.3334 333.266 271.129 238.759 7.9931 32.3705 28.5713 230.766 62.1367
internal_count=15954 1438 14516 11690 10464 279 1226 1135 10185 2826
is_linear=0
shrinkage=0.0976639


Tree=40
num_leaves=13
num_cat=0
split_feature=0 12 9 6 1 5 5 6 0 13 6 6
split_gain=5.95414 4.18352 3.38742 2.63283 1.87027 1.71996 1.34314 1.13015 0.630807 0.55296 0.537416 0.100191
threshold=2020.5000000000002 1.0000000180025095e-35 1.0000000180025095e-35 2.5000000000000004 1.0000000180025095e-35 2.5000000000000004 1.0000000180025095e-35 5.5000000000000009 2018.5000000000002 1.0000000180025095e-35 6.5000000000000009 7.5000000000000009
decision_type=2 2 2 2 2 2 2 2 2 2 2 2
left_child=1 2 3 -1 9 -4 -5 -6 -7 -2 -9 -12
right_child=4 -3 5 6 7 8 -8 10 -10 -11 11 -13
leaf_value=-0.042592022593477677 -0.054149707999811933 -0.061815515657414319 -0.062961825426187418 0.020814550610072948 -0.047882202986812956 0.089410076885851786 0.071457198756536985 0.089641676808762005 0 0 -0.0049426832009204858 0.012757461204114601
leaf_weight=1.8388696841429908 18.218695798423145 3.8489342916291198 4.0778198263142249 12.212582233361902 2.1929508622270095 0.48077371739782382 19.217362611787394 0.479868764290586 0.3833279877435416 0.79236922063864668 0.66842525848187495 5.3428821775596589
leaf_count=442 4944 907 1016 2704 625 92 3498 115 83 212 168 1148
internal_value=0.000223207 0.0239492 0.0348142 0.046625 -0.0337344 -0.0317205 0.0542089 0 0.0457332 -0.0504603 0.0242267 0.00290661
internal_weight=69.7549 42.0597 38.2107 33.2688 27.6952 4.94192 31.4299 8.68413 0.864102 19.0111 6.49118 6.01131
internal_count=15954 8742 7835 6644 7212 1191 6202 2056 175 5156 1431 1316
is_linear=0
shrinkage=0.0976639


Tree=41
num_leaves=17
num_cat=0
split_feature=17 7 7 6 7 6 9 6 6 6 5 6 5 8 10 6
split_gain=117.4 122.082 64.646 53.9169 7.35604 9.80283 8.37078 6.31462 8.41748 3.67469 2.89297 2.29769 2.17913 1.666 1.19185 0.029126
threshold=1.0000000180025095e-35 6.5000000000000009 3.5000000000000004 8.5000000000000018 1.5000000000000002 8.5000000000000018 1.0000000180025095e-35 3.5000000000000004 8.5000000000000018 8.5000000000000018 1.5000000000000002 4.5000000000000009 2.5000000000000004 1.0000000180025095e-35 1.0000000180025095e-35 1.5000000000000002
decision_type=2 2 2 2 2 2 2 2 2 2 2 2 2 2 2 2
left_child=1 4 7 12 11 10 -7 -2 -9 -4 -6 15 13 -3 -14 -1
right_child=2 3 9 -5 5 6 -8 8 -10 -11 -12 -13 14 -15 -16 -17
leaf_value=-0.055506761127400377 0.074747820967777615 0.076598013552441585 -0.072903479788027067 0.19489929083215352 -0.010141910086407923 0.0053707083981486556 0.19555191324917562 0.23727225025687709 0.093593857568949418 0.041759081809523931 -0.067754034201661081 -0.06737232284867456 -0.063332537980071074 -0.0071243527135646349 0.0036918369330312378 -0.02094409296323313
leaf_weight=2.7928476184606579 6.2030978444963685 2.3482365664094687 11.463860142976044 29.594864180311561 15.971469219774006 14.035376589745285 2.1085606049746266 26.195218173786998 7.5441755037754765 2.3321637883782378 25.415673114359379 173.72816700302064 8.1091279778629506 5.5751819759607342 1.5674499329179532 20.134744312614202
leaf_count=148 110 98 362 310 825 569 84 282 115 48 1381 9824 444 285 81 988
internal_value=-0.00323875 -0.0271597 0.128659 0.1157 -0.0541192 -0.0216924 0.0400699 0.191056 0.209082 -0.048974 -0.0472456 -0.0632421 -0.0169805 0.0158538 -0.0480448 -0.0287679
internal_weight=355.12 301.382 53.7385 47.1949 254.187 57.5311 16.1439 39.9425 33.7394 13.796 41.3871 196.656 17.6 7.92342 9.67658 22.9276
internal_count=15954 15037 917 1218 13819 2859 653 507 397 410 2206 10960 908 383 525 1136
is_linear=0
shrinkage=0.0976639


Tree=42
num_leaves=17
num_cat=0
split_feature=3 6 4 6 5 4 2 12 6 6 17 11 6 6 6 5
split_gain=19.8665 8.12791 4.5014 6.56983 4.32746 3.52771 3.28615 2.56975 2.08036 1.92794 1.36056 0.831499 0.33184 0.203402 0.182884 0.0240418
threshold=1.0000000180025095e-35 5.5000000000000009 1.0000000180025095e-35 2.5000000000000004 2.5000000000000004 1.0000000180025095e-35 1.0000000180025095e-35 1.0000000180025095e-35 1.5000000000000002 8.5000000000000018 1.0000000180025095e-35 1.0000000180025095e-35 8.5000000000000018 3.5000000000000004 6.5000000000000009 3.5000000000000004
decision_type=2 2 2 2 2 2 2 2 2 2 2 2 2 2 2 2
left_child=1 2 6 -4 7 10 8 11 -1 -9 -6 -3 14 -8 -2 -7
right_child=12 4 3 -5 5 15 13 9 -10 -11 -12 -13 -14 -15 -16 -17
leaf_value=0.12481836607782817 -0.034485416025427436 -0.012062616236524987 0.091220486051137015 -0.072343332474153255 0.023219566890665396 -0.051235229851811982 0 0.08690837938037424 0.048795522360435599 0 0.070012890548567533 -0.044168053247842745 -0.035049905027513747 -0.043215421924776856 -0.015630753344778661 -0.0074100434898592589
leaf_weight=4.4225164577364913 14.42004235088825 55.531327583827078 2.6497099399566633 6.5755043178796768 28.570625690743327 2.3706078343093386 2.303955288603901 3.2988883852958661 67.39353135228157 4.7853664327412844 10.464211052283643 11.025489943102 71.145392782986164 1.7985612694174049 48.793623918667436 4.360540971159935
leaf_count=164 717 2823 99 260 1255 109 90 148 2481 223 331 592 3857 67 2551 187
internal_value=0 0.019214 0.0422199 -0.017229 0.00238255 0.0261601 0.0501937 -0.0116272 0.0552941 0.0364258 0.0380163 -0.0185248 -0.0289738 -0.0236787 -0.0210439 -0.0329504
internal_weight=339.91 205.551 85.1438 9.22521 120.407 45.766 75.9186 74.6411 71.816 8.08425 39.0348 66.5568 134.359 4.10252 63.2137 6.73115
internal_count=15954 8829 3161 359 5668 1882 2802 3786 2645 371 1586 3415 7125 157 3268 296
is_linear=0
shrinkage=0.0976639


Tree=43
num_leaves=22
num_cat=0
split_feature=6 8 22 7 12 6 6 7 9 7 7 6 23 7 12 14 6 7 7 23 8
split_gain=22.5006 6.91553 7.27933 6.87632 4.81177 3.46751 3.40558 3.82536 2.02445 1.9117 1.52822 1.52149 2.16444 2.89859 2.18563 1.45878 1.26751 1.17872 1.59553 1.08733 0.144097
threshold=7.5000000000000009 1.0000000180025095e-35 1.0000000180025095e-35 5.5000000000000009 1.0000000180025095e-35 4.5000000000000009 4.5000000000000009 2.5000000000000004 1.0000000180025095e-35 1.0000000180025095e-35 4.5000000000000009 8.5000000000000018 1.0000000180025095e-35 1.0000000180025095e-35 1.0000000180025095e-35 1.0000000180025095e-35 3.5000000000000004 6.5000000000000009 4.5000000000000009 1.0000000180025095e-35 1.0000000180025095e-35
decision_type=2 2 2 2 2 2 2 2 2 2 2 2 2 2 2 2 2 2 2 2 2
left_child=1 6 3 4 -3 -4 7 -1 11 20 -9 15 14 -14 -13 19 -5 18 -8 -2 -10
